svm_type c_svc
kernel_type rbf
gamma 0.00012207
nr_class 24
total_sv 1053
rho -0.645191 -0.309068 -0.453939 -0.375183 -0.357445 -0.404535 -0.433302 -0.368463 -1.05863 -0.459895 -0.758213 -0.836954 -0.503509 -0.479343 -0.93244 -0.51362 -0.110382 -0.387208 -0.453588 -0.576317 -1.294 -0.0474964 -0.352687 0.132054 0.432435 0.488251 0.295377 0.324637 0.122771 -0.20748 0.0661712 0.0210193 -0.0790154 -0.0423379 -0.318968 0.306269 0.242743 -0.17226 0.234754 0.220603 -0.0814114 0.0874 -0.235287 0.0955867 -0.139105 0.911947 0.0928456 0.118372 0.378989 0.121793 -0.0508363 -0.214237 0.012906 -0.188134 -0.0789441 -0.194588 0.434741 -0.29674 -0.460133 -0.0100975 0.0437225 -0.206404 -0.153088 -0.437006 -0.170431 -0.479979 -0.0851297 0.0911162 0.161953 0.232279 -0.148136 -0.0427266 -0.0039353 0.228352 0.282124 -0.202376 -0.0455383 -0.190782 -0.198022 0.0519625 0.457733 -0.0197779 0.0756098 -0.156023 -0.0344163 -0.154506 0.209239 -0.0340126 0.305522 -0.228791 -0.155094 -0.490365 -0.166269 -0.11338 -0.057211 0.0348058 -0.0555962 -0.38015 0.0756057 -0.12874 -0.112356 0.0348995 -0.3144 -0.0800809 -0.307681 -0.155628 0.288026 -0.101132 0.0870813 -0.11833 -0.172142 -0.00508336 -0.633246 -0.0619261 -0.186997 -0.363696 0.179963 -0.129507 -0.200099 -0.0541624 -0.306379 -0.0297663 -0.339359 0.27473 -0.28371 -0.221176 -0.350329 -0.0948428 0.145954 -0.185517 0.079811 -0.017586 -0.30948 0.349737 -0.0638372 -0.138603 0.035942 -0.110882 0.0224696 -0.167745 -0.352924 -0.394756 -0.204767 -0.327876 -0.137776 -0.650806 -0.222982 -0.500189 -0.268258 0.050213 -0.292421 -0.0925408 0.0547323 -0.255094 0.0133047 -0.146835 0.136254 0.24868 0.1226 0.173774 0.0718467 0.101071 0.0268072 0.127426 0.170152 0.426786 0.113014 0.0800907 -0.0577124 0.042673 -0.0206194 -0.119005 0.0747712 -0.124223 -0.334014 0.0256935 0.0120345 -0.0457665 0.0096958 -0.0134821 -0.164613 0.312226 -0.645157 0.034725 -0.326101 0.0190242 0.0301859 -0.128959 0.258558 0.0270515 -0.183448 0.0218844 0.115863 -0.0484141 0.018742 -0.28802 -0.0259719 -0.114922 0.0708791 -0.167452 -0.104164 -0.141142 -0.129885 -0.0202236 -0.00213424 -0.108804 0.0774388 -0.313762 -0.0376666 -0.144483 -0.0994254 -0.189037 -0.195364 -0.171721 0.136242 -0.205099 -0.082111 0.0821284 -0.306864 0.0785188 -0.120007 0.111018 0.380795 -0.0336115 0.13433 0.0737904 0.0239021 0.179595 -0.0885059 0.0102275 -0.151972 -0.118317 -0.141614 0.0816128 -0.24733 -0.0736344 0.087734 -0.147397 -0.0160026 -0.151434 0.112119 0.20483 -0.0950352 0.0449017 -0.0458255 -0.0951365 0.174528 -0.169176 0.307239 0.0124379 -0.0432208 0.0152301 -0.134692 0.134075 -0.180383 -0.0293734 -0.177538 0.0324507 -0.455697 -0.47661 -0.626654 0.0726805 0.0737816 -0.168433 -0.0546831 -0.0852423 0.1758 0.00277885 0.218179 -0.0276402 -0.236196 -0.073835 -0.140179 0.380921 0.1302 -0.323911
label 11 12 13 14 15 16 17 18 19 20 21 22 23 24 25 26 27 28 29 30 31 32 33 34
nr_sv 49 76 70 46 57 68 56 52 35 46 46 47 48 45 35 46 41 25 30 19 29 26 30 31
SV
0 3.122692049414837 0 0 0 0 0 0 0 0 0 0 0 0 0 0 0 0 0 0 0 0 0 2:1.25 3:2 8:1 9:1.75 11:2.5 12:3 14:1 15:1.75 16:2 17:3.25 18:2.25 19:0.75 20:3.25 21:2.25 22:1.75 23:1.75 24:2.5 25:1.5 26:2.5 27:1.75 28:2 29:3.25 30:2.75 31:2.75 34:0.5 35:1.75 36:2.25 38:-1.25 39:0.5 45:-0.75 48:1 51:-0.25 53:-0.25 54:0.25 55:-0.75 56:0.75 57:0.25 58:0.75 59:-0.25 60:-0.5 61:0.5 62:-0.5 63:0.75 64:-0.5 65:0.25 66:-0.75 67:0.25 71:-0.25 72:-0.25 74:-1.25 75:2 81:-0.25 83:-2 84:0.5 87:-0.25 89:-0.25 90:0.75 91:-0.75 92:0.75 93:-2.25 94:1.75 95:-0.25 96:-0.5 98:-0.5 99:0.75 100:-1.5 101:1.25 102:-0.75 103:1.75 106:-0.5 107:-0.25 108:-0.25 110:1.25 111:0.5 117:0.25 119:-0.5 120:-1.5 123:-0.25 125:0.25 126:0.75 127:0.75 128:-1.75 129:-0.25 130:0.75 131:-0.25 132:-0.5 134:0.5 135:0.75 137:0.25 138:0.75 139:0.25 143:-0.25 144:0.25 
0 0 0 0 0 2.230044047972581 0 0 0 0 0 0 0 0 0 0 0 0 0 0 0 0 0 1:2 2:4.25 3:1 5:1.5 6:2 7:2.5 8:4 9:2.5 10:2.5 11:3.25 12:2.5 14:3.5 15:3.5 16:1 17:1.5 18:0.75 19:4.5 20:1 21:3.25 22:2 23:0.75 24:1.75 25:2.25 26:2.75 27:1 28:3.5 29:1.75 30:1.75 31:2.5 34:0.5 35:2 36:2 38:0.25 39:1 41:-0.5 45:0.5 47:0.75 48:0.5 50:-0.5 53:-1 54:0.75 56:1 57:-0.75 59:-0.25 60:0.25 61:-0.25 62:-0.25 63:0.5 65:0.25 66:-0.75 70:-0.5 72:1 73:-2 74:-0.25 75:1 77:-0.5 79:-0.5 81:0.5 82:-2.5 83:0.75 84:0.5 86:-0.5 89:-0.5 90:0.75 92:1 93:-1.25 94:2 95:-0.25 96:-0.75 97:-0.25 98:0.25 99:0.5 100:1.5 101:0.25 102:-0.75 103:1.5 106:-0.5 110:-0.25 111:1 113:-0.5 117:0.5 119:0.25 120:-1.5 122:-0.5 123:-0.5 125:1 126:0.75 127:0.5 128:1 129:-1.25 131:-0.25 132:-0.25 133:0.25 134:0.25 137:-0.25 138:0.75 142:0.5 144:-1 
7.61267786835511 0 5.516081075530799 0 0 12.63679106413956 0 0 0 17.43961005513851 0 0 0 8.219376136632553 0 0 0 4.584374899278899 0 0 0 0 0 1:1.25 2:4.75 3:0.5 5:1 6:1 7:2.5 8:3.75 9:3 10:1.25 11:1.5 12:3.5 13:0.75 14:3.75 15:2 16:1 17:1.75 18:1 19:4.75 20:1.25 21:1.25 22:2.5 24:2.75 25:1.75 26:1.75 27:1 28:4 29:2 30:2 31:4 33:0.25 34:0.75 35:3.25 36:3 37:-1.25 38:0.25 44:-0.25 46:-1.25 47:1 48:0.5 49:0.75 50:0.25 53:-0.75 54:1 55:-0.25 56:1.25 57:-1.25 58:0.5 60:-0.25 61:0.75 62:-0.75 63:1 64:1 67:-1 69:-0.25 70:-0.25 71:-0.75 73:-1.25 74:0.25 75:0.5 79:-1.5 80:-0.25 81:0.5 82:-1.25 83:0.5 85:0.75 86:0.25 87:1.5 89:-0.75 90:1 91:0.25 92:1.25 93:-1.25 94:0.5 96:-0.75 97:0.75 98:-0.75 99:1 100:0.5 103:-0.5 105:-0.25 106:0.25 107:-0.75 108:0.5 109:1.25 110:-0.25 116:-0.25 117:0.5 118:1.25 119:1 121:0.75 122:-0.25 123:0.5 125:0.75 126:1 127:0.25 128:1.25 129:1.25 130:0.5 132:0.25 133:0.75 134:0.75 135:1 136:-0.5 139:-0.5 141:0.25 142:0.25 143:-0.75 144:0.5 
0 0 0 0 13.17504458851641 0 0 0 55.86735193546791 0 0 0 5.596194624207143 0 0 0 0 0 0 21.0203051099359 77.87818361666355 0 0 1:5 2:3.25 3:0.5 5:4 6:4 7:4 8:4 9:2.75 10:5 11:4.5 12:1.5 14:2.25 15:4 16:2.5 17:2.5 19:5 20:2.5 21:4.25 22:0.75 23:0.25 24:1 25:2.25 26:3.75 27:0.25 28:3.75 29:1 30:1.25 31:3.75 35:1.25 36:3.25 38:0.75 39:0.5 45:1.25 48:1.5 50:-0.75 52:1 56:-1 57:0.75 58:-0.25 59:-0.25 61:-0.25 62:-0.25 63:0.25 64:-0.25 66:-0.25 67:-0.25 71:-0.25 72:0.75 74:0.75 75:0.5 81:0.75 83:-0.5 84:1 86:-0.75 88:0.5 89:-1.5 92:-1 93:0.75 94:0.75 95:-0.25 97:-0.75 98:0.25 99:0.25 100:0.25 102:-0.25 103:0.25 107:-0.75 108:0.75 110:0.25 111:0.5 117:-0.75 120:1 122:0.25 128:0.5 129:-0.75 130:-0.25 131:0.25 133:-0.25 134:0.25 135:0.25 136:0.25 138:0.25 139:0.25 143:-0.25 144:-0.75 
0 0 0 0 0 7.992518805209537 35.83060709847393 0 37.33569869952856 0 3.743984922258721 97.69434370186805 0 0 0 0 0 7.791109740850122 0 30.5598958569821 0 0 0 1:4.75 2:1.75 5:3.75 6:4 7:3.5 8:3.75 9:2.75 10:4.75 11:4.25 12:1.25 14:1 15:3.5 16:2 17:2 19:4.75 20:1.5 21:4 22:2 24:0.25 25:2.75 26:3.25 27:0.25 28:3.5 29:1 30:1.25 31:4.25 35:3 36:3.25 37:0.25 38:0.75 41:0.25 44:0.25 45:1.25 46:0.25 47:-0.25 48:0.75 50:-0.5 55:0.25 56:-0.5 57:-0.5 60:-0.25 61:-0.75 62:0.25 63:0.25 66:-0.25 67:-0.25 72:0.75 73:-0.25 74:0.75 77:-0.25 80:0.25 81:0.75 82:0.25 83:-0.25 84:0.75 86:-1 87:-0.5 88:1 89:-2 91:-0.25 92:-0.5 94:1 96:-0.25 97:-0.75 98:-0.75 99:0.25 102:-0.25 103:-0.25 107:-1 108:0.75 109:0.25 110:-0.25 113:0.25 115:0.5 116:-0.25 117:-0.75 118:-0.25 119:-0.75 120:0.25 122:0.5 127:0.25 128:0.5 129:-0.5 132:0.25 133:-0.25 134:0.25 135:0.25 136:0.5 138:0.25 139:0.25 144:-0.75 
0 0 0 0 0 0 0 0 0 0 5.251508351203934 0 0 0 0 0 0 0 0 14.36798655932259 0 0 0 2:4.25 3:2.75 6:1 7:3 8:4 9:1 10:2 11:4.5 12:4.5 13:1.75 14:3.25 15:4 16:2.5 17:2.5 19:5 20:3.5 21:2.5 22:4.5 23:1.75 24:4 25:2.25 26:1.75 27:1 28:2 30:1 31:4.5 33:1 34:2.25 35:4 36:3.5 38:0.25 39:0.25 45:1 49:-0.25 50:-0.75 52:0.5 53:0.5 57:-0.5 59:-0.25 61:0.75 62:0.25 67:-0.5 70:-0.75 74:-0.75 75:1.75 78:-1 79:-1 81:1 82:-2 83:0.5 84:-0.5 85:1.75 86:-0.25 88:0.5 89:1.5 92:1.5 93:-0.5 94:0.5 95:0.25 97:0.75 98:1.75 99:-0.5 102:-1 105:-1 106:-0.75 110:0.25 111:0.25 117:1 121:-0.25 122:-0.25 124:0.5 125:-0.5 129:0.5 131:0.25 133:0.25 134:0.25 135:-0.5 142:0.25 144:-0.5 
0 0 0 0 0 0 0 0 26.78652898896777 0 0 0 0 0 19.5188176622578 0 0 0 5.65907273816087 9.658663271245349 2.535258929386448 0 0 3:4.25 4:2.5 8:1.75 9:3.25 11:2.75 12:5 13:3.5 15:1.25 16:3.25 17:3.75 18:0.75 19:1.25 20:4.5 21:3.75 22:4.25 23:3.25 24:4 25:3 26:3.75 27:2 28:3.75 29:1.75 30:3 31:3.75 32:2 33:2.5 34:3.5 35:3.25 36:2.75 39:-0.75 40:0.5 44:0.25 45:0.25 47:-1.25 49:1.5 51:-0.75 52:0.25 53:-0.25 54:0.75 55:-0.75 56:0.5 57:-0.75 58:0.75 59:-0.25 61:0.5 62:-0.25 63:0.5 64:-0.25 65:0.25 66:-0.5 67:0.25 68:-0.5 69:-0.5 71:0.25 72:0.75 75:-0.75 76:1 80:-0.75 81:0.25 83:-1.25 85:1 87:-0.75 88:-0.25 89:-0.25 90:0.75 91:-0.75 92:0.5 93:-0.75 94:0.25 95:-0.25 97:1 98:-0.25 99:1.5 100:0.75 101:0.25 102:-0.5 103:0.25 104:-1 106:-0.5 107:-0.75 108:1.25 111:-0.75 112:-1 116:-0.25 117:0.25 119:-0.25 121:-1 123:0.25 124:-0.25 125:-0.25 126:0.75 127:0.25 128:-0.5 129:-0.25 130:-0.25 131:0.25 133:-0.5 134:-0.25 136:-0.25 137:-0.25 139:-0.25 140:-0.5 143:0.25 144:-0.75 
24.32198864091362 0 13.06934717415787 55.52199957846809 35.35009576497621 15.04651940870337 10.53157144118718 0 0 6.969236406089582 15.62588290597632 12.19297592358172 24.2204102636107 0 3.528620155896931 32.54776841473956 9.223706488561406 0 6.167712734840605 19.71335262278765 2.810596483494081 11.00747744712711 0 1:4.75 2:2.5 5:3.75 6:4 7:3 8:3.25 9:3 10:4.5 11:4.75 12:1.5 14:2 15:3.5 16:2.5 17:1 18:1 19:3.75 20:0.75 21:4 22:0.75 24:0.5 25:2.25 26:3.75 27:1.25 28:4 29:2 30:2.25 31:2.5 35:1 36:2.25 37:0.25 41:-0.25 43:0.5 44:-0.25 46:0.5 47:-0.25 50:-0.5 51:-0.5 52:0.5 53:-1 54:1 55:1.25 56:-0.25 58:0.75 60:-0.5 61:-0.25 62:-0.25 63:0.75 64:1 66:-0.25 72:0.25 73:-0.25 74:1 77:0.25 80:-0.25 81:0.5 83:-0.25 84:1.5 86:-1 87:-0.5 88:1 89:-1 90:1 91:1.25 92:-0.75 93:1 94:0.75 96:-0.5 97:-0.25 98:0.25 99:1.25 100:0.5 102:-0.25 103:0.5 108:-0.25 109:0.25 110:0.5 113:0.25 115:0.5 116:0.25 117:0.5 119:-0.25 122:0.5 123:-0.5 125:1 126:1 127:-1.25 128:0.25 130:0.75 132:0.5 133:0.25 134:0.25 135:0.75 136:-0.5 138:0.25 144:-0.25 
0 0 0 0 2.708179481585675 0 0 0 0 13.03300631691621 0 0 7.723667804554365 0 17.94871980098645 0 37.58481979063672 0 0 0 0 0 0 2:5 3:1.25 6:0.5 7:2 8:3.25 9:0.75 10:1 11:3 12:2.25 14:4 15:3 16:2 17:2.25 19:3.75 20:3.25 21:3.25 22:1.5 23:1 24:1.25 25:2.25 26:2.25 27:1 28:1.75 30:1 31:2.25 35:2.5 36:1.25 39:1.25 44:0.25 45:0.75 46:-1 48:-1.25 53:0.25 55:-0.75 56:0.25 57:-0.25 58:0.5 60:-0.25 61:-0.25 62:0.25 64:0.25 67:0.75 71:-0.5 72:0.75 75:1.25 78:-0.5 79:-1 80:-0.75 81:0.75 82:-1 83:2 84:0.75 87:1 89:0.75 91:-1.25 92:1.25 93:-1.25 94:0.5 96:0.25 97:0.25 98:0.25 99:-1 100:0.25 102:-1 103:0.75 107:-1 108:0.25 111:1.25 116:0.25 117:0.75 118:1 120:-0.75 125:-1.25 127:-0.75 128:0.25 129:0.25 130:-0.5 132:-0.25 133:-0.25 134:-1.75 136:-0.25 139:0.25 144:0.75 
4.976941705634733 0 0 0 0 0 0 0 0 0 0 0 0 0 0 0 0 0 0 0 0 0 0 2:4.5 3:0.75 6:1.5 7:3.25 8:4 9:2.5 10:3 11:3 12:4 13:0.5 14:3.5 15:3.5 16:0.5 17:2 18:0.5 19:4.75 20:1 21:2.25 22:3.5 23:0.5 24:2.75 25:2.25 26:2.5 28:3.5 29:1.5 30:1 31:3 34:1.5 35:3.5 36:2 39:0.25 42:-0.5 43:-0.25 45:0.5 50:-0.5 51:0.5 52:0.5 54:0.5 55:0.25 57:0.25 59:-0.5 60:-0.25 61:0.75 62:0.5 70:-0.5 71:-0.5 72:1 74:-0.5 75:0.75 78:-0.5 79:-0.25 81:0.5 82:-2 83:1 85:0.5 86:-0.5 87:0.5 88:0.5 89:-2 90:0.5 91:0.25 93:-1.25 94:1.5 95:-0.5 96:-1.25 97:0.75 98:-1.5 100:1.5 101:-0.5 103:-1 106:-0.5 107:-0.5 108:1 111:0.25 114:-0.5 115:-0.75 117:0.5 122:-0.5 123:-0.5 124:0.5 126:0.5 127:-0.25 129:-0.25 131:0.5 132:-0.25 133:0.25 134:0.5 142:-0.5 143:-0.5 
12.51169253485683 0 0 0 0 2.915222633106414 12.83647249128797 31.45971324850292 0 0 0 48.51167847143238 0 23.00598593795365 17.78705282463442 4.259736339442858 0 2.965965185540593 5.559414191373779 58.39453028425503 24.80035810124244 0 0 2:0.25 3:3.25 4:2 8:2 9:2.75 11:2.5 12:4.5 13:3.5 15:1.25 16:2.75 17:3.25 18:0.5 19:1.25 20:3.5 21:4 22:4.5 23:2.25 24:4 25:3 26:3.5 27:1.75 28:3.5 29:1.5 30:2.75 31:3.75 32:1.5 33:2.5 34:3.5 35:3.5 36:2.75 38:-0.25 39:-0.75 40:1 45:0.25 47:-0.5 48:-0.5 49:1 51:-0.25 52:-0.25 53:-0.25 54:0.5 55:-0.75 58:0.5 59:-0.25 61:1 62:-0.5 63:0.75 66:-0.25 67:0.75 69:-0.5 72:0.25 74:-0.25 75:-1.25 76:0.5 80:-1 81:0.75 83:-1.5 85:1 87:-0.25 88:0.25 89:-0.75 90:0.5 91:-0.75 92:0.5 93:-1 94:0.5 95:-0.25 98:-0.5 99:0.75 101:0.5 102:-1.25 103:0.25 104:-1.5 106:-0.5 107:-0.5 108:1.25 110:0.25 111:-0.25 112:-0.5 117:-0.75 119:0.5 121:-1.5 123:0.25 124:-0.75 125:-0.25 126:0.5 127:0.25 130:-0.5 131:0.25 134:-0.5 135:-0.25 136:-0.5 138:-0.25 139:0.25 144:-0.25 
0 0 0 0 0 0 0 0 15.26553192523993 0 0 0 0 0 0 0 0 0 0 0 0 0 0 2:4.75 3:2 6:0.75 7:3 8:3.25 9:1.75 10:2.25 11:3.5 12:4.25 13:0.5 14:3.75 15:3.5 16:1.75 17:3.25 19:3.75 20:3.25 21:3.75 22:1.5 23:1.25 24:3.5 25:2.75 26:3 27:2 28:2.75 29:0.75 30:2.5 31:3.25 34:1 35:1.75 36:2.5 38:0.25 39:0.5 42:-0.25 44:-0.25 45:0.25 46:-1.25 48:-0.75 49:0.5 50:-0.25 51:0.5 52:0.25 53:-0.25 55:-0.75 56:0.25 57:-0.25 58:1 59:-0.25 61:0.25 64:0.25 65:0.25 67:1.25 71:-0.25 74:0.25 75:1 78:-0.25 80:-0.75 81:1.75 82:-1.25 83:1 84:-0.75 85:0.5 86:-0.25 88:0.25 89:-0.25 91:-0.75 92:1.25 93:-1.25 94:1.5 95:-0.75 96:-0.5 97:0.25 100:0.25 101:0.25 102:-2.5 103:0.75 107:-0.75 108:1 110:-0.25 111:0.5 114:-0.25 116:-0.25 117:0.25 118:0.25 119:0.5 120:-0.75 121:0.5 122:-0.25 124:-0.25 125:-0.75 127:-1.25 128:0.25 129:-0.25 130:1 131:-0.25 133:-0.25 134:-1 136:-0.25 137:-0.25 139:-0.25 143:0.25 144:0.5 
0 0 0 0 0 0 0 0 0 0 0 0 0 0 0 0 0 0 0 0 11.86776645518829 0 0 2:2 3:1.25 4:0.5 8:1.5 9:3 11:4.25 12:3.75 14:1.25 15:3.25 16:3.5 17:3.25 18:2 19:0.75 20:4 21:3.5 22:0.75 23:1 24:2.5 25:2.75 26:3.25 27:1 28:3.75 29:3 30:2 31:3.75 32:0.5 35:1.5 36:3 38:-1 39:1.25 44:-0.5 45:-0.5 47:-0.75 48:0.75 50:-0.75 51:-0.25 52:0.5 53:-0.25 55:-0.75 56:1 57:-1 58:0.75 60:-0.5 61:0.25 62:-0.25 63:0.5 64:-0.75 67:0.75 68:0.5 71:-0.5 74:-1 75:1.25 80:-0.5 83:-0.25 84:0.75 86:-0.75 87:-0.25 89:-0.25 90:2 91:-0.75 92:0.5 93:-1 94:0.75 96:-0.5 97:0.25 98:-0.25 99:1 100:-1.25 103:1.25 104:0.5 107:-0.5 108:-0.5 111:1.25 112:-0.5 116:0.5 117:-0.5 119:-0.25 120:-0.25 122:0.25 123:0.25 125:0.25 127:0.75 128:-0.5 129:-1.5 130:0.75 132:-0.5 133:0.75 134:0.25 135:0.5 136:-0.75 139:-0.75 140:0.5 143:0.5 144:-0.5 
1.776264550659172 8.298685773202848 0 0 26.56689920459256 8.513639877254667 0 5.762314699409911 113.4031720356725 0 0 4.899601659958043 9.873428984135106 0 28.16031598578161 43.49935783774175 54.17920147259758 0 14.3510562928707 9.55280916433394 86.94980987151159 48.05594139886287 50.07403995769185 2:0.75 3:2.5 4:2.75 7:1 8:1.5 9:2.75 10:0.5 11:4 12:3.25 15:3 16:2.5 17:1 18:2 19:1.5 20:1.5 21:3.5 22:0.75 23:2.5 24:1.75 25:3 26:2.5 27:2.5 28:3.25 29:2.25 30:3 31:1.75 32:2.75 35:1 36:1.5 38:-0.25 40:0.25 45:-0.25 46:-0.5 47:-1 48:0.75 55:-1 56:0.5 57:0.5 58:0.75 59:0.5 60:-0.75 62:0.5 64:0.75 65:0.25 66:-0.5 67:0.75 68:1.25 74:-0.25 75:-0.5 76:0.25 80:-0.5 81:-0.25 82:-0.5 83:-0.5 84:1.75 88:1 90:2 91:-1.5 92:1.5 93:-0.5 94:0.75 95:1.5 96:-0.75 98:0.5 99:1.5 100:-0.25 101:0.25 102:-1 103:1.75 104:0.75 108:-0.5 110:-0.25 112:-0.25 117:-0.25 118:0.5 119:-0.5 120:-0.75 124:0.5 127:1 128:0.5 129:-0.5 130:0.75 131:-0.5 132:-0.25 134:0.5 136:-0.75 137:0.25 138:0.5 139:0.75 140:-0.75 
6.656623446908987 0 0 0 0 0 0 0 0 0 0 0 0 0 0 0 0 0 0 0 0 0 0 2:0.5 3:4.25 4:1.25 7:0.75 8:2 9:3 10:0.25 11:3 12:2.5 13:2.5 15:2.25 16:2 17:1.75 18:1.25 19:2 20:1.5 21:1 22:2.5 23:3.25 24:3 25:1 26:1.5 27:1 28:3.5 29:2.25 30:2 31:3.75 32:1 33:1.75 34:2 35:2.25 36:3 39:-0.25 40:1.25 43:-0.25 45:-0.5 46:-0.25 47:-0.5 48:-1 51:0.25 53:-0.75 54:0.75 55:-0.5 56:1 57:-1 59:-0.25 60:1 62:-1 63:1 64:0.5 65:0.25 67:-0.75 69:-0.25 71:0.25 74:-0.5 75:-0.25 76:1.25 79:-0.25 82:-0.25 83:-0.5 84:-1 85:2.5 87:-0.75 88:0.5 89:-0.75 90:1.25 91:-2 92:1.5 93:-1 94:2 95:-0.25 96:0.5 98:-0.5 99:1 100:-0.5 101:0.25 103:-0.75 105:-0.25 107:-0.75 108:0.5 111:0.25 112:1.25 115:-0.25 117:-0.5 118:0.25 119:-1 120:0.5 123:0.25 124:0.5 125:0.75 126:0.75 127:0.5 128:1 129:1 130:0.5 131:-0.75 132:-0.5 134:1 135:1 136:-0.5 137:0.25 139:-0.25 141:-0.25 143:0.25 144:0.5 
0 0 0 0 0 0 0 0 0 3.397367014745346 0 0 0 0 0 0 0 0 0 0 0 0 8.615375362031021 2:2.75 3:2.25 6:0.5 7:2 8:3 9:3.75 10:1.5 11:4.25 12:3.75 14:2 15:3 16:3.5 17:3.5 18:2 19:3 20:4 21:1.75 23:1.5 24:3 25:2.5 26:1.75 27:1 28:4.75 29:3 30:2 31:3.25 35:0.5 36:2.75 38:-1.25 39:1.25 42:-0.5 45:0.25 47:-0.25 48:1.25 56:1 57:0.25 59:-0.5 62:-0.25 63:0.5 64:0.25 65:1 66:-1 67:0.25 71:-0.5 72:-0.25 74:-1.25 75:1.25 78:-0.5 80:-1 81:-0.25 82:-1.5 83:-0.75 84:1.25 86:-1 88:0.5 89:-0.5 90:1 91:-2 92:1 93:0.25 95:-0.5 97:0.5 98:-1.75 99:0.5 100:0.25 101:1 102:-0.5 103:0.25 107:-0.5 108:0.25 110:-0.25 111:0.25 114:0.5 117:0.25 119:-0.25 120:-1.25 128:-1 129:-1.25 131:0.5 134:0.25 136:-0.25 138:0.5 139:0.25 143:0.5 144:-0.75 
0 0 0 0 0 0 0 0 0 0 0 0 0 2.334772075246885 0 0 0 0 0 0 0 0 0 2:1 3:5 4:1.75 7:0.5 8:1.75 9:2.75 11:2.5 12:3.75 13:2.25 14:0.5 15:2 16:3 17:2.5 18:1.75 19:1.75 20:3.5 21:0.75 22:3.25 23:4 24:4 25:1.25 26:1.25 27:1.25 28:3.25 29:2.75 30:2.25 31:4.5 32:1.5 33:1.5 34:2 35:3.25 36:3.5 40:0.75 44:-0.25 45:0.25 47:-0.5 48:-0.25 49:0.25 50:-0.5 52:0.5 53:-0.5 54:0.75 55:-0.75 57:-0.75 58:-0.75 61:0.75 62:-0.75 63:0.75 64:0.25 65:0.25 66:-0.25 67:-0.5 69:-0.5 71:-0.25 74:-1 76:1.75 79:-0.5 80:-0.25 81:-0.75 83:-1.5 84:0.25 85:2.25 86:-0.5 87:-0.5 88:-1 89:-0.5 90:1.25 91:-1.75 92:1.5 93:-0.75 94:0.75 97:0.25 98:-1.25 99:1.25 100:-1.25 101:0.75 102:-0.25 103:-0.5 104:-0.5 107:-0.75 108:0.5 112:0.75 116:-0.25 117:-0.25 119:-0.5 120:0.25 121:0.25 122:0.5 123:0.5 124:0.5 125:0.5 126:0.25 127:0.75 129:0.75 130:-0.25 133:0.75 134:0.75 135:0.75 136:-0.25 137:0.25 138:0.25 139:-0.5 143:-0.25 
0 0 0 0 0 0 0 0 8.360465548932252 0 0 0 0 0 0 0 0 0 0 7.230829453139783 0 0 0 2:1.5 3:3.25 7:1.25 8:2 9:2 10:0.5 11:4.25 12:4.5 13:0.75 14:1 15:2.75 16:3.25 17:1.25 18:2.25 19:2.25 20:2.25 21:1.75 22:2.25 23:2.5 24:3.25 25:3 26:1 27:2.5 28:2.5 29:2.5 30:2.75 31:2.5 33:0.25 34:1.5 35:1.75 36:2 39:0.75 43:-0.25 46:-0.5 47:-0.75 48:0.5 49:0.75 51:-0.25 52:0.25 53:0.25 54:0.75 55:-0.25 56:-0.25 57:-0.75 58:0.25 60:-0.25 63:0.5 66:-0.25 67:0.5 69:-0.25 71:0.25 72:-0.5 74:-1.5 75:1.25 79:-0.25 81:-0.5 82:-0.5 83:-0.75 84:0.5 85:0.75 86:-1 87:-0.25 88:0.75 89:0.25 90:1.25 91:-2.25 92:1.75 93:-1.75 94:2.25 95:-0.5 96:-0.25 97:1 99:1.5 100:-1.5 101:1 102:-0.75 103:1.5 105:-0.25 106:-0.5 107:-0.25 108:-0.5 111:-1.25 115:0.25 117:0.5 118:0.5 119:-0.75 120:-0.5 121:0.75 123:-0.25 124:-0.25 125:0.25 126:-0.25 127:0.25 128:0.25 129:0.75 130:0.25 132:0.25 135:-0.5 137:0.5 138:0.25 139:0.5 141:0.25 143:0.25 144:1 
20.94949117075702 11.06556646337753 33.22505301736408 9.458780292300965 5.866054360464293 37.20244159237094 26.06069173057407 22.32332208616893 0 0.2159540382517594 19.3795816463182 24.79158688275478 19.36518660442019 11.42182893335612 0 0 0 26.9652302479953 0 0 0 0 0 2:0.75 3:4.5 4:0.5 7:0.5 8:2.5 9:2.25 11:2.5 12:2 13:3 14:0.25 15:2 16:2 17:2.5 19:2 20:2.5 22:5 23:3.5 24:3 26:1 28:3.25 29:1 30:1 31:3 33:2 34:3.5 35:4 36:2 38:-0.25 43:-0.5 44:-0.5 45:0.25 50:-0.25 53:-0.5 62:-1 64:-0.25 70:-0.5 74:-0.75 75:-0.5 76:0.5 79:-0.5 80:-0.5 81:1.25 83:-0.5 84:-1 85:2 86:-0.25 89:-0.5 91:-2 92:2.5 96:1 98:-1 100:0.75 103:-2 106:-0.5 110:0.25 115:0.5 116:0.5 117:-0.75 122:0.25 125:0.5 131:0.5 134:1 136:0.25 142:-0.5 
22.16691077064862 0 0 0 0 0 0 0 0 0 0 0 0 0 0 0 0 0 0 0 0 0 0 2:0.5 3:5 4:1.5 8:1 9:3.25 11:4 12:4.5 13:3.75 15:2.5 16:4 17:2.5 18:1.75 19:0.5 20:3.5 21:1 22:5 23:4 24:4 25:2.5 26:1 27:2 28:3.75 29:2.75 30:3 31:4.5 32:1 33:2.25 34:4 35:4 36:3.5 45:-0.25 49:-0.25 51:-0.5 53:-0.5 54:0.25 61:0.5 62:-1 64:-0.25 65:-0.25 69:-0.25 72:0.5 74:-0.5 76:1.5 80:-1 81:-0.25 83:-1 84:-0.5 85:0.75 87:-0.5 89:-0.5 90:1.75 91:-0.5 92:1.5 93:-1 97:0.5 98:-1 99:2 100:-0.75 101:0.25 103:-0.5 104:-1 105:-0.25 108:0.5 117:-0.75 121:-0.25 123:0.5 125:0.5 126:0.25 133:0.5 134:1 136:0.25 137:0.25 141:0.25 144:-0.5 
0 20.04423159540905 0 24.64709655374702 0 7.136619328750434 0 0 0 11.96165414988239 0 0 0 0 0 6.151573557875754 0 0 0 0 0 0 0 2:1.25 3:3 8:1.75 9:2.25 11:3.75 12:3.5 14:1 15:2.5 16:3 17:1 18:3 19:1.25 20:2.25 21:1.25 22:1.5 23:2.25 24:3 25:1.75 26:1 27:2.5 28:2.75 29:3.25 30:2.75 31:5 35:2.5 36:4 38:-1.25 39:1.5 44:-0.25 45:-0.25 47:-0.75 48:0.5 51:-0.5 52:0.5 54:-0.5 55:-0.25 56:1.25 57:-1.25 59:-0.25 61:0.75 64:0.25 65:0.75 66:-0.75 71:-0.5 74:-1.25 75:1 80:-0.25 81:-0.75 83:-0.25 84:0.5 87:-0.5 90:-0.5 91:-1.25 92:1.25 93:-1.25 94:1.5 95:-0.25 97:0.75 100:-1.75 101:0.75 102:-0.75 107:-0.5 110:1.25 111:-0.5 116:-0.25 117:0.75 119:-0.75 120:-0.5 123:-0.5 124:0.5 126:-1 127:0.25 128:0.25 129:1.25 131:-0.75 133:0.75 135:-1.5 136:-0.25 137:0.25 138:0.75 143:0.5 
0 0 0 2.594750316708902 0 0 0 0 0 0 0 0 0 0 0 0 0 0 0 0 0 0 44.86566152403677 2:1.25 3:4.75 8:1.5 9:2.75 11:2 12:3.5 13:1.75 14:0.75 15:1.5 16:2.25 17:2.75 19:0.75 20:3 22:3.75 23:3.75 24:3.5 25:1 26:0.75 28:3.5 29:1 30:0.75 31:3.5 33:0.75 34:2.5 35:3.25 36:2.5 38:-0.75 39:-0.25 44:-0.5 45:0.75 47:0.5 49:1.25 50:-0.25 52:-0.25 53:-0.25 55:-0.75 56:0.5 58:1.25 59:-0.25 60:0.5 61:1 62:-0.75 64:-0.5 66:0.25 67:-1 69:-0.25 70:-0.5 71:-0.25 72:0.5 74:-1.25 75:-0.25 80:-0.5 81:0.75 83:-1.5 85:1.25 86:-0.25 87:0.5 88:-0.25 89:-0.75 91:-0.75 92:1.5 94:0.75 95:-0.25 97:1 98:-0.75 100:-0.5 102:0.25 103:-1 105:-0.25 106:-0.5 107:-0.25 108:0.5 110:0.75 111:-0.25 116:0.5 117:-1.25 120:0.5 121:0.75 122:-0.25 124:0.25 125:0.25 127:0.75 128:-1 130:-0.75 131:-0.25 133:1 134:0.75 136:-0.5 138:-0.25 139:-0.5 141:-0.25 142:-0.5 143:0.25 144:-0.5 
13.77705246664631 0 0 8.390792944126741 0 1.86823720916608 0 2.241032863421353 0 13.75154119166276 0 0 0 0 0 0 0 0.9218680545303695 0 0 0 0 0 2:2.25 3:1.5 7:2 8:2 9:4 10:1 11:4.25 12:2.75 14:1.75 15:3.5 16:2.25 18:2 19:2.5 20:1 21:2.5 22:1.5 23:1 24:1.75 25:2.5 26:2 27:3 28:4.5 29:2 30:3.5 31:3 35:2 36:2.5 38:-0.25 47:0.25 48:0.25 50:0.25 51:-0.5 52:0.75 60:0.25 61:0.5 72:-0.5 74:-2.25 75:1.5 82:-1 83:0.25 84:0.75 86:-0.25 87:-0.5 88:0.25 91:-2.5 92:1 93:-2.5 94:1.5 95:-0.5 96:-0.25 97:0.5 100:-0.5 102:-1.5 103:2 108:-0.5 110:0.25 119:0.25 120:0.25 122:0.25 123:-0.5 124:0.75 126:-2 131:-0.5 132:0.25 133:0.5 135:-1 144:0.5 
0 0 0 0 0 0 0 0 5.670926826207454 0 0 0 0 0 0 0.8226696078091683 65.47020534994395 0 29.18551250962121 0 114.8875476738756 56.00197042503596 53.766444653858 1:1 2:1.25 3:1 4:0.75 5:1 9:0.5 11:2.75 12:4 14:1 15:1.5 16:3.25 17:3 18:2 20:3.75 21:2.5 22:0.75 23:0.5 24:2.5 25:3.75 26:1.25 27:1 28:0.5 29:3 30:1.5 31:4 32:0.75 35:1.5 36:3.25 38:-0.25 40:0.25 41:1 47:-1.25 50:1 51:-0.5 52:0.25 53:-0.5 54:0.5 56:0.75 57:-1 58:0.75 61:0.25 62:-0.25 63:1 64:-0.5 65:0.5 68:0.25 71:-0.5 72:-0.25 74:-0.25 75:0.5 76:0.25 77:1 81:-0.5 83:-1.25 84:0.5 86:1 87:-0.5 88:-0.25 89:-0.5 90:1 92:1.25 93:-1 94:0.75 96:-0.5 97:0.25 98:-0.25 99:1 100:-0.5 101:0.5 104:-0.75 107:-0.5 108:0.25 110:0.25 111:0.5 112:-0.25 113:1 119:-0.25 120:-0.5 122:1 123:0.5 124:-0.25 126:0.5 128:-0.75 129:0.5 130:0.75 131:0.5 133:-0.25 134:0.25 135:1 136:0.5 138:0.5 139:-1 140:-0.25 143:0.5 144:-0.25 
0 0 0 0 0 0 0 0 39.69491211680742 0 0 0 0 0 0 0 0 0 0 0 0 0 0 2:1.5 3:1.75 4:1 7:0.5 8:2 9:3 11:3.75 12:2.75 14:1 15:2.5 16:3 17:1.75 18:1 19:2 20:2.5 21:2.5 22:1.5 23:1.25 24:1.75 25:2.75 26:1.75 27:1 28:3.5 29:1.5 30:1.5 31:4 32:1 35:2 36:3.5 39:0.25 43:-0.5 47:0.25 48:0.25 51:-0.5 52:0.5 53:-0.25 54:1 59:0.25 60:0.25 61:-0.25 62:-0.25 63:1 72:-0.5 74:-1.5 75:-0.25 76:1 79:-0.5 81:-1 83:-1.25 84:1.75 86:1 87:-0.5 88:0.5 89:0.25 90:1 91:-2 92:1.5 93:-1.5 94:1.5 95:-1.25 96:-0.25 97:0.25 98:0.25 99:1 100:-1.5 101:0.5 102:-0.5 103:1 104:-1 108:-0.5 111:0.25 115:0.5 119:0.25 120:0.25 123:0.5 125:0.25 126:1 131:-0.25 132:0.25 133:-0.75 134:0.25 135:1 144:-0.5 
0 0 0 0 0 0 0 0 37.23436498095039 0 20.45320281741817 0 0 0 0 0 0 0 0 0 0 0 0 2:0.5 3:4.25 4:1.5 7:0.5 8:1.75 9:2.25 11:2.75 12:3.5 13:2.5 15:2.25 16:1.75 17:2.25 18:0.75 19:1.75 20:2 21:1.25 22:3 23:3.25 24:3.75 25:1.25 26:1.75 27:0.25 28:2.75 29:1.75 30:1.25 31:4.25 32:1 33:2 34:2 35:3 36:3.25 39:0.25 40:1 44:-0.25 45:0.25 47:-0.75 51:-0.25 52:0.25 53:-0.25 54:0.25 55:-0.75 57:-1.25 59:-0.75 60:-0.25 61:0.25 62:-0.75 63:0.25 64:-0.25 65:0.75 66:-0.25 67:-0.75 72:0.25 74:-0.5 75:-0.75 76:1.5 79:-0.5 80:-0.25 81:0.75 83:-1.25 84:-1 85:2.5 87:-0.25 88:0.25 89:-0.75 90:0.25 91:-1.75 92:2 93:-1.25 94:2 95:-0.25 96:0.25 97:0.25 98:-0.75 99:0.25 100:-1.25 101:0.75 102:-0.25 103:-0.75 107:-1 108:0.25 111:0.25 112:1 116:-0.25 117:-1.25 119:-0.75 120:0.5 123:0.25 124:0.75 125:0.75 126:-0.25 127:0.75 129:1.25 131:-0.25 132:0.25 133:0.25 134:0.75 135:0.25 136:-0.25 137:0.75 138:0.25 139:-0.75 144:0.25 
0 0 0 0 0 0 0 0 0 0 0 0 0 0 0 0 3.614095534971836 0 0 0 7.846485924847595 0 0 1:0.5 2:4.25 3:1.5 5:0.25 6:1.25 7:2 8:2 9:0.75 10:2 11:3.25 12:2.75 14:3.25 15:3.5 16:1.25 17:1.25 19:2.25 20:1.75 21:3.25 22:1 23:1 24:2.25 25:2 26:2.75 27:1.25 28:1.5 30:1.75 31:3 34:0.25 35:1.25 36:2.5 37:-0.5 38:-0.75 41:-0.25 42:-0.25 44:-0.5 45:0.75 46:-0.5 47:0.25 48:0.75 50:-0.25 51:0.5 52:0.25 53:-0.25 55:0.25 56:0.25 57:0.25 58:0.5 60:-0.25 61:0.5 62:-0.25 63:-0.25 64:0.5 66:-0.75 70:-0.25 71:-0.25 72:-0.5 73:-0.5 74:-0.75 75:1.5 77:-0.25 78:-0.25 81:0.75 82:-2 83:1.25 84:1.25 86:-0.25 87:0.5 88:0.25 89:1.25 91:-2.25 92:1.25 93:-1.75 94:1 95:-1 96:-0.25 98:0.75 99:-0.25 100:0.5 102:-1.75 103:2 106:-0.25 107:-0.75 108:-0.5 109:0.5 110:-0.75 113:0.25 114:0.25 116:0.5 117:0.75 118:0.5 119:0.25 120:-0.75 122:0.25 123:-0.5 124:0.25 125:-0.25 127:-0.25 128:0.75 129:0.25 130:0.5 132:0.25 133:0.5 134:-0.25 135:0.25 136:-0.5 138:0.75 142:0.25 143:-0.25 144:0.5 
0 0 0 6.503331268958093 0 0 0 0 0 0 0 0 0 0 0 0 0 0 0 0 0 0 0 1:1 2:5 3:2.25 5:0.5 6:2 7:1.75 8:3 9:4 10:2.5 11:4.75 12:4.25 14:4 15:3.75 16:3.5 17:3 18:2.25 19:2.75 20:3.5 21:2.75 23:1.5 24:3 25:3.5 26:2.25 27:2.5 28:5 29:3.25 30:3.5 31:3.25 35:0.5 36:2.75 39:1.25 41:-0.5 43:0.25 47:-0.25 48:0.75 51:-0.25 54:0.25 55:-0.25 56:1 57:-1.25 59:-0.5 61:0.5 62:-0.25 65:0.25 66:-0.5 67:0.25 71:-0.5 72:0.25 73:-1 75:1.25 77:-0.5 79:0.25 80:-1 82:-2.5 83:0.25 84:0.25 87:0.25 88:0.5 89:-0.5 90:1.75 91:-1.75 92:1.5 93:-0.75 95:-0.5 96:-0.5 97:0.5 98:-0.25 99:1.5 101:0.25 102:-0.5 103:1.25 107:-0.5 108:-1.25 111:0.25 113:0.5 115:-0.25 119:0.25 120:-0.25 123:0.25 125:0.5 126:-0.25 127:0.25 128:-1 129:0.25 131:0.5 132:0.5 133:-0.5 134:1.25 137:0.25 138:0.5 139:0.25 143:0.5 144:0.25 
13.86070941642855 34.12891839273006 27.11182836438986 33.42060722734602 28.75531485781109 14.5429130801333 11.84902707202756 14.03540207473053 0 11.1588134901225 0 0 25.71201717807837 18.82318256980492 64.2234356538509 48.26061822534935 0 1.428281055071228 15.67259018074452 0 0 0 4.877328709317418 2:2.25 3:4 4:1 6:0.25 7:1 8:1.25 9:2 10:0.75 11:2.25 12:1.25 13:1.5 14:1.5 15:2 16:1.75 17:2 18:0.75 19:1.25 20:1.75 21:1.5 22:2 23:3.75 24:1 25:1 26:2 28:2.5 29:1.75 30:1 31:3.25 32:0.75 33:1 34:1.5 35:1.75 36:2.75 38:-0.25 40:1 42:-0.25 44:-0.25 46:-0.75 47:-0.75 48:-1.25 49:1 50:-0.5 52:0.25 53:-0.5 54:0.25 55:-1.25 56:0.75 57:-1 58:0.5 59:-0.25 62:-0.5 65:0.75 67:-0.75 68:-0.25 70:-0.5 71:-0.25 72:0.25 74:-1.75 76:1 78:-0.25 80:-0.25 82:-0.75 83:1.75 84:-1.25 85:1.5 86:-0.5 87:0.5 88:0.25 89:-1 90:0.25 91:-1.25 92:1.75 93:-1 94:2 95:-0.25 98:-1 100:-2 101:0.75 103:-0.75 104:-0.25 107:-0.25 108:0.25 110:-0.25 112:1 114:0.25 116:0.25 118:0.75 119:-0.25 120:1.25 121:1 122:-0.5 123:0.5 124:-0.25 125:0.5 126:-0.25 127:1.25 128:0.75 129:1.5 130:0.5 131:-0.25 134:0.5 136:-0.5 137:0.75 139:-0.75 140:-0.25 143:-0.25 144:-0.25 
0 0 0 2.695236085823575 0 0 0 0 6.09576104352863 0 0 0 0 0 0 0 0 0 0 0 0 0 0 1:1.25 2:4.75 3:1.5 5:1 6:1.75 7:2 8:2 9:2 10:2.5 11:2.5 12:3.75 13:0.5 14:3.75 15:3 16:1 17:2 19:2.25 20:1.75 21:2 22:2 23:1 24:2.75 25:2.5 26:1.75 27:0.75 28:2.75 29:0.75 30:1.5 31:2.5 34:1 35:2 36:2 37:-1.25 38:0.25 42:-0.25 44:-0.5 45:1 47:1 48:0.75 49:0.5 50:0.25 51:1 53:0.5 55:-0.25 56:0.75 57:-0.5 58:0.5 60:-0.25 61:0.5 62:0.25 63:0.25 64:0.75 65:-0.25 66:-0.5 67:-0.5 72:0.5 73:-1.25 74:-0.25 75:1.5 78:-0.25 81:0.5 82:-2.5 83:0.5 84:0.25 85:0.5 86:0.25 87:0.5 89:-1.5 91:-2.25 92:0.75 93:-1 94:2 95:-1 96:-0.25 97:0.5 98:-1.25 99:0.25 100:0.25 101:-0.25 102:-1 103:2 109:1.25 110:0.25 114:-0.25 116:0.5 117:-0.5 119:1 120:-0.75 121:0.5 122:-0.25 123:-0.5 127:0.25 128:0.75 129:0.5 130:0.5 132:-0.25 133:0.5 134:0.25 135:-0.25 136:-0.75 137:-0.25 138:1 144:-0.5 
0 0 0 0 0 0 0 0 0 0 0 0 0 3.24049163608762 1.226547737599605 0 0 0 0 0 0 0 0 2:2.5 3:4 7:1.5 8:2.5 9:2.25 10:1 11:2.5 12:1.5 13:2.5 14:2 15:2 16:1 17:2.25 19:2 20:1.25 21:1.5 22:2.5 23:3.5 24:2 26:2.5 28:3.25 29:1 30:1 31:4.5 33:1.5 34:2 35:2.5 36:3.5 43:-0.5 44:-0.5 45:0.25 53:-0.25 56:0.25 59:-0.5 62:-0.5 64:-0.25 69:-0.5 71:-0.5 72:0.5 74:-1.5 79:0.5 80:-0.5 81:1.25 82:-1 83:2.5 84:-1.5 85:2.5 88:1 89:-1.75 91:-2 92:0.25 93:-0.5 94:2.5 95:-0.5 98:-1.5 100:0.75 103:-0.5 105:-0.5 107:-0.5 108:0.5 115:0.5 116:0.5 117:-0.75 125:-0.25 128:0.25 131:-0.5 134:-0.5 136:0.25 141:-0.5 143:0.5 144:-0.5 
0 11.79265528610821 0 0 0 0 0 15.54842049060405 0 13.81057639655937 0 5.458471096302048 0 0 0 24.75097544660996 0 0 0 0 2.562578094082278 0 0 2:0.75 3:4.75 8:1 9:3 11:3.5 12:1.5 13:1 14:0.5 15:2.75 16:2 17:1 18:1 19:0.5 20:1.5 22:2.75 23:3.75 24:2.5 27:1 28:3.5 29:1.5 30:1 31:4 34:2 35:2.75 36:3 38:-0.25 39:0.25 50:-0.5 51:-0.25 54:1 58:-0.25 59:0.25 60:0.5 63:1 71:-0.25 74:-0.75 75:-0.25 80:-1 83:0.5 84:-0.5 85:1 86:-0.5 87:-1.25 90:1 91:-0.5 92:1.5 94:2.25 95:0.25 96:1.5 99:1 100:-0.5 101:0.5 103:-1 107:-0.75 108:1 110:0.25 111:0.25 117:-1 122:0.5 123:-0.25 125:1 126:1 130:0.25 131:-0.25 132:-0.5 135:1 143:0.25 
0 0 0 0 0 3.091859690479858 0 0 0 0 0 0 0 0.1865565057574798 0 0 0 0 0 0 0 0 0 2:1.25 3:3.5 7:1 8:1.75 9:1.75 11:2.25 12:3.25 13:2 14:1 15:1.5 16:2.25 17:2.5 18:1.5 19:2.25 20:2.75 21:1.25 22:4.25 23:2.75 24:3.5 25:1 26:1.5 27:1 28:2.25 29:2.5 30:1.75 31:3 33:1 34:2.25 35:4 36:2 38:-1.25 39:1 44:-0.25 45:0.75 47:-0.75 48:-0.25 51:-0.5 52:-0.25 54:1 55:-0.25 56:0.75 57:-1.25 58:0.25 59:0.25 62:-0.5 63:1 64:0.25 65:0.5 66:0.25 70:-0.75 72:1 74:-1.25 75:1.5 79:-1 80:-0.25 81:0.25 83:-0.75 84:-0.25 85:2 87:-0.5 88:-0.25 89:-1 90:1 91:-2.25 92:1.25 93:-1.25 94:0.25 95:-0.25 96:-0.5 98:-0.5 99:1 100:-1.75 101:0.5 102:-0.25 103:-1 105:-1 106:-0.25 108:0.5 110:1.25 111:-1 116:-0.25 117:-0.75 119:-0.75 120:0.25 123:0.5 124:0.25 125:0.5 126:0.5 127:0.25 128:-0.75 129:1.25 130:0.25 131:0.25 134:0.5 135:1 136:0.25 137:0.5 138:0.25 142:0.75 144:0.5 
0 0 0 0 0 0 0 0 0 0 0 0 0 0 0 0 13.97119060732269 0 0 0 0 0 0 2:2.75 3:3 7:0.75 8:1.25 9:1.75 10:0.25 11:2.5 12:2.25 14:2 15:2.5 16:1.25 17:2 18:1 19:1.25 20:1.5 21:1.25 22:1 23:2.25 24:2.5 25:1.25 26:1.5 27:1 28:2.25 29:2 30:2 31:2.5 34:0.25 35:1.25 36:2 38:-0.75 39:0.5 43:-0.25 44:-0.25 45:0.75 46:-0.25 47:-1 48:1.25 50:-0.5 51:0.5 52:-0.25 53:-0.5 54:1 55:-1.25 56:0.5 57:0.25 58:1 59:0.25 60:0.5 61:-0.25 62:-1 63:1 64:0.75 67:-0.5 70:-0.25 71:-0.25 72:0.5 74:-1.25 75:2 79:-0.25 80:-0.25 81:-0.25 82:-0.25 83:0.5 84:-0.25 86:-0.5 87:0.5 88:0.25 89:-0.5 90:1 91:-1.25 92:1.5 93:-1.25 94:1 95:0.25 96:0.5 97:-0.25 98:-0.5 99:1 100:-1.25 103:0.5 106:-0.25 107:-0.25 108:-0.5 110:-0.75 111:-0.5 115:-0.25 116:0.25 117:-0.25 118:0.25 119:-1 120:-1.25 122:-1 123:-0.5 124:-0.25 125:1 126:1 127:1.25 128:0.5 129:-0.25 130:1 131:0.25 132:-0.5 133:0.25 134:1 135:1 136:-0.75 139:-0.5 142:0.25 143:0.25 
0 0 0 0 0 0 0 0 0 0 0 32.8040265817313 0 0 0 0 0 9.007643974580756 0 0 0 0 0 1:2.25 2:2.25 5:2 6:2.25 7:2 8:2 9:2 10:3 11:4.5 12:1.5 14:1.25 15:4 16:1.5 17:1.5 18:1 19:2.5 20:0.5 21:3.75 22:1.25 24:0.5 25:2.5 26:3.25 27:1 28:2.5 29:2 30:2 31:3.5 35:1.75 36:3 37:-0.25 38:-0.25 42:-0.75 50:-0.75 52:0.5 53:-0.5 54:1 57:0.25 58:-0.25 60:-0.5 61:-0.5 62:0.25 63:1 71:0.25 73:-2.25 74:1.25 78:-0.75 82:-2 83:-0.5 84:1.5 86:-0.25 88:1.5 89:-1.5 90:1 91:-2.5 92:0.5 93:-0.25 94:1.25 96:-0.5 97:-0.5 98:-0.25 99:1 100:-2.5 103:1.5 107:-0.25 108:-1 109:0.25 110:-0.25 114:0.25 122:-0.25 124:0.5 125:0.5 126:1 129:0.25 130:-0.25 132:0.5 133:0.5 134:0.75 135:1 143:0.25 
0 27.26226432788535 0 1.862645145794017 0 0 0 0 15.30523183693651 0 21.92746158719568 0 3.535633230292297 7.056913659497435 4.224343590656601 0.3949075396411573 0 0 19.384207610744 0 0 11.18947596062206 0 1:5 2:3 5:4 6:4 7:4 8:3.75 9:2 10:5 11:4.5 12:1.5 14:2 15:4 16:2 17:1.75 19:4.75 20:1.25 21:4.5 22:0.5 24:0.5 25:2.5 26:4 27:1.5 28:3 29:1 30:2.5 31:3.25 35:1 36:2.75 44:-0.25 45:1 52:1 53:-0.25 55:0.25 56:-0.25 60:-0.5 61:-0.5 63:0.5 67:-0.25 72:0.25 74:2 80:-0.25 81:1 83:-0.5 84:1.5 88:1 89:-1.75 91:-0.25 92:-0.75 93:0.5 94:0.5 96:-0.5 97:-0.5 99:1.5 100:1 102:-0.5 103:0.75 107:-1 108:0.25 116:-0.25 125:0.25 127:0.25 128:-0.25 132:0.5 133:0.5 135:0.5 139:0.25 144:-1.25 
19.41981815059463 19.82617048954833 33.18805169567968 29.61628671318681 0 11.07507073452574 20.59830221933533 0 0 53.38422674534483 20.34866457147808 76.54309409497795 0 39.11151423011489 51.73849796936275 6.302404537143546 0 20.60755554720423 0 15.82001462737638 0 0 0 1:4.5 2:2.25 5:3.75 6:3.75 7:4 8:4 9:3 10:5 11:4.5 12:0.5 14:1.5 15:3.75 16:1.5 17:1 18:0.5 19:5 21:4.5 22:0.5 25:2 26:4 27:1 28:4 29:1.5 30:2 31:3.5 35:1 36:3 37:0.5 38:-0.25 41:0.25 42:-0.25 45:1 50:-0.5 51:-0.25 52:0.5 53:-1 54:0.5 61:-1 63:1 74:1.25 77:0.25 78:-0.25 81:1 83:-0.5 84:0.5 86:-0.5 87:-0.25 88:1.5 89:-1 90:0.5 93:0.5 94:0.5 97:-1 99:1 101:0.5 103:1.5 107:-1 108:-1 110:-0.25 113:-0.25 114:-0.25 117:-1 122:-0.5 123:-0.25 124:0.5 125:1 126:0.5 135:1 
0 0 0 0 0 0 0 0 0 0 0 0 0 0 0 0 0 0 0 0 0 0 0.2871226670884374 2:4 3:1 7:0.25 8:2 9:4 11:3.25 12:3.25 14:3 15:3.25 16:1.5 17:0.5 18:1 19:1.75 20:0.5 21:1.5 22:0.5 23:0.5 24:2.25 25:2.5 26:1 27:1 28:4.5 29:1.5 30:1.5 31:3.5 35:1 36:3 43:-0.25 47:-0.25 48:0.25 51:0.75 52:0.5 53:-0.5 54:1 55:0.25 59:-0.5 60:-0.25 61:0.5 63:1 74:-1 75:1 79:-0.25 83:1.75 84:0.25 86:-1 87:0.25 88:0.5 89:-0.5 90:1 91:-1.75 92:0.5 93:-1.5 94:0.5 95:-0.5 96:-0.75 97:0.5 99:1 100:-0.5 101:0.5 102:-0.5 103:1.5 107:-1 108:-1 115:0.25 119:0.25 120:0.25 123:-0.25 124:-0.5 125:0.5 126:1 127:-0.25 131:0.5 132:0.75 133:0.5 134:1 135:1 
0 0 0 0 0 0 0 0 0 0 0 0 0 0 0 0 0 0 0 0 16.47236041666157 0 0 2:1.5 3:5 4:1.75 8:1.5 9:2.5 11:2.75 12:5 13:2.25 14:1 15:2 16:2.75 17:3.75 18:1.75 19:1 20:4.25 21:2 22:3.5 23:4 24:4 25:2.5 26:2.5 27:0.25 28:3 29:2.75 30:1.25 31:4 32:1.5 33:1.5 34:1.75 35:3.5 36:3.25 40:0.75 45:0.5 47:-0.25 49:0.25 52:0.25 53:0.25 54:0.75 55:-0.5 56:-0.25 57:-1 58:0.5 63:0.25 65:0.25 66:-0.25 67:-1 70:0.25 72:0.25 74:-1.5 76:1.75 80:-0.5 81:0.5 83:-2.25 85:2.25 86:-1 88:-0.25 89:-0.25 90:1.25 91:-1 92:-0.25 93:-1 94:0.5 97:1.5 98:-1.5 99:0.25 100:-1 101:0.75 102:-0.25 103:-0.5 104:-0.5 105:-0.5 106:0.25 107:0.5 108:0.25 112:0.75 117:-1.5 119:-0.25 121:0.25 124:0.25 125:0.25 126:0.25 127:0.5 128:-0.75 129:1 130:0.5 135:0.25 137:0.25 138:0.25 139:-0.5 142:-0.25 144:0.25 
15.97486670237708 0 0 0 0 0 20.10039986045339 0 0 0 42.69207235744163 13.1543819867995 0 0 0 0 0 0 0 9.396542262426259 0 0 0 2:0.75 3:4.5 4:2.5 8:2 9:3 11:4 12:5 13:4.5 14:0.5 15:2.5 16:3 17:3.25 18:1.25 19:1.5 20:3.5 21:1 22:5 23:3.5 24:4 25:2 26:2 27:0.25 28:3.5 29:2.25 30:1.25 31:5 32:2.25 33:2.75 34:4 35:4 36:4 38:-0.75 39:-0.5 47:-1 51:-0.5 53:-0.25 54:0.75 56:1 63:0.25 65:0.75 66:-0.25 68:0.25 69:-0.25 74:-0.75 75:-0.5 76:1.5 83:-1 85:0.5 86:-0.5 87:-0.5 88:0.5 89:-0.75 90:0.75 91:-1.5 92:0.5 95:-0.5 97:2 98:-2 99:0.25 100:-1.5 101:0.75 102:-0.25 104:-0.25 105:-1.25 110:0.75 111:-0.5 117:-1 119:-1 123:-0.5 124:-0.5 125:-0.25 126:0.25 128:-1 135:0.25 137:0.25 138:0.25 140:-0.25 141:-0.25 
0 0 0 0 0 0 0 0 0 0 0 0 0 16.33327739454238 0 0 0 0 8.03112389266111 0 0 0 0 2:3.25 3:3.25 6:0.75 7:2 8:2.5 9:1.25 10:1.75 11:2 12:2.5 13:1.25 14:2.5 15:2.25 16:1 17:2.25 19:2.75 20:2.75 21:2.75 22:2.25 23:2.5 24:2.5 25:1.25 26:2.5 27:1 28:2 30:1.25 31:2.5 33:0.5 34:1.5 35:2 36:2 38:-0.75 39:1.25 42:-0.25 45:0.25 46:-0.75 47:0.5 49:0.75 51:0.25 53:0.25 55:-0.25 56:0.75 57:-0.75 58:0.25 60:-0.5 61:0.25 63:-0.5 64:0.5 66:-0.25 67:-0.5 72:-0.5 74:-1.75 75:1.25 78:-0.25 80:-1 81:1.25 82:-1.75 83:1.5 84:-1.5 85:1.25 86:-0.5 87:0.75 89:0.25 91:-1.75 92:0.75 93:-0.75 94:2.25 96:1 97:0.25 99:-0.5 100:1 102:-0.25 103:1.5 108:0.5 110:-0.75 111:-0.75 114:-0.25 116:-0.5 117:0.25 118:0.75 119:1 121:0.75 123:-0.25 125:-1.75 127:0.25 128:0.75 129:0.75 130:0.25 131:-0.5 133:0.25 134:-1.5 135:1 136:-0.5 138:0.25 139:-0.5 141:-0.5 142:-0.5 
0 0 0 0 0 0 0 14.9819046139878 0 5.82172066581672 0 0 0 0 0 0 0 0 0 0 0 0 1.176773493936141 2:4.25 3:0.75 6:0.5 7:1 8:2.75 9:3 10:1 11:1.5 12:3.25 14:3.25 15:2.25 16:0.25 17:0.75 19:2.5 21:1.75 22:0.75 23:0.5 24:2.25 25:2.25 26:1.75 27:0.25 28:3.75 29:0.75 30:1.25 31:3.75 35:1.5 36:3 38:-0.25 39:0.75 44:-0.25 45:0.5 46:-1 47:0.5 48:0.25 50:0.25 51:0.25 52:0.25 53:-0.75 55:-1 57:-1.25 58:0.75 60:-0.25 61:0.25 62:-0.75 63:0.25 64:0.75 65:0.25 66:-0.25 67:0.75 71:-0.5 74:-0.25 75:0.75 78:-0.5 80:-0.25 81:0.5 82:-1 83:1 84:0.25 86:-0.25 87:1.25 88:0.25 89:-0.75 91:-1.5 93:-1.25 94:0.75 95:-0.5 96:-0.25 97:0.25 98:-0.75 99:0.25 100:0.25 101:-0.25 102:-0.25 103:0.75 107:-0.5 110:-0.75 111:0.75 116:-0.25 118:1 119:1 120:-1.75 122:-0.25 123:0.25 124:0.25 125:0.75 129:0.75 130:0.75 132:-0.75 133:-0.75 134:0.75 135:0.25 136:-0.75 137:0.25 138:0.25 139:-1.25 143:0.5 
0 0 0 0 0 0 0 0 0 0 0 0 0 0 0 0 0.878481738058186 0 0 0 0 1.554347545946611 0 2:0.75 3:4.5 8:1 9:2.25 11:3.25 12:3.5 13:1.5 14:0.5 15:2 16:2.75 17:2.25 18:1.25 19:0.5 20:2.5 22:4.5 23:3.5 24:4 25:0.5 26:1 27:0.75 28:2.75 29:2.25 30:1.75 31:3.25 33:0.5 34:3 35:3.5 36:2.25 38:-0.75 39:-0.5 45:-0.25 47:-1.25 48:0.5 52:-0.25 53:-0.25 54:0.75 56:1 62:-1 63:0.75 64:-0.25 65:0.25 66:0.25 67:-0.25 69:-0.5 72:0.25 74:-0.75 75:-0.5 80:-1 81:-0.25 83:-1.25 84:0.5 85:1.5 86:-0.5 87:-1 88:0.25 89:-0.25 90:1.25 91:-0.5 92:1 94:-0.5 95:-0.5 97:0.5 98:-1 99:0.75 100:-1.75 101:0.25 102:0.25 103:-1.25 105:-0.5 106:-1 108:0.25 110:0.75 111:-0.5 117:0.25 119:-0.75 120:0.5 124:0.25 125:1.25 126:0.75 128:-0.5 134:1 135:0.75 136:0.25 137:0.25 138:-0.25 139:0.25 141:0.5 143:0.5 144:0.25 
30.35272044163336 0 7.292896905906028 0 32.67057157512731 24.01396096489942 26.6656418141843 0 35.32911267774691 0 38.79164712728833 36.34621879075615 15.04469105248347 1.18087849890067 22.98526788758361 0 0 15.00834494735954 0 0 0 0 0 1:1.25 2:5 3:1.25 5:1 6:1.5 7:2 8:3.5 9:1.25 10:2.25 11:2.5 12:2.5 13:0.5 14:4 15:3 16:1 17:1.25 19:3.75 20:1.75 21:2.5 22:2 23:0.75 24:2 25:1.5 26:2.25 27:0.5 28:2 30:0.75 31:2.75 34:1 35:2.5 36:1.75 37:-1.25 39:0.25 45:0.25 46:-0.25 47:0.5 48:0.5 49:0.5 51:0.5 53:-0.25 55:-0.25 56:0.75 57:-0.5 59:0.25 60:0.5 62:-0.25 64:0.5 66:-0.75 67:-0.25 70:-0.5 71:-0.5 72:0.75 73:-1.25 75:1.25 78:-0.5 80:0.5 81:1.25 82:-2.25 83:1 84:-0.5 85:0.5 87:1 89:0.75 91:-1.25 92:0.75 93:-1.5 94:2 95:-0.75 97:0.5 98:0.75 99:-0.5 100:1 102:-0.75 103:0.75 107:-0.5 108:0.25 109:1.25 111:0.25 117:0.25 118:0.25 119:1 120:-0.5 121:0.5 123:-0.5 125:-0.75 127:-0.25 128:0.75 129:0.5 131:-0.25 132:-0.5 134:-0.75 136:-0.5 138:0.75 139:-0.25 142:0.5 143:0.5 144:0.25 
9.951234199124105 0 0 2.035149884253813 0 0 0 0 73.00023592108428 0 0 0 0 0 10.76436991063794 0 0 0 0 0 0 0 0.9175365669744845 1:1.75 2:4.75 3:1.5 5:1.25 6:2 7:3 8:3.5 9:4 10:2.5 11:4.75 12:4.75 14:3.75 15:4 16:3.75 17:2.25 18:1.75 19:4.75 20:4 21:4 22:1 23:0.75 24:3.5 25:3.5 26:3.25 27:3 28:4.75 29:2 30:3.75 31:3.5 35:1.5 36:3 37:0.25 38:0.25 39:1 41:-0.25 44:0.5 47:-0.25 48:0.25 50:-0.25 52:-0.25 53:-0.25 54:-0.75 55:-0.25 57:-1 59:-0.25 61:-0.5 62:0.25 63:-0.5 64:-0.25 65:1 66:-0.75 71:-0.5 73:-1.75 74:0.25 75:1 77:-0.75 79:-1 82:-2.5 83:-0.25 84:0.25 86:-0.25 88:-0.25 89:1.75 90:-0.75 91:0.25 94:1 95:-0.25 96:-0.5 97:0.5 98:0.25 100:0.25 101:1 102:-1.25 103:1.5 107:-0.5 108:-1 109:-0.25 110:-0.25 111:0.5 113:-0.25 119:-0.25 120:-0.25 122:-0.25 124:-0.25 125:0.25 126:0.75 127:0.25 131:-0.25 133:0.5 134:0.25 135:0.5 136:0.25 137:1 138:-0.75 143:-0.5 
0 0 0 0 0 0 0 0 0 0 0 0 0 0 17.16775098357702 0 0 0 0 12.06456237054354 0 0 0 1:3.75 2:4.25 3:0.5 5:3 6:3.25 7:4 8:4 9:3.75 10:4.5 11:4.75 12:2.75 14:3.25 15:3.75 16:4 17:4 18:2.25 19:5 20:5 21:4.5 22:1 23:0.5 24:1 25:3.5 26:3.75 27:2 28:4.75 29:3.25 30:3 31:4.5 34:0.25 35:1.5 36:3.75 37:-1.25 38:0.25 39:0.5 42:-0.25 45:0.25 47:0.25 48:0.75 50:-0.25 51:0.25 54:0.75 57:0.5 58:1 60:-0.5 61:0.5 62:-0.25 63:1 64:-0.25 65:0.25 67:0.5 70:-0.25 71:-0.5 72:-0.25 73:-1.25 74:0.75 75:0.5 78:-0.25 81:0.25 82:-0.5 83:0.25 84:0.75 86:-0.75 87:-0.25 90:1.25 93:0.5 94:1 95:-0.5 96:-0.5 98:0.25 99:1 100:-0.25 101:0.75 102:-1 103:0.5 106:-0.25 107:-0.5 108:-0.25 109:-1.25 110:-0.25 111:0.5 114:0.25 117:-0.25 119:-0.25 120:0.75 122:-0.25 123:0.25 126:-0.25 129:-0.5 130:1 134:0.25 136:-0.25 137:-0.25 139:-0.5 142:0.25 143:0.5 144:-0.25 
0 0 0.2511859705200396 0 4.932133900373874 0 5.69372882720399 4.781623612418569 0 0 0 0 0.08858947980648943 0 0 0 0 0 0 0 0 0 0 2:3 3:3 7:1.25 8:2 9:2.25 10:0.5 11:1.25 12:2 13:1.25 14:2.75 15:1 16:1 17:1.5 19:2 20:2 21:2 22:3 23:2.75 24:1.75 25:1 26:1.5 28:3 31:3.5 33:0.75 34:1.5 35:2.75 36:2.75 38:-1 39:1.5 43:-0.25 45:0.25 46:-0.5 47:-0.75 48:-0.5 49:1.25 50:-0.25 52:0.5 53:1 56:1 57:-1 59:-0.25 60:-0.25 62:1 64:0.5 67:-1 69:-0.25 71:0.25 72:0.25 74:-1 75:0.5 79:-0.25 80:-0.5 81:0.25 82:-0.5 83:1.25 84:-2 85:1.25 86:-0.25 89:-0.5 91:-2 92:1 93:-1 94:2 95:-0.25 96:-0.25 98:-0.5 100:2 103:-1.5 105:-0.25 106:-0.5 107:-0.75 108:0.25 110:-1 111:-1 115:0.25 116:0.5 117:0.25 118:0.5 119:-0.75 120:0.5 121:1.25 122:-0.25 124:0.5 125:-1 128:1 129:1 131:-0.25 132:-0.25 134:-1 136:-0.5 139:-1 141:-0.25 143:-0.25 144:-0.25 
0 15.36593576273211 4.305751469161506 19.16601590009271 0 8.152311990009725 0 0 0 1.671227144123918 0 0 0 0 0 26.7251398255698 0 0 0 0 0 6.438575108202473 0 1:1 2:4.25 3:1.5 4:0.25 5:0.75 6:1.5 7:2 8:3 9:1.25 10:2.25 11:2.75 12:2.75 13:0.25 14:3.25 15:3.25 16:0.75 17:2 19:3.25 20:2.25 21:2.25 22:2 23:1 24:2.5 25:1.5 26:1.75 27:1.25 28:2 30:1.5 31:2.75 32:0.25 34:0.75 35:2 36:2.25 37:-1 38:-0.25 40:0.25 41:-0.25 45:0.25 46:-0.25 47:0.75 48:0.75 49:0.25 50:-0.75 51:0.75 52:-0.25 55:0.25 56:0.25 57:-0.25 58:0.5 59:1 62:-0.75 63:-0.75 64:0.5 66:-0.5 67:-0.75 68:0.25 70:-0.25 72:0.25 73:-1 74:-0.75 75:0.5 76:0.25 77:-0.25 78:-0.5 80:-0.5 81:1.25 82:-2.25 83:0.75 84:0.25 85:0.25 86:-0.25 87:0.75 88:0.25 89:0.5 91:-1.25 92:0.75 93:-1.25 94:2 95:1 96:-0.5 98:0.25 99:-0.75 100:1 102:-0.5 103:0.75 104:0.25 106:-0.25 108:1.25 109:1 110:-0.25 112:0.25 113:-0.25 116:-0.5 117:0.25 118:0.25 119:0.75 120:-0.75 121:0.25 122:-0.25 123:-0.75 124:0.25 125:-1.5 127:-0.25 128:0.75 129:0.25 130:0.5 131:1 133:-0.5 134:-1.25 135:1.25 136:-0.5 138:0.5 139:-0.75 140:0.25 142:-0.25 144:0.25 
0 0 0 0 0 0 0 0 0 0 0 0 0 0 0 8.384936340710857 0 0 0 0 0 0 0 3:4 8:0.5 9:2.5 11:3 12:3.5 13:0.5 15:1.25 16:2.5 17:2.25 18:1.5 20:2.25 22:3.75 23:3 24:4 25:0.5 26:0.5 27:1 28:3 29:2.25 30:1.5 31:4 34:1.5 35:3.75 36:3 44:-0.5 45:0.5 47:-0.5 51:-0.25 52:0.5 53:-0.25 54:0.5 56:-0.25 58:-0.25 61:0.5 62:-0.5 63:1 65:-0.25 70:-0.5 71:-0.25 75:1 80:-0.5 81:-0.5 83:-1.5 84:-0.5 85:0.5 87:-0.75 88:1 89:-0.25 90:1.5 92:2.25 94:0.75 95:-0.5 97:0.5 98:-0.5 99:1 100:-2 101:0.75 102:-0.5 103:-1 106:-0.5 107:-0.25 108:1 116:0.5 117:-0.5 123:-0.25 125:0.25 126:0.5 128:-0.25 130:-0.25 131:-0.5 133:0.5 134:0.5 135:1 137:0.25 142:-0.5 143:-0.25 
-0 0 0 0 0 15.84885514071416 0 0 0 0 0 0 0 6.259617468525885 0 0 0 0 0 0 0 0 0 1:3.5 2:2 3:2.25 4:2.5 5:2.75 6:2.75 7:3 8:3.75 9:3 10:3.5 11:1.5 12:2.5 13:2.5 14:2 15:0.5 16:1 18:2 19:4.25 21:0.5 22:3.25 23:2.25 24:1 25:2 26:0.5 27:2.5 28:4 29:2 30:3 31:1.25 32:2 33:2 34:2.25 35:2.75 36:0.5 37:-1 39:-0.25 40:0.5 41:-0.25 42:-0.25 44:-0.25 45:1 46:-1 48:-0.5 49:1 51:-0.5 52:1 55:-0.25 58:0.75 59:0.75 60:-0.5 61:1 62:-0.5 66:-0.5 67:0.75 68:-0.5 69:0.5 70:-0.75 71:-0.25 73:-1.5 75:-0.25 77:0.25 78:0.25 80:0.25 81:1 82:-1.5 83:0.5 84:-1 85:1 86:2 87:-0.5 88:1 91:-0.25 93:-0.5 94:1.25 95:1.25 96:-1 97:1 98:-0.5 102:-1.5 103:0.75 104:-0.5 106:-0.25 107:-0.25 108:0.5 109:-1 111:0.25 112:-1 113:0.25 114:0.25 116:0.25 117:-1 118:-1 121:-0.5 123:0.5 124:1 126:-2 127:-0.75 130:-1.25 131:-0.25 132:0.5 134:0.5 135:-0.5 139:0.25 140:-1 141:-0.5 142:-0.25 143:-0.25 
-0 0 0 0 0 124.3414898955885 0 0 0 0 0 0 0 0 0 0 0 0 0 0 0 0 0 1:3.75 2:2 3:0.75 4:0.75 5:3 6:3 7:3.25 8:2.75 9:3.25 10:4.25 11:1.5 12:2 13:2.5 14:2 16:1.5 18:2.5 19:3.25 21:0.75 22:3.25 23:0.75 24:0.25 25:2.5 27:2.5 28:4 29:2.5 30:2.5 31:2.25 32:0.5 33:1.75 34:2 35:3 36:1.5 37:0.75 39:-0.25 40:-0.25 41:-0.5 43:-0.25 44:-0.25 45:0.25 46:0.75 48:-0.5 49:-0.5 52:-0.5 54:-0.5 55:1.25 57:-0.25 58:-0.75 59:0.25 60:-0.25 61:0.5 64:0.5 66:-0.5 67:0.25 68:-0.5 69:-0.75 73:0.25 75:0.25 76:0.75 77:-0.5 79:0.75 80:-0.25 81:0.25 82:0.75 84:-0.5 85:1.5 88:1.5 90:-0.5 91:1.25 93:-0.75 94:0.25 95:-0.75 96:-0.25 97:1 101:0.5 102:-0.5 103:1.25 104:-0.5 105:0.25 108:0.5 109:-0.75 111:0.25 112:-0.25 113:-1 115:0.25 116:-0.25 117:-0.75 118:-0.75 119:0.5 121:-0.5 122:-2 124:-0.5 126:-1.5 127:-0.75 129:0.25 130:-0.75 131:-0.25 132:0.25 135:-1.5 136:-0.5 138:0.5 139:0.25 140:0.5 141:-0.25 
-0 0 0 0 0 0 0 0 0 0 0 0 0 0 0 0 0 0 0 0 3.298020099103032 1.812650963888404 0 1:1.75 2:1.25 3:1.25 4:2.5 5:1.5 6:1.25 7:1.25 8:2.25 9:2.5 10:1.75 11:2.25 12:2.75 13:2.5 14:1.25 15:0.25 16:2 18:1.75 19:2 21:0.5 22:2.25 23:1.25 24:1 25:2.25 27:2 28:3.25 29:1.75 30:2 31:1 32:1.75 33:2.25 34:1.25 35:2.25 36:0.75 37:0.75 38:0.25 39:-0.25 40:-0.5 42:-0.25 43:0.25 44:-0.25 46:0.75 47:0.25 48:0.25 49:-0.5 50:0.75 51:-0.25 54:-0.25 55:1.5 58:-0.75 59:0.75 60:-1 61:0.75 64:1.25 65:0.25 68:-0.75 69:-0.25 70:0.25 71:0.25 72:0.25 73:-1.75 74:0.25 75:-0.25 76:0.5 77:0.5 78:-0.25 79:0.25 80:-0.75 81:0.5 82:-1.75 83:0.25 84:-0.25 85:1.5 86:1.25 87:-0.25 88:2 90:-1.75 91:-0.5 93:-0.5 94:-0.25 95:1.25 96:-1 97:1.25 99:0.5 100:0.25 101:0.25 103:1 104:-0.25 105:0.75 106:0.75 107:0.25 108:0.75 109:-0.75 110:0.25 111:0.25 112:-0.5 114:0.25 115:0.25 116:-0.25 118:-0.75 119:0.25 120:0.25 121:-0.5 122:0.75 123:0.25 126:0.25 127:-1 130:-1.25 131:0.75 132:1 133:-0.25 135:-1.5 136:-0.75 137:-0.25 140:0.25 141:0.25 142:-0.25 143:-0.75 144:0.25 
-0 0 0 0 0 0 0 0 0 0 0 0 9.051312330566779 0 0 0 0 0 0 0 0 0 0 1:4 2:1.75 3:1.5 4:1 5:3.25 6:3 7:3.75 8:3.5 9:3.25 10:4 11:1 12:1.75 13:3 14:1.75 16:1.75 18:1 19:4.5 20:0.75 21:1 22:3.25 23:1.5 25:2.75 27:1 28:4.25 29:1 30:1 31:3 32:0.25 33:3.25 34:1.25 35:3.25 36:2.25 37:0.5 38:0.25 40:0.5 41:-0.25 43:0.25 45:0.25 46:0.5 48:-0.25 49:1 50:-0.25 52:-0.25 54:-1 55:0.5 56:0.25 58:0.75 59:0.5 61:0.75 63:-1 64:0.25 68:-0.25 69:-0.25 70:-0.25 71:-0.25 72:0.75 74:0.25 76:0.5 77:0.25 79:-0.25 80:-0.5 81:-0.75 82:1 84:-0.25 85:1 86:1.75 88:0.25 90:-1 91:0.5 92:-0.25 94:0.25 95:-1 97:0.75 99:-1 100:0.75 104:-0.25 105:0.25 106:-0.25 107:-0.25 108:0.25 109:-0.5 110:-0.25 111:0.5 113:-0.25 115:0.25 117:0.25 118:-0.5 120:-0.25 122:-0.25 124:-1.75 126:1 127:-0.5 128:0.25 130:-0.25 131:-1 133:-1.25 135:1 136:-0.25 139:-1 140:0.25 141:-0.25 142:0.25 143:-0.75 144:-0.25 
-0 0 75.19829270197792 0 0 32.88004281004033 52.30883930206363 0 0 0 27.12418458037621 25.22449494666444 0 0 0 0 0 22.10562336759926 0 0 0 0 0 1:2.5 3:0.25 4:2.5 5:2 6:3.5 7:4 8:4 9:4 10:5 11:2 12:2.5 13:3 15:2 18:2 19:5 22:5 23:0.25 24:2.25 25:0.25 27:2.25 28:5 29:2 30:2.25 31:1.75 32:2 33:2 34:3.5 35:3.75 36:1 39:-0.25 42:-0.5 48:-0.5 59:0.25 60:-0.25 61:0.25 63:0.25 66:0.25 67:-0.25 70:-0.5 71:0.25 73:2.5 75:-0.25 76:2.5 78:-0.5 84:-0.5 85:2 87:-2 95:0.25 96:-1.75 97:0.25 99:1.25 102:-0.25 103:0.75 106:-0.5 107:0.25 108:1 111:0.25 114:-0.5 120:0.5 126:-2 131:0.25 132:-0.25 133:0.25 135:-0.75 138:-0.25 139:-0.25 142:-0.5 143:-0.25 
-41.47066514962725 0 0 0 0 0 0 0 0 0 0 0 0 9.725246431191273 0 0 5.585263331763906 0 21.87743983376649 0 0 3.450302969090899 4.873506417739461 1:1 2:3.5 3:3 4:1.5 5:0.75 6:1 7:2.75 8:3 9:2.5 10:2 11:3.25 12:2.5 13:2.75 14:3 15:2 16:2.25 17:1 18:2.75 19:3.75 20:1.25 21:2.25 22:2 23:2.75 24:1 25:3.25 26:1.25 27:3 28:3.25 29:3 30:3.5 31:1 32:0.75 33:2.75 34:1.25 35:2 36:0.5 37:-1 38:-0.5 39:-0.5 40:0.5 41:-0.25 43:-0.25 46:-1 47:0.25 48:-1 49:0.25 52:-0.25 54:-0.25 55:-1.25 56:1.25 57:-0.75 59:-0.75 61:0.25 62:-0.25 63:-0.5 64:-0.75 65:0.5 66:0.5 67:0.5 68:-0.25 69:-0.25 70:0.25 73:-1 74:1 75:-0.5 76:1 77:-0.25 79:-0.25 82:-1.5 83:1.75 84:-1 85:1.75 86:0.5 88:1.25 90:-1.25 91:-1.25 92:1.25 93:-1.25 94:2 95:-0.75 97:0.25 98:-0.25 99:-0.5 100:-1.25 101:1 102:-0.5 103:1 104:-0.75 105:0.75 106:0.25 108:0.5 109:1 113:-0.25 115:-0.25 117:-0.5 118:0.5 119:-0.25 120:0.5 121:0.25 122:-0.5 124:-0.25 126:-0.25 127:-1.25 128:1.25 129:0.75 131:-1.25 133:-0.75 134:0.25 135:-1 136:-1.25 137:0.5 138:-0.5 139:0.5 140:0.25 141:-0.25 142:0.25 
-0 0 0 16.60993209223833 0 0 0 0 0 0 0 0 0 0 0 0 0 0 0 0 0 0 0 1:3.25 2:2 3:1.75 4:0.75 5:2.75 6:2.5 7:3 8:3 9:3 10:3.75 11:2 12:2.25 13:2 14:2 16:2 18:2 19:3.5 22:2.75 23:1.75 24:0.25 25:2 27:2 28:3.75 29:2 30:2 31:1.25 32:0.5 33:1.25 34:1.5 35:2.5 36:1 37:0.75 39:0.25 40:-0.25 41:-0.25 42:-0.5 46:1.25 48:-0.25 49:-0.5 55:1 58:-0.75 59:0.25 60:-0.25 64:0.75 67:-0.25 69:-0.25 70:0.5 71:0.5 73:0.75 75:0.25 76:0.75 77:-0.25 79:0.5 81:-0.5 82:0.75 84:-0.25 85:2 86:2 88:2 90:-2 91:1.5 94:-0.25 95:0.75 96:-0.25 97:2 99:-1 100:1.25 103:1.25 104:-0.5 105:-0.25 106:0.5 107:0.5 108:0.5 109:-0.75 111:-0.25 112:-0.25 113:-0.25 115:0.5 117:0.5 118:-0.75 120:0.25 121:-0.5 127:-1 130:-0.75 131:-0.75 132:0.25 135:-1 136:-0.75 139:-0.25 141:0.25 142:-0.5 143:-0.5 144:-0.5 
-0 0 0 44.83431692911901 43.70794353789933 0 0 0 0 3.212958876280649 0 0 32.7086633924293 0 0 0 0 0 0 0 0 0 0 1:3.75 2:2 3:2 4:0.75 5:3 6:3 7:3.5 8:3 9:2.5 10:4.25 11:1.25 12:2.25 13:1.75 14:2 16:1.25 18:1.75 19:3.75 21:1 22:2.5 23:2 24:0.25 25:3 27:1.75 28:3.25 29:1.75 30:1.75 31:1.25 32:0.75 33:1.25 34:1.5 35:1.75 36:1 37:0.75 40:0.25 46:0.75 47:0.25 48:-0.25 49:0.25 52:-0.75 54:-0.25 55:1.25 58:-0.5 60:-0.25 61:1 63:-0.25 64:1.25 65:0.25 66:0.25 67:-0.25 68:-0.25 69:-1.25 71:-0.25 73:1.25 76:0.75 77:0.5 79:0.5 81:0.5 82:0.75 83:0.25 84:-0.25 85:0.75 86:2 88:1.25 90:-1.75 91:1.25 94:0.5 95:0.5 96:-0.25 97:1 99:-1.25 100:0.25 101:0.25 102:-0.25 103:1.25 104:-0.75 105:0.25 106:-0.5 107:0.25 108:0.5 109:-0.75 112:0.25 113:0.5 118:-0.75 119:0.25 120:0.25 121:0.25 124:-0.75 126:0.25 127:-1.25 130:-0.5 131:-0.5 132:0.25 133:-1 135:-0.25 136:-0.75 137:-0.25 138:0.25 139:-0.25 140:0.25 141:-0.25 143:-0.75 144:-0.5 
-0 0 0 0 0 0 0 0 0 0 0 0 0 0 0 0 0 0 0 5.008632961142865 0 0 0 1:3.75 2:2.25 3:2.75 4:1 5:2.75 6:3.5 7:3.75 8:4 9:3.5 10:4.5 11:1.75 12:2.75 13:2.25 14:2.25 16:2.75 18:2 19:4.75 20:1 21:2 22:2.75 23:2.5 24:1 25:3.75 26:0.25 27:2.75 28:4.5 29:2 30:2.75 31:2 32:0.5 33:1.75 34:2 35:2.25 36:1.5 37:-0.25 38:-0.25 39:0.25 41:-0.75 43:-0.25 45:0.5 47:0.25 48:-0.75 49:-0.25 50:-0.25 52:1.25 55:0.25 57:-0.5 58:0.25 59:-0.5 61:0.25 62:0.25 63:-0.75 64:0.5 66:-0.75 68:-0.5 69:-0.25 71:0.25 72:0.5 73:0.25 74:-0.25 75:-0.25 76:1 77:-0.75 79:0.25 83:-0.25 84:-0.75 85:2.25 86:0.25 88:0.75 90:-2 91:-0.25 93:-0.5 94:1.75 95:-1.5 97:0.25 98:0.25 99:-0.75 100:0.5 102:-0.25 103:2 104:-0.5 105:0.25 107:-0.25 108:0.5 109:0.25 110:0.25 111:0.25 113:-1.25 114:0.5 115:0.25 118:0.5 119:0.25 120:0.75 121:-0.25 122:-1.25 124:-0.75 127:0.25 130:0.25 131:-0.5 133:-0.25 134:0.25 135:-0.25 136:-0.5 138:0.25 140:0.5 141:0.25 143:-0.25 144:-0.5 
-0 0 0 9.764795191826984 0 10.44529272468152 0 0 0 0 14.54391039168202 0 0 0 0 0 0 0 12.55335656910506 0 15.91137104194186 28.19622092092238 1.267239769225014 1:2.25 2:2.25 3:1 4:2.5 5:1.75 6:1.75 7:2 8:1.75 9:1.5 10:2.25 11:3 12:4 13:3 14:2 15:2 16:1.5 17:0.25 18:2 19:2.25 20:0.25 22:1.75 23:0.75 24:2.25 25:2 26:0.5 27:3.25 28:2 29:2.25 30:3.75 31:1.75 32:2.25 33:2.25 34:1.75 35:1.5 36:1.25 37:0.25 38:0.75 39:-0.5 40:-1 41:0.25 42:-0.25 43:1 44:0.25 45:0.5 46:0.25 47:0.5 50:0.5 51:-0.5 52:1 53:-0.25 54:0.5 55:0.75 56:0.25 58:-1.25 59:0.25 60:-0.75 62:-0.5 63:-0.25 65:0.75 66:0.25 67:0.25 68:-0.75 69:0.25 70:0.25 72:-0.25 73:-2.25 74:1.25 75:-1 76:1 77:-0.25 78:0.25 80:-0.75 81:0.5 82:-2.25 83:1 84:-1 85:2 86:1 87:-1 88:1 89:-0.25 91:-0.25 92:0.25 94:1.25 95:0.75 96:-0.75 97:2 98:-0.5 99:-0.75 100:-2 101:0.75 102:-1.25 103:1.75 104:0.75 105:-0.75 106:0.25 107:-0.5 108:0.75 109:-0.25 110:0.75 111:0.5 112:-0.5 113:0.25 114:0.25 115:-1 116:-0.25 117:-0.5 118:-0.25 119:0.5 122:0.5 123:0.5 124:0.5 125:0.25 126:-1.5 127:-0.75 128:0.25 130:-0.75 131:0.25 132:0.25 134:0.5 135:-0.25 137:0.25 138:0.25 139:0.25 140:-0.25 141:-0.75 142:-0.25 144:0.25 
-0 0 0 0 0 0 0 0 0 0 8.693522870341232 0 0 0 0 0 0 0 0 0 0 0 0 1:2 2:2.5 3:2.5 4:3 5:1.75 6:1.75 7:1.75 8:2.25 9:2.5 10:2.5 11:3.25 12:4 13:3.25 14:2.5 15:2.25 16:1.25 18:2.75 19:2.25 20:0.25 21:1 22:3 23:2.5 24:2 25:2.75 26:0.5 27:2 28:3.25 29:2.75 30:2.25 31:1.25 32:2.25 33:3 34:2 35:2.5 36:0.75 37:0.5 40:-0.5 41:0.25 42:-0.25 43:0.25 44:-0.75 45:0.5 47:0.25 49:-0.25 50:0.5 51:-0.25 52:1.25 54:-0.25 55:0.75 56:0.25 57:-0.5 58:-0.5 59:0.5 61:0.25 64:0.25 65:0.25 66:-0.25 67:-0.25 68:0.25 69:0.5 72:0.25 73:-2 74:0.5 75:-0.5 77:0.25 78:-0.25 79:0.25 80:-0.25 81:1.5 82:-2.5 83:0.25 85:1.25 86:1.5 87:-1.75 88:0.75 90:-0.25 91:-0.25 92:0.25 93:-1 94:1 95:1.5 96:-2 97:1.25 98:-0.5 99:1 100:-0.25 101:-0.25 102:-0.75 103:1.25 104:-0.25 107:0.5 108:0.75 109:-0.5 112:-0.5 113:-0.25 114:-0.25 115:-0.25 116:-0.25 117:-0.5 119:0.25 121:-0.25 122:-0.5 123:-0.25 124:0.75 126:-1.25 127:-0.75 128:0.25 129:0.5 130:-0.5 131:-0.5 133:-0.25 135:-1 136:-0.25 137:0.25 138:-0.25 139:-0.25 140:-0.25 141:-0.5 144:0.25 
-0 0 0 0 0 0 26.87101930493158 0 0 0 7.427284278891024 24.98196667592927 0 0 0 0 0 0 0 0 0 0 0 1:3 2:3 3:2 4:1.5 5:2.25 6:3.25 7:3 8:3 9:2.75 10:4 11:1.5 12:1.75 13:4.25 14:3 16:3 18:1 19:3.75 20:1.5 21:1.25 22:4.25 23:2 25:3 27:1.5 28:3.5 29:1 30:1.5 31:3.75 32:0.75 33:3.5 34:3 35:3.75 36:2.75 37:-1 41:-0.75 42:0.25 45:0.25 46:-1 48:-0.25 49:0.75 54:-1 55:-1.25 57:0.25 58:0.25 63:-0.5 64:-1 67:0.75 68:-0.25 71:0.25 72:0.75 73:-1.5 74:1 76:0.5 77:-0.25 78:-0.25 81:0.25 82:-1 83:0.5 84:-0.25 85:0.75 90:-1 91:-1.25 92:0.5 93:-0.75 94:0.75 95:-1 97:0.5 99:-1.5 100:-1.5 102:-0.5 103:0.75 104:-0.75 107:-0.25 108:0.75 109:-0.5 113:-0.25 114:-0.25 117:-0.25 118:-1 120:-0.25 121:-0.75 122:-1 124:-1 126:1 127:-1.25 129:0.25 130:-0.25 131:-1 133:-0.5 135:0.5 136:-1 139:-0.25 140:0.25 141:-0.5 143:0.25 144:-0.25 
-0 0 0 0 0 0 0 0 0 0 0 0 0 0 0 20.1304904868814 0 0 0 0 0 0 1.78178925148805 1:2.5 2:2.25 3:2.25 4:3.5 5:2 6:2 7:2 8:2 9:2.25 10:2.5 11:1.75 12:2 13:2.5 14:2.25 16:1.75 18:1.75 19:2.5 22:3 23:2.25 25:2 27:2 28:2.75 29:1.75 30:2 31:3 32:3 33:3 34:1 35:2.5 36:2.5 38:0.25 39:-0.25 40:-0.5 45:0.25 47:-0.25 50:0.25 52:0.25 54:0.25 59:0.25 64:-0.25 65:-0.25 70:-1 71:0.5 72:0.5 73:-2.5 74:0.25 75:-0.25 76:-1.5 81:-0.75 82:-2.5 83:-0.25 85:-0.5 86:1.75 88:1.75 90:-1.75 91:-2.5 94:-1 95:1.75 97:2 99:-1.5 100:-1.75 101:-0.25 104:0.5 105:-1 106:-1 107:0.5 108:1.5 110:0.25 111:0.25 112:-0.5 117:-0.75 119:-0.25 122:-0.25 124:0.25 126:-0.25 131:-0.25 135:-0.5 136:0.25 137:-0.25 140:-0.5 142:1 143:0.5 144:-0.5 
-0 0 0 0 0 0 0 0 0 0 0 0 0 0 0 60.4106690289825 0 0 2.076984337352871 0 0 0 0 1:3.5 2:3 3:1.25 4:1.5 5:2.75 6:2.25 7:1.5 8:1 9:1.25 10:2.5 11:2.25 12:2.75 13:3 14:3 15:0.25 16:2.25 18:2.25 19:1.25 20:0.25 21:0.5 22:3.25 23:1.25 24:0.75 25:2.5 27:2.75 28:1.5 29:2.25 30:2.75 31:1.75 32:0.75 33:2.75 34:2 35:3 36:1 37:0.5 39:0.25 40:-0.5 41:0.25 42:-0.25 45:-0.25 46:0.5 47:0.25 48:-0.25 50:1 51:-0.25 52:0.25 54:-0.25 55:0.75 56:0.25 57:-0.5 58:-0.75 59:-0.25 60:-0.25 63:-0.25 64:0.5 65:-0.25 66:-0.25 67:-0.25 68:-0.25 69:0.25 72:0.5 73:-0.5 75:-0.75 76:0.5 77:-0.75 78:0.75 79:0.5 81:0.25 82:-1.5 83:0.25 84:-0.75 85:1 86:1 87:-0.25 88:1.75 90:-1.25 91:-1.25 92:0.25 93:-0.5 94:0.25 95:-0.25 96:-0.75 97:1.5 99:-0.25 100:-1.5 101:0.25 102:0.25 103:0.75 104:-0.75 105:0.25 108:0.5 109:-0.5 111:0.25 112:-0.5 113:-0.25 114:0.25 117:-0.25 118:-0.5 119:0.25 120:0.25 122:-1 123:0.25 124:-0.25 126:-0.75 127:-0.75 128:0.25 129:0.5 130:-0.75 131:-0.75 132:0.25 135:-1.25 136:-0.5 137:-0.25 138:0.25 139:-0.25 140:0.25 141:-0.25 
-0 0 0 0.5669828675769331 43.12608096821742 0 0 0 0 0 0 0 38.76712699726753 0 55.9996515850118 50.33287754724003 0.2661198676703295 0 2.368696250311726 0 19.46982129141678 0 0 1:3.75 2:2 3:1.75 4:1.5 5:3.25 6:3 7:3 8:2 9:3.5 10:4.5 11:2 12:2 13:1.5 14:2 16:3 18:0.75 19:2.5 20:1 21:1.25 22:2 23:1.75 24:0.25 25:3 27:1.5 28:4 29:0.75 30:1.5 31:2 32:1 33:2 34:0.5 35:2.5 36:1 37:0.25 39:-0.25 41:0.25 43:0.5 45:-0.5 48:-0.5 52:1 54:-0.75 57:-0.25 59:-0.75 60:-0.25 61:1 65:-0.25 66:-0.5 70:-0.5 71:-0.5 73:1.25 75:-0.25 76:1.5 77:0.75 78:-1 79:1 81:-0.5 82:0.5 84:-0.5 85:1.5 86:2 88:1 90:-0.75 91:2 93:-0.25 94:1 95:0.75 96:-0.25 97:0.5 99:-1 100:1 101:-0.25 102:-0.5 103:1 104:-1 106:-0.5 107:-0.5 108:1 109:-0.25 111:0.75 113:-0.25 115:-0.5 117:-0.5 124:-1 126:0.75 127:0.5 129:0.25 131:-0.75 132:0.25 133:-0.5 135:-0.5 137:-0.25 138:-0.5 142:0.5 143:0.5 
-0 0 0 0 0 0 0 0 1.030486602544464 0 0 0 0 0 0 0 0 0 0 0 0 0 0 1:3.75 2:1 3:1.5 4:1.75 5:3.5 6:2 7:3.5 8:2 9:2 10:3.75 11:2 12:2.75 13:1.5 14:1 16:2 18:2 19:3 21:0.5 22:3 23:1.5 24:0.75 25:2.5 27:1.75 28:2.5 29:2 30:1.75 31:1.75 32:1.25 33:1.5 34:1.5 35:2.75 36:1 37:0.75 40:0.75 42:-0.5 44:0.5 46:0.25 48:-0.25 49:1.5 50:1 55:1 58:1 59:0.5 60:-0.75 61:0.5 63:-0.25 64:-0.5 66:-0.25 67:0.75 68:-0.75 70:-0.5 71:0.25 72:0.5 73:0.25 75:-0.5 76:1.25 77:0.5 79:0.5 81:-0.5 82:0.25 84:-0.25 85:1 86:1 88:2 90:-2 91:0.5 93:-0.5 94:0.5 95:1.5 96:-0.75 97:1.5 99:-0.25 102:0.25 103:0.75 104:-0.75 105:0.5 106:-0.5 107:-0.25 108:1 109:-0.75 112:0.25 114:-0.5 116:0.5 117:0.5 118:-1.25 120:-0.25 121:1 122:1 127:-1.5 130:-0.5 131:0.5 132:0.75 133:-0.5 135:-1.25 136:-2 138:0.25 139:-0.25 140:0.25 142:0.5 143:0.25 144:0.5 
-0 0 0 22.32914770099555 0 0 0 0 0 0 0 0 0 0 0 0 0 0 0 0 0 0 0 1:3.75 2:2 3:1.75 4:1 5:3 6:3 7:3 8:3 9:3 10:4 11:2 12:2.25 13:2.5 14:2 16:2 18:3 19:3.5 21:0.75 22:2.5 23:1.75 24:0.25 25:2.75 27:2.75 28:3.75 29:3 30:2.75 31:1 32:1 33:1.5 34:1.75 35:2 36:0.75 37:0.75 39:0.25 41:-0.5 45:0.5 46:1 48:-0.25 49:-0.5 54:-1 55:1 57:-0.25 58:-1 59:0.25 60:-0.25 61:0.25 63:-0.75 64:0.75 66:0.25 69:-1 70:0.25 72:0.25 73:0.25 75:-0.25 76:1 77:-0.5 79:0.5 82:1 84:-0.25 85:1.5 88:2 90:-1 91:1.5 93:-0.75 94:0.5 95:-0.75 96:-0.25 97:1.25 99:-0.25 100:0.25 102:0.25 103:1 104:-1 106:0.25 108:0.75 109:-0.75 111:0.25 113:-1 115:0.5 117:-0.5 118:-1 120:0.25 121:-0.5 122:-2 126:-1 127:-1 129:0.25 130:-1 131:-1.25 132:0.25 133:-0.25 135:-0.75 136:-0.75 138:-0.25 141:-0.5 142:-0.25 143:-1 144:0.25 
-9.96712748303406 0 0 0 0 0 0 0 0 0 0 0 0 0 0 0 0 0 0 0 1.032361149631887 0 0 1:2.5 2:2.5 3:2.25 4:2 5:2 6:2 7:2.25 8:3.75 9:4 10:2.5 11:4.25 12:4.25 13:2.5 14:2.25 15:2.5 16:3.25 17:1 18:4 19:4 20:2 21:1.75 22:3.75 23:2 24:2.5 25:3 26:1.25 27:3.75 28:5 29:4.25 30:4.25 31:1.5 32:1.5 33:2 34:2 35:3 36:1.25 38:0.5 39:-0.75 43:-0.25 44:-0.25 47:0.25 48:-0.25 50:0.25 52:0.75 56:1 57:-0.75 58:0.25 59:-0.5 61:0.5 62:-0.25 63:0.25 65:0.25 66:0.25 68:-0.5 71:0.5 72:0.25 73:-2.5 74:1 75:-0.25 76:2 79:-0.25 80:0.25 82:-2.5 83:0.25 84:-0.25 85:2.5 86:0.75 87:-1.5 88:0.75 91:-1 92:1 93:-0.75 94:1.25 95:1 96:-1.5 97:1 98:-0.25 99:0.25 101:0.25 102:-0.25 103:1.5 104:-0.5 107:1 108:0.75 110:1 111:0.75 115:0.25 116:0.25 119:0.25 120:0.25 122:-0.25 124:-0.75 128:1 129:0.75 130:-0.25 131:-0.5 133:-0.5 134:0.25 135:-0.25 137:0.25 138:-0.25 140:-0.5 143:-0.5 144:-0.25 
-13.64259038377879 84.36852895803594 33.30574673601192 67.3734624184856 54.70489489912075 102.8783626878951 2.829956929088151 0 22.56609310062786 10.39942321200806 0 7.138841057117797 33.18711008163168 31.87473719022134 51.48709002404554 29.28658333710033 0 0 0 5.078754587643014 0 0 0 1:1.75 2:1.5 3:4.5 4:2 5:1 6:3.75 7:4 8:4 9:2.75 10:5 11:1 12:1 13:1.75 14:1.5 16:2 18:1.5 19:5 20:1 21:1.25 22:2.5 23:4 24:0.75 25:2 27:1 28:3.75 29:1.5 30:1 31:2 32:1.5 33:1.75 34:1 35:3 36:1 37:0.25 38:-1 41:-1 42:-0.25 45:0.75 49:0.25 50:-0.5 54:0.5 57:-0.25 60:0.25 64:0.25 65:-0.5 68:0.5 69:-0.25 71:-1 73:0.25 74:-0.5 75:-0.5 76:1 77:-1 78:-0.25 81:1.25 85:1.75 86:-0.5 90:-1.5 93:-0.25 94:0.5 96:0.75 97:-0.5 99:-0.5 100:-0.25 102:0.5 103:1 104:1.5 105:0.25 108:1 109:-0.25 110:1 113:1 114:-0.25 117:-0.75 121:0.25 122:0.5 124:-2 126:-0.5 129:0.25 132:0.25 133:-1.5 135:-0.5 136:0.25 138:0.5 140:0.5 141:0.25 142:1 
-0 0 0 0 0 0 0 0 0 0 0 0 0 0 31.40467030547539 0 0 0 0 0 0 0 0 1:3.5 2:2.5 3:2.25 4:2.5 5:2.75 6:3 7:4 8:3 9:3 10:4.25 11:1 12:1.5 13:3.75 14:2.5 16:1.75 18:0.5 19:4.25 20:0.75 21:1.5 22:3 23:2.25 25:3 27:1.5 28:3.75 29:0.5 30:1.5 31:3.75 32:1.5 33:3.75 34:1.5 35:3.5 36:2.75 37:-0.5 38:-0.5 39:-0.25 40:1 41:0.25 45:-0.5 46:0.75 49:0.75 50:0.5 52:-0.25 54:-0.5 55:0.75 56:-0.25 58:1 59:0.25 63:-0.5 64:0.75 67:0.75 68:-0.5 69:0.25 70:0.5 72:0.75 73:-1 74:0.5 75:0.25 76:0.5 77:-0.25 82:0.75 84:-0.5 85:0.75 86:1 88:0.25 90:-0.5 91:0.75 92:0.25 93:-0.5 94:0.5 95:-0.25 99:-1.5 100:1.25 101:-0.5 102:-0.5 103:0.75 104:-1 105:0.25 106:0.5 107:-0.5 108:0.75 109:-1 110:0.5 111:0.75 113:0.25 117:0.5 118:-0.75 121:-0.25 122:-1 124:-1.75 126:0.5 127:-0.75 128:0.25 130:0.5 131:-1.25 133:-1 135:0.5 136:-0.75 139:-0.25 141:-0.25 142:0.5 144:-0.25 
-0 0 0 0 0 0 0 0 0 0 0 0 0 0 0 27.48909296935791 2.037392983433442 0 0 0 0 0 18.8143423355734 1:3.5 2:1.75 3:2.75 4:1.5 5:3 6:2.25 7:2.75 8:2 9:3.75 10:3.75 11:2 12:2.75 13:1.5 14:1.75 16:2 18:2.25 19:2.25 21:0.75 22:2.5 23:2.5 24:1.25 25:2.5 27:2 28:4.25 29:2.25 30:2 31:1.5 32:1 33:1.75 34:1 35:2.5 36:0.75 38:0.25 39:-0.25 40:0.5 41:0.5 42:-0.25 43:-0.25 45:-0.25 46:0.25 48:-0.25 49:0.5 50:-0.25 54:-0.75 55:0.25 57:-0.25 58:-0.5 59:0.5 60:-0.25 61:0.5 64:0.25 65:-0.25 69:0.25 72:0.25 73:1.5 74:-0.25 75:-0.75 76:1.5 77:0.5 78:-0.25 79:1.25 81:-0.25 82:1.25 84:-0.75 85:1.5 86:1.75 88:2 90:-1.25 91:2.25 93:-0.75 94:0.5 95:1 96:-0.25 97:1 99:0.5 100:0.75 101:0.75 103:0.5 104:-0.5 105:0.25 106:-0.5 108:0.75 110:0.25 111:0.25 112:0.5 114:0.25 115:0.25 117:-0.25 118:-0.25 120:0.25 121:0.5 122:-0.25 126:-0.25 127:0.25 129:0.25 130:-0.5 132:0.25 135:-1.5 136:-0.25 137:0.25 140:0.5 141:-0.25 142:0.5 143:0.5 144:0.25 
-0 0 0 0 0 0 0 0 0 0 0 0 0 0 0 0 0 0 0 0 0 8.714971499502466 0 1:3.25 2:2 3:1.5 4:2.25 5:2.75 6:2 7:2.75 8:2 9:2.75 10:3.5 11:2 12:2 13:2 14:2 16:2 18:2 19:2.25 21:0.75 22:3 23:1.5 24:0.25 25:2.5 27:1.75 28:3.25 29:2 30:1.75 31:1.5 32:1.5 33:2.25 34:1.25 35:3 36:0.75 37:0.25 40:-0.25 41:-0.25 43:-0.25 45:0.25 55:0.25 57:-0.25 58:-0.5 59:-0.5 60:-0.25 61:0.5 63:-0.25 64:0.25 66:0.25 67:-0.5 68:-0.5 69:-0.25 70:-0.25 72:-0.25 73:1.25 75:-0.5 76:0.25 77:1.25 79:1.25 81:-1.25 82:1.5 84:-0.5 85:1 86:2 88:2 90:-2 91:2.25 93:-0.75 96:-0.25 97:1 99:-1.25 100:1.25 102:0.25 103:0.5 104:-1.5 105:0.75 106:-0.25 108:0.75 109:0.25 112:-0.25 113:0.25 115:0.25 117:0.25 120:0.5 127:0.25 129:0.25 130:-0.5 131:-1 132:0.25 135:-0.25 136:0.25 138:-0.25 139:-0.5 140:0.5 141:0.25 142:0.25 144:-0.25 
-0 0 0 0 0 0 0 0 0 0 0 0 0 0 0 3.124900673107206 0 0 0 0 0 0 0 1:3 2:1.5 3:2 4:2 5:2.5 6:2.25 7:2.25 8:3 9:3 10:3 11:1.5 12:1.75 13:2.5 14:1.5 16:1.5 18:2.5 19:3.25 21:0.5 22:3.5 23:2 24:0.5 25:1.75 27:2 28:3.75 29:2.5 30:2 31:2.5 32:1.25 33:2.25 34:2.75 35:2.75 36:1.5 37:0.5 40:0.5 41:-1 42:-0.25 43:0.25 46:-0.5 48:-0.25 49:1.5 50:-0.5 52:0.5 54:-0.5 55:-1.25 60:-0.5 61:0.75 64:-1.25 66:0.5 67:0.5 68:-0.25 69:0.25 70:-0.75 71:-0.75 73:0.5 74:-0.5 76:0.5 77:-0.5 78:-0.25 79:0.25 82:-0.5 83:0.5 84:-0.75 85:1 86:1.5 88:1.5 90:-1.5 91:-0.75 93:-0.5 94:-1 95:0.5 96:-0.5 97:0.75 99:-0.5 100:-1.25 101:-0.5 103:0.5 104:-1.25 105:0.75 106:-0.75 107:-0.25 108:1.5 109:-1 113:-1 114:0.25 115:0.25 118:-2 120:0.25 122:-0.5 124:0.5 126:-0.5 127:-1.25 130:-0.5 131:-1.5 132:0.5 133:-0.25 135:-1.5 136:-1.25 138:0.5 139:-0.5 140:0.25 141:-0.25 142:-0.25 143:0.25 
-0 0 0 0 0 0 0 0 0 0 0 0 0 0 0 0 1.006054097177433 0 0 0 0 0 0 1:3.25 2:2 3:2 4:2.5 5:2.75 6:2 7:2.75 8:2 9:2.75 10:3.5 11:2 12:2.5 13:3.25 14:2 16:2 18:1.25 19:2.25 22:3.25 23:2 24:0.5 25:2 27:1.75 28:3.25 29:1.25 30:1.75 31:2 32:2 33:2.75 34:2.75 35:2 36:1.5 37:0.25 41:-0.25 43:-0.25 45:0.25 49:0.25 54:0.25 55:0.25 58:-0.25 60:-0.5 63:-0.25 64:0.25 65:-0.25 66:0.25 68:-0.5 69:-0.25 70:0.25 72:0.5 73:1.25 77:1.25 79:1.25 81:-1.25 82:1.5 84:-0.5 85:0.25 86:2 88:2 90:-1.25 91:2.25 94:-1.25 95:1 96:-0.5 97:2 99:-0.75 100:1.25 101:0.75 102:-0.25 104:-1 105:-0.75 106:-0.75 108:1.5 109:0.25 112:0.5 113:0.25 115:0.25 117:0.25 121:0.25 126:-0.25 127:0.25 130:0.25 131:-1 132:0.5 135:-0.75 136:0.25 137:0.25 138:0.25 140:-0.5 141:0.25 142:-0.25 144:0.5 
-0 0 0 0 0 0 0 7.323822854160094 0 0 0 0 0 1.039229712583818 0 0 0 0 0 0 0 0 0 1:3.5 2:1.5 3:1.75 4:1.75 5:3 6:2 7:3 8:2 9:2 10:3 11:1 12:1.5 13:3.5 14:1.5 16:1 18:1 19:3 21:0.5 22:3.5 23:1.75 25:2 27:1.5 28:2.5 29:1 30:1.5 31:2.5 32:0.75 33:3.5 34:1.5 35:4 36:1.5 39:-0.25 40:0.25 45:-0.5 50:-0.5 52:-1 54:-1 59:0.25 63:-0.5 68:0.25 69:0.5 70:-0.5 72:1 73:0.5 74:-0.5 75:-0.25 76:0.75 82:2 84:-0.5 85:1.5 86:1.5 88:1 90:-1 91:2 93:-0.5 94:0.5 95:-0.25 97:1 99:-1.5 100:2 102:-0.5 103:0.5 104:-0.75 105:0.5 106:0.5 108:0.5 111:-0.25 112:0.25 113:-1 115:-1 117:0.5 122:-0.5 124:-1 126:1 131:-1.75 133:-1 135:0.5 136:0.5 140:-0.25 141:-0.5 142:0.5 
-0 0 0 0 0 59.90613473864946 0 0 0 0 0 0 0 0 0 0 0 24.28204046501623 0 0 0 0 0 1:2.5 2:1.25 3:1.75 4:2.5 5:2 6:2 7:2.25 8:4 9:3.5 10:2.25 11:1.5 12:2 13:3 14:1.25 15:0.25 16:1.25 18:2 19:4.5 21:0.5 22:3.25 23:1.75 24:0.25 25:2.25 27:2.25 28:4.5 29:2 30:2.25 31:2.25 32:2 33:2.5 34:2.5 35:2.75 36:1.25 38:0.25 39:-0.25 43:-0.75 45:0.5 46:0.25 50:0.75 51:-0.25 52:0.25 57:-0.5 58:0.25 59:0.25 60:-0.25 61:-0.25 63:-0.75 64:0.5 66:0.25 67:0.25 69:0.5 70:-0.5 71:0.25 72:0.75 73:-2.5 74:0.25 75:-0.25 76:-0.5 79:-0.75 82:-2.25 83:0.5 85:1 86:1.25 87:-0.25 88:1.25 90:-2 91:-0.5 93:-0.5 94:-0.25 95:1.75 96:-0.25 97:1.25 99:-0.75 100:0.5 102:0.25 103:0.25 104:-1 105:-0.5 106:-0.5 107:-0.25 108:1.25 110:0.25 111:-0.25 115:0.25 118:-0.25 119:1 122:0.75 123:0.25 124:0.25 129:0.5 130:-0.25 131:0.25 132:0.25 133:-0.25 135:-0.75 136:-0.5 138:-0.75 139:0.25 140:-1 141:-0.5 142:0.5 143:1.25 144:0.75 
-6.072427350911457 0 0 0 0 96.30316384676485 0 0 0 0 0 3.072551268374341 0 44.94052020515176 0 0 0 0 1.988949235691375 0.4460187903291322 0 0 0 1:5 2:2 3:3 4:2.5 5:4 6:4 7:4 8:4 9:1.25 10:5 11:3 12:3.75 13:2.5 14:2 15:2 16:1 17:1 18:2 19:5 21:1.75 22:4 23:2.75 24:2.5 25:2 26:2.25 27:3.5 28:2.25 29:3 30:4.5 31:1.75 32:1.75 33:2.25 34:2.75 35:3 36:1 39:-0.5 40:1 45:0.75 48:-0.25 49:1.5 52:1 53:-1 57:-1.25 58:0.5 59:0.25 60:-0.5 61:0.5 62:-0.25 64:0.25 66:-0.5 67:0.75 68:-0.25 69:0.25 70:-0.75 71:0.5 72:-0.5 75:-0.5 76:1 81:1.25 84:-0.75 85:1 86:2 87:-2 88:1 89:-1 90:2 93:-1.25 94:1 95:0.75 96:-1 97:1 98:-1.25 99:0.5 100:-0.25 102:-0.5 103:0.75 104:-1.25 105:0.75 106:-0.75 108:-1 112:-0.5 117:0.75 120:-0.75 124:1 125:1 129:0.75 130:-0.5 131:-0.75 133:0.5 134:0.25 136:-0.25 138:-0.5 139:-0.25 140:-0.25 141:-0.25 142:-0.25 143:0.5 144:0.5 
-0 0 1.261837007854924 0 0 0 0 0 0 0 0 0 0 0 0 0 0 0 0 0 0 0 0 1:4.25 2:2.25 3:2.25 4:2.25 5:3.5 6:3 7:3.5 8:2.5 9:3.25 10:4.25 11:1.25 12:1.75 13:2.75 14:2.25 16:1.25 18:2 19:3.25 21:0.25 22:4 23:2.25 24:0.25 25:1.75 27:2 28:4 29:2 30:2 31:2.25 32:1.75 33:2.25 34:2.75 35:3 36:1.5 37:0.25 38:0.25 39:0.25 40:-0.25 45:0.25 46:0.75 47:0.25 48:-0.25 49:-0.25 50:0.25 52:0.75 55:1.25 57:-0.25 58:-1 59:0.25 60:-0.25 61:0.75 64:0.5 67:-0.25 68:-0.75 69:0.25 70:0.25 72:0.5 73:0.75 74:0.25 75:-0.25 76:0.25 77:0.5 79:0.5 80:-0.5 81:0.25 82:0.75 83:0.25 84:-0.75 85:0.75 86:1.75 88:1.25 90:-1.5 91:1.25 93:-0.25 94:-1 95:1.25 96:-0.25 97:1.25 99:-1 101:0.5 103:0.25 104:-0.75 105:-0.25 106:-0.75 108:1 109:-0.25 110:0.25 111:-0.25 112:-0.25 117:-0.75 118:-0.75 119:0.25 120:0.25 121:-0.25 122:-0.25 124:0.75 126:-0.5 127:-0.75 129:0.25 130:-1 131:-0.75 132:0.25 133:0.25 135:-1 136:-0.5 137:0.5 139:-0.25 140:-0.25 141:-0.25 142:-0.25 
-0 0 0 0 0 33.89675992118236 0 0 0 0 0 0 0 0 0 0 0 31.91664125969708 1.64781164876754 0 0 0 0 1:3.5 2:1.25 3:2.5 4:4.25 5:2.75 6:2.75 7:3.25 8:3.25 9:1 10:4 11:1.5 12:2 13:2.75 14:1.25 16:1.5 18:2.75 19:3.5 22:3.75 23:2.5 25:2 27:3.25 28:2 29:2.75 30:3.25 31:1.75 32:3.5 33:2.75 34:2.5 35:2.75 36:1 37:1 38:-0.25 40:0.25 41:0.25 42:0.25 43:0.25 44:-0.25 45:1 46:1 49:0.25 50:-0.75 52:0.5 54:-0.25 55:1 58:-0.75 59:0.5 63:-0.25 65:-0.25 66:0.25 67:0.25 69:0.25 71:0.25 72:0.5 73:1 74:-0.25 75:-0.5 76:0.25 77:0.25 78:-0.25 79:0.75 80:-0.25 81:1 82:0.5 83:-0.5 85:0.25 86:1.25 88:1.5 90:1.25 91:0.5 94:-0.75 95:1.5 97:2 99:0.75 101:-0.75 102:0.25 103:0.25 104:0.5 105:0.25 106:-1 107:-0.25 108:0.5 109:-1.5 110:0.25 112:-0.75 113:-0.25 114:0.25 115:-0.25 116:0.25 117:1 118:-0.5 121:-0.25 122:-0.75 124:0.5 126:0.25 127:-1 130:-1.25 131:-0.5 135:0.25 137:0.25 138:0.25 139:-0.25 141:-0.25 142:-0.5 143:0.25 144:1 
-0 0 0 0 2.289903150238812 0 0 0 0 0 0 0 24.27866681321286 0 0 0 3.724015033191619 0 0.4490777012657969 0 0 0 0 1:1.25 2:2.5 3:1.75 4:2.5 5:1 6:1.25 7:3 8:2.25 9:2.75 10:2.5 11:2.75 12:2 13:2.75 14:2.25 15:1 16:2 18:1 19:3 21:0.75 22:2.75 23:1.75 24:0.25 25:2.25 26:0.5 27:1.75 28:3.5 29:1 30:2 31:0.5 32:1.75 33:3 34:1.5 35:2 36:0.25 37:-1.25 38:0.5 39:0.25 42:-0.75 44:-0.25 45:0.25 46:-1 47:0.75 49:0.75 50:-0.25 54:1 55:-1 57:-0.75 58:1.25 59:0.25 60:-0.25 61:0.25 63:0.25 64:0.5 66:-0.5 67:0.5 68:-0.25 70:-0.5 72:0.25 73:-1.25 74:0.5 75:0.25 78:-0.25 80:0.25 81:0.25 82:-1 83:0.75 85:0.75 86:1.75 88:2 90:-1 91:-0.5 93:-0.75 94:1.25 95:1.75 96:-0.25 97:1.25 98:-0.5 99:0.25 100:1 102:-0.5 103:0.5 104:-1.25 106:-0.5 107:1 108:0.25 109:1.25 110:0.5 111:-0.25 112:-0.5 114:0.75 116:0.75 117:-0.25 118:-0.5 119:0.75 121:-0.25 122:0.25 126:-1 127:-1.5 129:0.75 130:-0.25 131:0.25 132:0.25 133:0.25 135:-1.25 136:-1 139:0.5 140:-0.25 142:0.5 144:0.25 
-0 37.90392425580925 0 0 0 0 0 0 0 0 0 0 0 65.87519447676191 0 0 1.282936984255473 0 0 0 0 0 0 1:3.5 2:2 3:2.75 4:3.25 5:3 6:3 7:3.25 8:3.25 9:0.5 10:4.25 11:1.75 12:2.25 13:2.75 14:2 15:1 16:0.75 17:0.25 18:2 19:3.75 22:3.5 23:2.75 24:1 25:1.25 26:0.25 27:3.75 28:1.5 29:2.25 30:4 31:2 32:2.75 33:2.5 34:2 35:3.25 36:1 39:-0.25 40:-0.25 42:-0.5 43:0.25 44:-0.25 45:0.5 46:0.75 47:-0.25 48:0.25 49:-0.25 51:-1 52:0.75 53:-0.25 55:1.25 58:-1 59:0.25 60:-1 61:0.25 62:-0.25 63:-0.25 65:-0.25 67:0.5 68:0.25 71:-0.25 73:1 75:-0.75 76:0.25 77:0.5 78:-0.5 79:0.25 80:-0.25 81:0.5 82:0.75 83:0.25 84:-0.75 85:0.75 86:2 87:-1 88:0.75 89:-0.25 90:1.5 91:1.25 94:-1 95:1.25 96:-1 97:1.25 98:-0.25 99:0.25 100:-0.5 101:-0.25 103:1 104:0.25 106:-0.5 107:-0.25 108:0.5 109:-0.5 111:0.25 112:-0.25 113:-0.5 115:0.25 116:0.25 117:0.5 118:-0.75 119:0.25 120:0.25 121:-0.25 123:1 124:0.75 125:0.25 126:0.5 127:-1.25 130:-1.5 131:-0.25 132:1 133:0.25 134:0.25 135:0.25 137:0.25 139:0.5 140:0.75 141:-0.5 142:-0.5 143:0.25 144:0.5 
-0 0 0 10.86480551588904 0 0 0 0 0 0 0 0 0 0 0 0 0.9104204746611542 0 0 0 0 0 21.39995992321427 1:1.25 2:3.5 3:2.5 4:2.25 5:1 6:1.25 7:1.75 8:2.25 9:3.75 10:1.75 11:2.5 12:2.25 13:3 14:3.25 15:0.75 16:2.5 17:0.25 18:2.75 19:2.5 20:0.75 21:0.25 22:2.75 23:2.5 24:0.25 25:2.25 26:0.25 27:2 28:4.5 29:2.75 30:2.25 31:1 32:1.75 33:2.5 34:2 35:2.25 36:0.5 37:-1.25 38:0.5 39:0.5 40:0.25 42:-0.25 43:0.25 44:0.25 45:-0.25 46:-0.25 47:0.5 48:-0.25 50:0.75 51:0.25 53:0.25 54:-0.75 55:0.5 56:0.75 57:-0.25 58:-0.75 59:1 60:-0.25 61:-0.25 62:-0.25 64:0.5 65:0.25 66:-0.25 67:0.5 68:0.25 69:-0.5 71:-0.25 73:-1.25 74:0.5 76:-0.75 78:-0.25 79:-0.25 80:-0.75 81:-0.25 82:-1.75 83:0.5 84:-0.25 86:0.75 87:-0.25 88:1.5 89:0.25 90:-1.25 91:-1.5 92:0.75 93:-0.25 94:0.75 95:0.5 96:-0.25 97:1.75 98:-0.25 99:0.5 100:0.5 101:-0.25 102:-0.25 103:1 104:-1.25 105:-0.5 107:0.75 108:0.5 109:1.25 110:0.5 112:0.25 114:0.25 115:0.25 116:0.25 117:-0.25 118:0.25 119:0.5 120:0.25 122:-0.75 123:0.25 125:0.25 126:-0.75 127:-0.5 128:0.75 129:0.25 130:-0.75 131:-1 132:0.25 133:0.25 134:0.25 135:-1.5 136:-0.5 137:0.25 138:0.25 139:0.5 140:-0.75 141:0.5 143:0.25 
-0 0 0 0 41.69530241283989 0 53.74203308617823 0 0 0 37.50359105454372 0 14.08043596851708 0 0 0 0 0 0 0 0 0 0 1:2.5 2:2.25 3:1.75 4:3 5:1.75 6:2.75 7:2.75 8:2.75 9:2.5 10:3.5 11:2 12:1.75 13:2.25 14:2.25 16:2 18:1.25 19:3.25 21:0.25 22:3.5 23:1.75 25:2 27:1.25 28:3.25 29:1.25 30:1.25 31:0.75 32:2.25 33:2.25 34:2 35:3 37:-1 38:0.25 39:0.25 41:-0.25 42:0.25 43:0.25 44:-0.25 45:1 46:-1 48:0.25 49:0.75 50:0.25 54:0.75 55:0.25 57:-0.25 58:1.5 59:-0.25 61:0.5 63:-0.25 64:1.25 65:-0.25 66:0.25 67:0.25 68:-0.75 69:0.25 73:-1 74:0.25 75:0.25 77:-1.25 78:0.25 79:0.25 80:-0.25 82:-1.5 84:-0.25 85:0.25 86:1.75 88:2 90:-0.75 91:0.25 93:-0.25 94:1 95:1.75 97:1.5 99:0.75 100:0.75 101:-0.25 102:0.25 103:0.25 104:-0.75 105:0.75 106:-0.5 109:-0.5 110:0.25 111:-0.25 112:-1 113:-0.25 114:-0.25 115:-0.25 116:-0.25 117:-0.5 118:-1 120:0.25 121:-0.25 122:-0.25 126:-1.25 127:-1.75 129:0.25 130:-1 131:-0.25 135:-0.75 136:-0.25 137:0.25 138:0.25 139:-0.25 140:-0.75 141:-0.25 142:-0.5 
-40.58559451825582 0 16.7649399558134 0 0 59.04394099431124 95.62096883809873 21.65364095328226 28.90657756515105 0 163.3878669585778 40.52421544394745 0 0 0 0 0 12.88791428886896 0 0 5.747713846792087 0 0 1:1.75 3:0.5 4:2.75 5:1 6:3.25 7:3 8:3 9:3.5 10:4 11:2 12:3 13:3.75 15:2 18:1 19:3.5 22:3.75 24:3 25:0.5 27:1 28:4.5 29:1 30:1 31:4 32:2.25 33:2.5 34:3.5 35:2.75 36:3.25 37:1.25 40:0.75 42:0.25 44:-0.5 45:0.5 46:0.5 49:0.75 54:-1 55:1.5 58:-1.25 61:0.5 63:-1 67:-0.5 68:-0.25 71:0.25 72:0.25 73:1.25 75:-0.5 76:0.25 78:-0.75 80:-0.5 82:1 84:-1 85:0.75 87:-2 90:-1 91:1 94:-0.75 96:-1 97:0.5 99:-1 104:-0.25 105:-0.5 107:-0.25 108:-0.25 109:0.75 112:-1.75 114:0.25 118:-0.5 121:-1.25 126:1 127:-1 130:-0.75 133:0.5 135:1 136:0.5 139:-0.5 140:0.25 142:-0.5 143:0.25 144:-0.25 
-0 0 0 0 0 0 0 0 0 0 7.586889509004222 0 0 0 0 0 0 0 0 0 0 0 0 1:2.5 2:2.5 3:3 4:4 5:2 6:3.25 7:3.5 8:3 9:3.25 10:4.75 11:2.75 12:2.75 13:3 14:2.25 15:1 16:2.25 18:1.75 19:3.75 20:0.25 21:1.5 22:4 23:2.75 24:1 25:2.75 26:1 27:2.25 28:4 29:1.75 30:2.5 31:1.25 32:3 33:3 34:2.5 35:3 36:0.75 38:0.5 39:-0.5 42:-0.25 45:-0.25 46:0.25 47:0.75 48:-0.25 50:-0.25 52:0.25 54:0.25 55:0.75 56:0.25 57:-1 59:0.25 61:0.25 63:0.25 64:1 65:0.25 67:0.25 69:1 70:-0.5 72:0.25 73:-2.5 74:0.5 75:-1 76:1 78:-0.75 79:0.5 81:0.25 82:-0.25 83:0.75 84:-0.75 85:1.5 86:1.75 88:1.75 90:-1.25 91:1.25 92:0.25 93:-1.5 94:1 95:1.25 96:-0.5 97:1.25 99:0.75 100:0.5 101:0.75 102:-0.5 103:1.25 104:-1 105:0.5 106:-0.5 107:1 108:0.75 110:0.5 111:0.5 114:-0.25 117:-0.25 118:0.25 119:0.75 120:0.25 121:0.5 122:0.25 124:-0.25 126:-0.75 127:-0.75 128:0.25 129:1 131:-0.25 132:0.5 133:-0.25 135:-1.25 136:-0.5 137:0.25 139:0.25 141:-0.5 142:0.5 144:0.25 
-0 0 0 0 0 0 0 0 0 0 17.21221913817549 0 0 0 0 0 0 0 0 0 0 0 0 1:5 2:2 3:2.5 4:2 5:4 6:4 7:3.75 8:3 9:1.25 10:5 11:2.25 12:3.25 13:2.5 14:2 15:1 16:1.5 18:2.75 19:4.25 20:0.25 21:0.25 22:4.5 23:2.5 24:2 25:1.5 27:1.25 28:1.75 29:2.75 30:1.25 31:2 32:1.5 33:2 34:2.5 35:4 36:1 39:-0.5 43:-0.25 45:0.25 47:0.25 48:-0.75 51:-1 52:1 54:-0.75 55:0.25 56:0.25 57:-0.25 60:-0.5 61:1 63:-0.25 64:0.25 65:0.25 66:0.25 68:-0.5 70:-0.5 75:-0.5 76:2 79:0.25 80:1 81:0.75 83:0.25 84:-0.75 85:2.5 86:2 87:-1 88:1 90:-0.75 91:-0.75 92:0.25 93:-0.25 94:0.5 95:1.5 96:-1.5 97:1 99:0.75 100:-1.75 101:0.25 102:0.25 103:1 104:-0.5 106:-0.5 108:1 111:0.5 115:0.25 117:-0.25 119:0.25 120:0.25 123:1 124:0.5 126:-1.25 127:0.25 128:0.25 129:0.25 133:0.5 135:-0.75 136:-0.25 137:-0.25 138:0.25 140:-0.5 142:0.5 
-0 0 58.33239498936671 0 0 0 0 0 0 0 0 0 0 0 0 0 0 0 0 0 0 0 0 1:4.75 2:2.75 3:3 4:3.25 5:3.75 6:4 7:4 8:3.25 9:3.5 10:5 11:1.25 12:2 13:4.5 14:2.75 16:1.75 18:2 19:4.25 20:0.5 21:1 22:3.75 23:3 24:0.25 25:2.75 27:2.25 28:4.5 29:2 30:2.25 31:4 32:2.25 33:4 34:2.75 35:3.5 36:3 37:0.25 38:0.25 40:0.25 41:-0.25 44:-0.25 45:0.5 47:0.25 48:-0.5 50:1.25 52:-0.75 55:-0.75 56:0.5 57:-0.5 58:0.25 59:1 60:-0.25 61:0.25 63:-0.25 64:0.5 66:-0.25 68:-0.25 70:0.25 71:-0.5 73:-0.25 74:-0.25 76:0.25 77:0.25 80:0.25 83:0.25 84:-0.5 85:0.5 86:0.75 88:0.75 90:-2 91:0.25 92:0.5 93:-0.5 94:0.75 95:1 96:-0.25 97:0.75 99:-1.75 100:0.5 102:-0.25 103:1 104:-1.75 106:0.25 108:1 109:0.25 110:0.25 112:0.25 113:0.25 116:0.75 119:0.25 122:-0.75 124:-0.75 127:0.25 128:0.5 130:-0.75 131:-1 132:0.25 133:-0.75 135:-0.25 136:-0.5 138:0.25 140:-0.25 142:0.75 
-0 0 0 0 0 22.11062885205147 0 0 10.94611165107701 0 0 0 0 0 0 0 0 0 0 0 0 0 0 1:3.25 2:1.25 3:2 4:2 5:2.25 6:4 7:3.25 8:3 9:3.25 10:4.75 11:2.5 12:3 13:1.5 14:1 15:1.5 16:1.5 18:2.25 19:3.75 20:0.25 21:1.25 22:2.5 23:1.75 24:1.75 25:2.25 26:0.75 27:2.25 28:4 29:2.25 30:2.5 31:1 32:1.5 33:1.5 34:1.25 35:2.25 36:0.5 37:-0.25 38:1.25 39:-1 41:-0.75 43:-0.25 45:0.25 46:-0.25 47:0.5 48:-0.5 49:1 51:-0.5 52:1 54:0.25 55:1.25 56:0.25 57:-0.75 58:-0.5 59:0.75 60:-0.75 61:0.75 62:-0.25 63:0.25 64:0.5 65:0.25 67:0.5 68:-0.5 70:-0.25 71:0.25 73:-1.25 74:1.25 75:-1 76:2 77:-0.25 79:0.25 81:0.75 82:-0.25 83:1 84:-1 85:1.5 87:-0.5 88:1 90:-1.75 91:0.75 92:0.25 93:-1.25 94:1.5 95:0.75 96:-0.75 97:0.75 98:0.25 99:0.75 100:-0.5 101:0.25 102:-0.5 103:1 104:-0.5 105:0.5 106:-0.25 107:0.25 108:0.5 109:0.25 110:1.25 111:1 113:0.75 115:-0.25 117:-0.25 118:-0.25 119:1 120:0.5 121:1 123:0.5 124:0.5 126:0.25 127:-0.75 128:0.25 129:0.75 130:-0.5 131:0.75 132:0.75 133:0.25 134:0.25 135:-1.25 137:0.25 139:0.5 140:-0.5 142:0.25 143:0.25 
-0 0 130.6573760438092 0 0 105.9256558718959 0 0 0 20.63948986406337 0 0 0 64.07018331508046 0 0 0 91.8187675628146 0 0 0 0 0 1:3.5 2:2 3:1 4:1.5 5:2.75 6:3 7:3.5 8:3 9:1.5 10:4.25 11:1.25 12:1.25 13:3 14:2 16:1.25 18:2 19:3.75 21:0.25 22:3 23:1 25:1.5 27:1.75 28:2.25 29:2 30:1.75 31:2.5 32:0.75 33:2.75 34:2.25 35:2.25 36:2 37:0.5 40:-0.5 41:-0.75 45:1 46:0.75 47:0.25 48:-0.25 49:-0.5 52:-0.75 55:1.25 57:-0.25 58:-1 59:-0.5 61:-0.5 63:-0.25 64:0.25 66:0.25 67:-0.5 68:0.25 69:0.25 70:-0.25 71:-0.25 72:0.5 73:0.5 76:0.5 77:-0.25 79:0.5 82:0.75 83:0.25 84:-0.25 86:2 88:1.25 90:-2 91:1.25 93:-0.25 94:-0.5 95:0.5 97:1 99:-1.75 100:-0.25 102:-0.25 104:-0.75 105:-0.25 106:-0.25 107:0.75 108:0.5 109:-0.5 112:-0.5 113:-0.75 117:0.5 118:-0.75 119:0.25 120:0.25 121:-0.5 124:-0.75 127:-1.25 129:0.25 130:-0.5 131:-1 133:-1 135:0.25 136:-0.25 138:0.25 140:-0.25 141:0.25 142:0.25 143:0.25 
-41.5552506077407 0 0 0 0 0 0 0 0 0 0 0 0 0 0 0 0 0 0 40.19695562122544 0 0 0 1:1.75 2:3.5 3:2.25 4:2 5:1.25 6:2 7:2.75 8:3.75 9:3.75 10:2.75 11:3.75 12:3.25 13:3.75 14:3 15:2.25 16:3.25 17:2.25 18:2.75 19:4.25 20:3 21:1.5 22:3.75 23:2.25 24:1.25 25:3 26:1 27:3 28:4.75 29:3.25 30:3.5 31:2.25 32:1.25 33:3 34:3 35:3.25 36:1.25 37:-0.25 39:0.25 41:-0.25 43:-0.25 44:-0.25 45:0.25 46:-0.25 47:0.25 48:-0.25 49:0.75 51:-0.75 52:0.25 53:-0.25 54:-0.25 55:-0.75 56:0.5 57:-1 58:0.75 59:0.25 60:-0.75 61:0.5 64:-0.25 65:0.25 67:0.25 68:-0.25 71:-0.25 72:0.25 73:-1.75 74:1 75:-0.25 76:0.5 77:-0.75 79:-0.25 80:-0.25 81:0.25 82:-2.25 83:0.75 84:-0.25 85:0.75 87:-0.25 88:0.75 89:0.25 90:-0.25 91:-0.75 92:2 93:-1 94:0.25 95:1.25 96:-1.25 97:1 98:-0.5 99:0.5 100:-0.25 101:1.25 103:0.75 104:-0.75 107:-0.75 108:1.25 109:0.25 110:-0.5 111:-0.25 112:-0.5 113:-0.25 115:-0.25 116:-0.25 117:-0.25 118:-0.25 119:0.25 120:0.25 121:-1.25 123:0.75 124:-0.25 125:-0.25 126:-0.25 127:-0.75 128:-0.5 129:0.5 130:-0.75 131:-0.75 132:0.75 133:-0.5 134:0.5 135:-0.5 136:-0.25 137:0.25 138:-0.5 139:-0.25 140:-0.25 143:-0.25 144:0.25 
-0 22.2744253413678 47.05251781164582 46.60612561081436 0 112.8778234707807 0 0 0 0 0 0 0 87.95425724473428 0 0 0 0 0 0 0 0 0 1:3.5 2:3 3:2.25 4:2 5:2.5 6:3.25 7:4 8:3.25 9:3.5 10:4.25 11:1 12:1.25 13:3 14:3 16:2 18:2.25 19:4.75 20:1 21:0.75 22:2.75 23:2.25 25:2 27:3 28:4 29:2.25 30:3 31:3 32:1.25 33:2.75 34:2.25 35:2 36:2.5 37:-0.5 39:0.25 40:0.5 41:-0.5 42:-0.25 44:0.25 46:0.25 48:-0.25 49:0.5 50:1 54:-0.75 55:0.25 57:-0.25 58:0.25 59:0.25 63:-1 64:-0.5 65:-0.25 67:0.5 68:-0.25 69:0.25 70:-0.25 72:1 75:0.25 76:1 77:-1.5 78:0.25 80:0.25 81:0.5 82:0.25 84:-0.25 85:1.5 86:1 90:-1.25 91:0.25 93:0.25 94:-0.75 95:0.25 97:0.5 99:-1 101:0.75 104:-1.25 105:-0.25 106:-0.25 108:1 111:0.25 112:-0.5 113:-0.5 114:0.75 116:-0.75 118:0.25 120:0.25 121:-1 122:-1 124:-2 126:-0.25 127:-0.25 129:0.25 130:-0.25 131:-0.75 133:-1.5 135:-1 136:-0.5 137:0.25 139:-0.5 140:0.25 141:0.25 142:0.25 144:-0.5 
-9.184618842158512 0 0 0 0 0 80.67512142463905 0 109.4570921081943 0 13.59082159023726 15.6483090959003 14.55041917811536 0 103.70619469144 0 0 0 0 19.27770827946378 0 0 0 1:3.5 2:1.5 3:1.75 4:1.25 5:2.75 6:3 7:3.5 8:3 9:3.25 10:4 11:1.25 12:2.5 13:2.25 14:1.5 16:2 18:0.25 19:4 20:0.75 21:2 22:3 23:1.5 24:1 25:3.25 26:0.5 27:1.25 28:4 29:0.25 30:1.25 31:2.5 32:0.75 33:2.5 34:1 35:3 36:1.75 37:0.5 39:-0.25 40:0.25 41:-0.25 45:-0.25 46:1 47:0.25 48:-0.5 49:0.25 54:-0.25 55:1 56:-0.25 57:-0.5 59:-0.5 61:0.75 63:-1.25 64:1 65:0.25 66:-0.25 68:-0.25 69:-0.5 71:-0.5 72:0.25 74:1 75:-0.75 76:1.25 77:-0.25 81:-0.25 82:0.5 83:0.25 84:-0.5 85:1.25 86:1 88:0.5 90:-0.25 91:1 92:0.25 93:-1 94:1 97:0.25 98:0.5 99:-0.75 100:1 101:0.25 102:-0.25 103:0.5 104:-0.75 105:0.5 106:-0.5 108:0.75 110:0.5 111:0.25 112:0.25 113:-1.25 115:-0.5 117:0.25 118:-0.5 119:0.25 120:0.5 121:0.25 122:-0.5 124:-1.5 126:0.25 127:-1 128:0.25 129:0.5 131:-1 133:-0.25 135:0.75 136:-1 137:0.25 138:0.25 140:0.25 141:-0.5 142:0.5 143:-0.5 144:0.25 
-0 0 72.83497674673289 0 0 0 0 0 0 0 0 0 0 0 0 0 0 0 0 0 0 0 0 1:4.5 2:3 3:3 4:2.25 5:3.75 6:3.25 7:3.5 8:4 9:4 10:4.25 11:1.5 12:1.5 13:4 14:3 15:0.25 16:2 18:3 19:4.75 20:0.75 21:1 22:4.25 23:3 24:0.5 25:2 27:3 28:5 29:3 30:3 31:3.75 32:1.25 33:4 34:2.75 35:3.5 36:2.75 40:-0.25 41:-0.25 42:-0.25 43:0.5 46:0.25 47:0.5 48:-1 50:1 51:-0.25 54:-1 55:0.25 56:-0.25 58:-0.75 59:0.5 61:0.5 63:-1 67:-0.25 68:-0.25 70:0.25 72:0.25 73:-0.5 76:0.75 77:0.25 78:-0.25 82:0.75 83:0.5 84:-0.5 85:1 86:1 87:-0.25 88:0.5 90:-1 91:0.25 92:-0.25 94:0.25 95:0.5 96:-0.5 99:-1 103:1.25 104:-1.25 106:-0.75 108:0.75 112:0.25 113:0.25 114:0.25 118:-0.25 119:0.5 120:1 122:-1 123:0.25 124:-1.5 126:-1 127:-0.25 128:-0.25 130:0.25 131:-1 133:-1.5 135:-1 139:0.25 140:0.25 142:-0.25 143:0.5 144:0.25 
-0 0 0 0 0 13.7827532865283 0 0 0 0 0 0 0 0 0 0 0 0 0 0 0 0 0 1:3.25 2:2 3:2 4:2.25 5:2.5 6:3.75 7:4 8:3.5 9:2.5 10:5 11:2.5 12:3.5 13:3 14:1.75 15:1.5 16:1.75 17:0.75 18:2.25 19:4.75 20:1.25 21:1.25 22:4.5 23:2 24:1.5 25:2.5 26:1 27:2.5 28:3.25 29:2.25 30:2.75 31:1.25 32:1.5 33:3.25 34:2 35:3.5 36:0.75 37:-0.25 38:0.5 40:-0.25 41:-0.5 42:-0.25 45:0.5 47:1 48:-0.5 49:0.5 50:-0.75 51:-0.5 52:0.75 53:0.25 54:0.25 55:0.25 56:1.25 57:-1.25 60:-1 64:0.25 65:0.25 66:0.25 67:0.25 68:-0.5 69:0.25 70:-0.5 71:0.5 72:0.25 73:-1.25 74:1 76:0.25 77:-0.5 78:-0.25 80:0.5 81:1.5 83:0.5 84:-0.5 85:1 86:1.25 87:-0.5 88:0.75 89:0.25 90:0.25 91:-0.25 92:1.25 93:-1.25 94:0.5 95:0.5 96:-1 97:1.5 99:0.5 100:-0.25 101:0.25 102:-0.75 103:1.25 104:-1.5 105:0.25 106:-1 107:0.5 108:0.75 109:0.25 110:0.5 112:-0.25 113:0.5 114:-0.25 117:-0.5 119:1 120:0.5 121:0.5 122:-0.25 123:0.5 124:0.75 125:-0.25 126:-1.75 127:0.25 128:1.25 129:1.25 131:-0.5 132:0.5 135:-1 136:-0.25 137:0.25 138:-0.25 139:0.25 140:0.5 141:-0.75 142:0.5 143:-0.5 144:0.25 
-0 0 79.66604257802328 0 0 0 23.20443004379068 0 0 0 1.593877649674623 45.4000079681766 21.25277678876271 24.45486452626452 71.45035959298494 0 0 0 0 0.4528385954350327 0 0 0 1:2.75 2:2.25 3:2.25 4:1.75 5:1.75 6:3.75 7:4 8:3.75 9:3.25 10:4.75 11:2 12:2 13:3.75 14:2 15:1 16:2.5 17:1 18:1 19:4.75 20:2 21:2 22:2.25 23:2 24:1 25:2.5 26:1 27:1.75 28:4.25 29:1.25 30:2 31:3.25 32:0.75 33:4 34:1.25 35:2.75 36:2.25 37:-0.25 38:1.25 39:0.25 40:0.25 41:-0.25 42:-0.25 44:-0.25 45:-0.25 46:-0.25 47:1 48:-1 49:0.25 54:-0.5 55:-0.25 56:1 57:-1 58:0.25 59:-0.5 63:-0.75 64:0.75 65:0.75 66:-0.5 67:0.25 68:-0.25 70:0.25 71:0.25 72:0.75 73:-1.75 74:0.75 75:-0.75 76:0.75 77:-0.25 78:0.25 80:-0.25 81:-0.25 82:0.25 83:1 84:-1 85:0.75 90:-1 91:0.25 92:1 93:-1 94:1.25 95:-0.5 99:-0.75 100:0.25 101:0.25 102:-1 103:1.25 104:-0.75 106:0.25 107:-1.25 108:0.75 109:0.25 110:0.75 111:0.25 112:0.25 113:-0.25 114:0.25 116:-0.25 117:0.25 118:0.25 119:1 120:1 121:0.25 122:-1 124:-1.5 126:0.5 127:0.25 128:1 129:1 130:0.25 131:-1 133:-1.5 135:0.75 136:-0.25 137:0.75 138:0.5 139:0.25 140:0.25 142:0.25 143:0.25 144:0.25 
-0 0.7031462036347397 0 0 0 0 0 0 0 0 0 0 0 0 0 0 0 0 0 0 0 0 0 1:4 2:2 3:2.5 4:1.25 5:3.25 6:2.75 7:3 8:3 9:1 10:3.5 11:2.25 12:2.75 13:1.75 14:2 15:1 16:1.25 17:0.5 18:2 19:3.75 20:0.25 21:0.25 22:3 23:2.5 24:1 25:2 27:1.75 28:1.75 29:2.25 30:1.75 31:2.25 32:0.5 33:2.25 34:1.25 35:3 36:1.25 39:-0.5 40:0.25 41:0.75 42:-0.25 46:-1 47:0.25 48:-0.25 49:0.75 51:-1 52:0.75 55:-1.25 56:0.25 57:-0.25 60:-1 61:0.5 63:0.25 64:-1.25 65:0.75 66:0.25 67:0.25 68:-0.5 69:0.75 70:-0.25 71:-0.5 72:0.75 73:-1 76:0.75 77:0.25 78:0.25 82:-1.5 83:0.25 84:-0.25 85:1.25 86:2 87:-1 88:1.25 89:-0.5 90:-1.5 91:-1.25 92:0.25 93:-0.25 94:0.5 95:0.5 96:-1 97:1.5 99:-1.75 100:-1.25 101:0.25 102:0.25 103:0.25 104:-0.5 105:0.25 106:-0.75 108:1.25 112:-0.25 113:-0.25 114:0.25 118:-1 119:0.25 120:-0.25 121:0.25 123:1 124:0.75 126:0.5 127:-1.25 128:0.25 129:0.25 130:-0.5 131:-1 132:1 135:-0.25 136:0.75 137:0.75 138:-0.25 139:0.25 140:0.5 141:-0.25 142:0.75 143:0.5 144:0.75 
-0 33.44592760960423 0 0 0 34.84648553466597 0 0 0 0 4.720519254361114 0 0 0 0 30.8397760918524 4.643321456036082 0 0 0 0 0 0 1:3.5 2:2.75 3:2 4:2 5:3 6:2 7:2 8:2 9:1 10:2.5 11:2.5 12:2 13:2.5 14:2.5 15:1 16:2 17:1 18:2.5 19:2.5 20:1 21:0.25 22:3.25 23:2 25:2.25 27:1.75 28:1.5 29:2.75 30:1.75 31:2.75 32:1.25 33:2.5 34:2.25 35:2.25 36:2.25 38:0.75 47:1 56:1 57:-0.25 58:-0.25 61:0.25 63:0.25 64:-1 65:0.75 66:-0.25 67:0.25 68:-0.25 70:-0.25 71:0.25 72:-0.25 73:-1.5 74:0.75 76:1 82:-2.5 83:0.5 85:1 86:1.5 88:1.5 90:-1 91:-2.5 92:1 93:-0.25 94:-1.75 95:1 97:1.75 99:-1.75 100:-1.5 101:0.75 102:-0.25 103:-0.25 104:-0.75 105:0.5 106:-0.75 107:0.25 108:1.25 110:0.75 113:-1 119:1 121:-0.5 124:0.5 126:-0.5 128:1 129:0.25 130:-0.25 131:-1 133:-0.25 135:-0.25 136:1 137:0.75 138:-0.25 139:0.25 140:-0.25 142:-0.25 143:0.25 144:-0.25 
-0 0 0 0 0 40.04364314434861 0 0 0 0 0 0 0 0 18.61785118964684 0 14.40783242811222 0 0 0 0 3.123087407986328 0 1:3.75 2:2 3:2.5 4:1.5 5:3 6:3 7:3.25 8:1.25 9:1.5 10:4 11:1 12:3.25 13:1.75 14:2 16:1 18:2.5 19:2.5 21:0.75 22:2 23:2.25 24:1.5 25:2.75 26:0.25 27:2.25 28:1.75 29:2.5 30:2.5 31:1.25 32:1 33:1.75 34:1.25 35:1.75 36:0.75 37:0.75 43:0.25 44:0.75 45:-0.5 46:0.5 48:-0.25 49:0.75 52:0.5 54:-0.5 55:1 57:-0.25 58:-1 59:0.25 61:0.25 62:-0.25 63:0.25 64:0.25 67:0.25 69:0.25 70:-0.25 71:-0.75 72:0.25 73:1.25 75:-0.5 76:1.5 77:0.5 79:0.25 80:0.25 82:1 83:0.5 84:-1.25 85:1.75 86:2 88:1 90:-0.5 91:0.5 93:-0.75 94:1 95:0.75 96:-0.5 97:1.25 98:-0.25 99:0.75 100:-1.75 101:0.5 102:-0.5 103:1.25 104:-1 105:0.25 106:-0.25 107:0.25 108:0.75 109:-0.75 113:0.5 115:0.25 116:0.75 118:-0.5 119:0.5 120:0.25 121:0.75 124:0.5 126:-1.5 127:-1 129:0.25 130:-1 131:-0.25 133:-0.25 134:0.25 135:-1.25 136:-0.25 139:0.25 141:-0.25 142:0.25 143:-0.25 144:0.25 
-0 33.1269403412817 31.39138762648926 10.72555493106231 10.45416283857331 0 123.4468632331602 9.832338961514603 34.77621038351862 36.04292463179445 0 48.60738490295151 22.25762774967939 12.94753374189724 17.49154146482788 0 0 117.8707533112043 35.13351615515101 55.46388045430852 20.22878847267639 7.990557906965733 9.545968149234518 1:3.75 3:0.5 4:2.75 5:3 6:3.25 7:3 8:1.75 9:2 10:4.25 11:1.75 12:2.25 13:3 15:1.25 16:1 17:1 18:2.25 19:2.5 20:1.25 22:2.5 23:0.25 24:2.25 25:0.25 27:2.25 28:2.5 29:2.5 30:2.25 31:2.5 32:2 33:2.25 34:2.5 35:2.25 36:1.75 37:1.25 39:-0.5 40:0.25 42:0.25 43:0.5 44:-0.25 46:0.25 47:0.25 48:-0.75 51:-0.25 54:-0.25 56:1.25 59:0.25 60:-0.25 61:0.25 63:0.75 65:0.5 66:-0.25 67:0.5 69:0.25 71:-0.25 72:0.25 73:1.25 75:-0.5 76:0.75 78:-0.75 79:0.5 80:-0.25 82:0.25 83:1.25 84:-0.75 85:1.5 87:-1.25 90:-0.25 91:-2 92:1.25 94:-2.5 95:0.25 96:-1.25 97:0.25 99:0.25 100:-2.5 101:0.5 102:-0.75 103:0.5 105:0.25 106:0.5 107:-0.25 108:1.25 109:-1.25 111:0.5 112:-1.75 114:0.25 116:-0.25 118:0.25 119:0.75 120:0.25 121:-0.5 123:0.25 126:-0.75 127:-0.5 128:1.25 131:0.25 132:0.25 133:0.25 135:-1.25 137:0.5 138:-0.25 139:-0.5 141:0.25 143:0.25 144:-0.25 
-0 0 0 0 0 48.67703849845972 0 0 0 0 0 0 0 0 0 0 0 0 0 0 0 0 0 1:3.25 2:2.75 3:2.25 4:1.75 5:2.5 6:2.75 7:3 8:3.75 9:3 10:3.5 11:2.5 12:2.75 13:1.75 14:2.5 15:1.75 16:1 18:3 19:4.25 21:1.5 22:3.5 23:2.25 24:1.25 25:2.25 26:1 27:2.75 28:4 29:3 30:3 31:1.25 32:1 33:2.5 34:1.25 35:3 36:0.5 37:-0.75 38:0.75 39:-0.25 40:-0.25 42:0.25 44:-0.25 45:0.5 46:-1 47:0.5 48:-0.25 49:0.25 51:-0.75 52:1 54:-1 55:-0.25 57:-1 58:1 59:0.25 60:-0.75 61:0.75 63:0.25 64:0.5 67:0.25 70:-0.25 72:0.5 73:-1.75 74:0.75 75:-0.25 76:0.75 77:-0.5 78:-0.25 80:0.25 82:-1 83:0.5 84:-0.75 85:1.25 86:1.5 87:-0.75 88:1 90:-1 91:-0.25 93:-1.5 94:1.5 95:1.75 96:-1.25 97:0.75 99:0.25 100:-0.5 102:-0.5 103:0.75 104:-1 105:0.5 106:-1.25 108:0.5 109:-0.75 110:0.75 111:0.25 112:-0.25 114:0.25 116:0.25 117:-0.5 118:-1.5 119:0.5 120:0.25 121:-0.25 123:0.75 124:1 126:-1 127:-0.75 129:1 130:-1 131:-0.25 132:0.75 133:0.25 135:-1.25 138:0.5 139:-0.25 142:0.25 144:0.5 
-0 0 0 0 0 0 0 23.12743312288504 0 0 10.49096026161049 0 0 0 0 0 0 0 0 0 0 3.596233596519065 0 1:2.5 3:0.5 4:3.25 5:2 6:2.75 7:2 8:2 9:3 10:3.5 11:3 12:3.75 13:3.5 15:2 16:1 18:1.5 19:2.25 22:5 23:0.5 24:2.5 25:1.25 27:2.5 28:3.5 29:1.5 30:2.5 31:1.5 32:2.25 33:3 34:3.5 35:4 36:0.5 40:-0.25 42:0.25 43:1 45:-0.5 46:0.5 48:-0.25 52:1 54:0.5 55:-0.25 59:0.5 60:-0.5 61:0.75 63:0.5 64:0.5 68:-0.25 70:-0.5 72:0.5 73:2.5 75:-0.5 76:-0.25 78:-1.25 79:0.5 81:-0.5 82:0.5 84:-0.75 85:1.5 87:-2 88:1 90:-0.5 91:2.25 95:0.5 96:-1.5 97:1.25 99:0.5 100:1 101:-0.5 102:-0.5 103:0.5 104:0.25 105:1 106:-0.5 108:0.5 112:0.25 114:0.25 115:0.5 118:0.5 120:0.25 124:1 126:-1.5 127:-0.25 131:0.5 132:-0.5 133:0.75 135:-1.5 140:-0.25 142:-0.5 144:0.5 
-0 11.91164699022215 3.980712109800827 0 0 0 0 0 0 0 0 0 0 0 0 0 0 0 0 0 0 0 0 1:3 2:1 3:1.25 4:3.25 5:2.5 6:3 7:3.75 8:3 9:3 10:4.5 11:1.5 12:2.5 13:2.5 14:1 15:1 16:0.5 18:2.5 19:4 22:2.5 23:1.25 24:2 25:0.5 27:2 28:3.75 29:2.5 30:2 31:2.25 32:2.5 33:2 34:2.25 35:2.5 36:1.25 39:-0.25 40:0.75 41:0.5 43:0.25 48:-0.5 49:0.5 50:1 51:-1 52:0.5 55:-1 59:0.75 60:-0.5 61:0.5 64:-1.25 65:0.5 66:-0.5 67:0.25 69:0.5 70:-0.25 71:-0.5 72:0.25 73:2 75:-0.25 76:1.75 77:0.5 78:-1 79:0.25 82:0.5 83:0.5 84:-1 85:2 86:1 87:-1 88:0.5 91:-1 94:-2.5 95:1.25 96:-1.5 97:0.5 99:0.5 100:-1.25 101:0.5 103:0.75 104:-0.5 106:0.25 107:-0.5 108:1.25 111:0.25 112:-0.75 113:0.5 115:-0.25 122:1 123:1 124:0.5 126:-1.5 127:-1 131:0.75 133:0.5 135:-1.5 136:-1.25 137:0.5 138:0.5 139:-0.25 141:0.5 142:-0.25 143:0.5 144:0.25 
-0 33.75462964337469 0 0 0 0 0 0 0 4.448151821620239 0 0 0 0 0 0 0 0 0 0 0 0 0 1:3.75 2:2 3:1.5 4:1.75 5:3 6:2.5 7:3.25 8:3 9:3.25 10:3.25 11:1 12:1.75 13:1.5 14:2 16:1 18:1.75 19:4 21:0.75 22:3 23:1.5 25:2.5 27:1.75 28:4 29:1.75 30:1.75 31:1 32:1 33:2.25 34:1 35:2.75 36:0.25 37:-1.25 40:0.75 43:0.25 45:0.25 46:-0.25 48:-0.25 49:0.5 52:-1 54:0.25 55:1 57:-0.25 59:-0.5 61:0.5 63:0.25 64:0.5 65:-0.25 66:-0.25 67:0.5 68:-0.5 69:0.75 70:-0.5 71:-0.25 72:0.25 73:-1.25 76:0.75 79:-0.25 81:-0.25 82:0.25 84:-0.25 85:0.5 86:2 88:1 90:-1.75 91:1 93:-0.25 95:1 97:1 99:0.25 100:0.5 101:-0.25 102:-0.25 103:0.5 104:-1 105:0.25 106:-1 107:-0.25 108:0.25 109:-1.25 111:0.5 112:-0.25 114:0.5 115:-0.25 117:-0.25 118:-1.25 120:-0.25 121:-0.5 124:-1 126:-0.25 127:-1 129:-0.25 130:-1 131:-1 133:-1 135:-1.25 136:-1 137:-0.25 138:-0.25 140:0.5 141:-0.25 142:0.5 143:-0.25 144:0.25 
-0 0 0 0 0 33.12356579302112 0 0 0 0 0 0 0 0 0 0 0 0 0 0 0 0 0 1:4 2:3 3:2.75 4:1.25 5:3.25 6:3 7:3.5 8:2.5 9:3.25 10:4.25 11:1.25 12:2.75 13:2.25 14:3 16:1.25 18:3 19:3.25 21:0.5 22:3.5 23:2.75 24:0.75 25:2.5 27:2.75 28:4 29:3 30:2.75 31:1.75 32:1 33:1.5 34:2.25 35:3 36:1 37:0.5 39:0.25 40:-0.25 41:-0.25 45:0.25 46:0.75 47:0.25 48:-0.25 49:-0.25 50:1 52:0.75 54:-1 55:1.25 57:-0.5 58:-1 59:0.75 60:-0.25 63:-0.25 64:0.5 66:-0.25 67:-0.25 70:-0.25 72:0.5 75:0.25 76:1.25 77:-0.25 79:0.5 80:-0.5 81:-0.25 82:0.75 83:0.25 84:-0.75 85:2.25 86:1 88:1.25 90:-1 91:1.25 93:-0.5 95:0.25 96:-0.75 97:1.5 99:-0.25 102:0.25 103:0.75 104:-1 105:-0.5 106:-0.25 108:0.5 109:-0.5 111:-0.25 112:-0.25 113:-0.75 117:-0.25 118:-0.75 119:0.25 120:0.25 121:-0.25 122:-1 124:0.75 126:-1 127:-0.75 129:0.5 130:-0.5 131:-0.75 132:0.25 135:-1.25 136:-0.5 138:0.25 139:-0.25 142:0.25 
-0 6.158431366434274 0 0 0 13.83511227864881 0 0 0 52.36922862714553 0 0 0 0 0 0 0 0 0 0 0 0 0 1:3 2:1 3:1.75 4:1 5:2.25 6:3 7:3.25 8:2.75 9:3 10:4 11:1.5 12:1.75 13:1.75 14:1 16:1.5 18:2 19:3.5 21:0.75 22:2.75 23:1.75 24:0.25 25:2.25 27:2 28:3.75 29:2 30:2 31:1.5 32:1 33:1.5 34:1.25 35:2 36:1.25 37:0.5 39:0.25 41:-0.75 43:-0.25 44:-0.25 46:1 48:-0.25 49:-0.25 50:-1 52:-0.5 55:1 57:-0.25 58:-0.75 59:0.25 60:-0.25 61:0.25 63:0.5 64:0.75 69:-1 70:0.25 72:0.25 73:1 75:-0.25 76:1 77:-0.25 79:0.25 80:0.25 81:-0.5 82:1 83:-0.5 84:-0.25 85:0.75 86:1 88:1.5 90:-2 91:1.5 93:-0.75 94:0.75 95:-0.75 96:-0.25 97:0.75 99:-1 100:1.25 103:1.5 104:-1 106:-0.75 108:0.75 109:-0.5 111:0.25 113:-0.25 115:-0.25 116:0.25 117:0.5 118:-1 120:0.75 121:-0.25 122:-1 124:-0.5 127:-1 129:0.25 130:-0.75 131:-1.25 132:0.25 133:-0.25 135:-0.5 136:-0.75 141:-0.5 142:0.25 143:-1 144:-0.25 
-0 35.86330475141269 0 103.5968850788171 38.85352394253527 0 0 0 0 0 0 0 0 0 0.6078141203993627 0 0.1819014203464286 0 0 0 0 0 0 1:4 2:2.25 3:1.75 4:1.75 5:3.25 6:3 7:2.25 8:2 9:1.75 10:3.5 11:2 12:2.5 13:1.5 14:2.25 16:2 18:1.5 19:2.75 21:0.5 22:1.75 23:1.75 24:0.5 25:2.5 27:2.25 28:2 29:1.5 30:2.25 31:1.5 32:1 33:1.75 34:1.25 35:1.25 36:1.25 37:0.5 38:0.25 39:-0.25 40:-0.25 41:-0.25 43:-0.75 45:-0.75 46:0.5 48:-0.5 49:0.5 50:0.25 55:1.25 57:-0.5 58:-0.25 59:-0.25 63:0.25 64:0.5 66:-0.25 69:0.25 70:-0.25 71:0.25 72:0.25 74:0.25 75:0.25 76:0.75 77:-0.25 79:0.25 81:-0.25 84:-0.5 85:1.5 86:1.75 88:2 90:-1.5 91:0.25 93:-0.5 94:0.75 95:1.25 96:-0.5 97:1.5 99:-1.25 100:-1 102:-0.25 103:1.5 104:-0.5 105:0.25 106:-0.25 107:-0.25 108:0.75 109:-0.5 110:0.25 111:0.25 112:-0.25 113:-0.75 115:0.25 116:-1 117:-0.75 118:-1 120:0.5 121:0.5 122:-0.25 127:-1.25 129:0.5 130:-0.25 131:-0.75 135:-0.25 136:-0.5 137:0.5 138:0.25 140:-0.5 141:0.75 142:0.25 143:-0.25 144:-0.25 
-0 0 0 0 0 0 0 54.52332895906496 0 0 0 0 0 0 0 0 0 0 0 0 0 0 0 1:2 2:1.25 3:2.25 4:2.25 5:1.75 6:1 7:1.25 8:2.25 9:2.5 10:1.5 11:2 12:1.75 13:3.25 14:1.25 16:2 18:1.75 19:2 21:0.75 22:3.25 23:2.25 25:2.5 27:1.25 28:3.25 29:1.75 30:1.25 31:1.75 32:1.5 33:3 34:2 35:3 36:1 37:0.5 38:0.25 39:-0.25 40:-0.25 41:0.25 43:0.25 44:-0.25 46:1 48:-0.25 49:-0.75 50:-0.25 54:-0.25 55:1.5 57:-0.25 58:-0.75 59:0.25 61:0.5 63:0.75 64:1.25 65:0.25 66:0.25 67:-0.25 68:-0.5 73:-2 74:0.75 75:0.75 76:0.25 77:0.25 79:0.25 80:-0.75 81:0.5 82:-1.5 84:-0.25 85:0.25 86:0.75 88:2 90:-1.75 91:-0.5 93:-0.75 94:0.25 95:0.75 97:1 99:-0.25 100:0.25 101:0.25 102:-0.25 103:0.75 104:-1 108:1 109:-0.5 110:0.75 111:0.25 112:-0.25 113:-0.25 115:0.25 116:-0.25 118:-1 120:-0.25 121:-0.75 122:-0.75 126:0.25 127:-1 129:0.25 130:-0.75 131:-1.25 135:-0.75 136:-0.75 137:-0.25 138:-0.25 139:-0.25 
-0 0 166.8858812562668 0 0 14.92928012822662 0 0 0 0 0 0 0 8.695956540330935 0 0 0 0 0 0 0 0 0 1:3.75 2:1.75 3:2.25 4:2.5 5:3 6:3 7:2.5 8:2.5 9:3 10:3.25 11:1.25 12:2 13:3 14:1.75 16:1.25 18:2 19:3.25 21:0.25 22:4.25 23:2.25 24:0.25 25:2 27:2.5 28:3.75 29:2 30:2.5 31:2.75 32:1.75 33:3 34:2.25 35:3.75 36:1.75 37:-1.25 38:-0.25 39:-0.25 40:0.5 45:0.5 46:-1.25 47:0.25 48:-0.5 49:0.5 50:0.25 52:0.75 55:-1.25 57:-0.25 58:0.75 59:0.25 60:-0.25 61:0.5 63:-0.5 64:-0.75 67:0.75 68:-0.25 70:-0.25 71:0.25 72:0.25 73:-1.25 74:-0.25 75:-0.25 76:0.5 79:-0.5 80:-0.5 82:-0.75 83:0.25 84:-0.5 85:0.5 86:1.75 88:1.25 90:-2 91:-1.25 93:-0.25 94:0.25 95:1.75 96:-0.25 97:1.5 99:-1 100:-1.25 103:0.75 104:-1.25 106:-0.75 107:-0.25 108:1.25 109:-1.25 110:-0.25 111:0.25 112:-0.5 117:-0.5 118:-1.25 119:0.25 121:-1 122:0.25 124:0.75 127:-0.75 129:0.25 130:-0.25 131:-0.25 132:0.25 135:-1 136:-0.75 138:-0.5 139:-0.25 140:-0.25 142:-0.25 143:0.25 144:-0.25 
-0 0 0 0 0 0 0 0 9.68768521536154 0 0 0 0 0 0 0 0 0 0 0 0 0 0 1:3.5 3:1.25 4:3.25 5:2.75 6:3.5 7:3 8:3 9:3.5 10:4.5 11:2.75 12:3.75 13:1.75 15:1.75 16:1 18:2.5 19:3.5 21:0.5 22:4.25 23:1.25 24:2 25:2.25 27:2.25 28:4.25 29:2.5 30:2.25 31:1 32:2.5 33:2 34:2 35:3.5 36:0.25 37:0.5 39:-0.25 40:1.25 41:0.25 46:0.5 47:-0.25 48:-0.25 49:1.25 51:-0.25 52:1 54:-0.5 55:1.5 58:0.75 59:0.25 61:0.75 63:0.25 64:0.25 66:-0.25 67:0.5 68:-0.5 72:0.25 73:0.5 75:-0.75 76:1.25 77:-0.25 78:-0.5 79:0.5 82:0.5 83:0.25 84:-0.25 85:1.25 87:-1.75 88:1 90:-0.5 91:1 93:-0.5 94:0.75 95:1.25 96:-2 97:1.25 99:1.25 100:0.25 101:0.5 102:0.25 103:0.5 104:-0.5 105:1 106:-1 107:0.5 108:0.25 109:-1.5 111:-0.25 112:-0.75 113:0.25 115:0.5 117:-0.5 118:-0.5 119:0.25 120:-0.25 121:0.75 123:0.25 124:1 126:-1.5 127:-1 130:-0.75 131:0.25 133:-0.25 135:-0.75 136:-0.75 138:-0.25 140:-0.5 144:0.25 
-0 0 0 0 0 0 0 0 0 0 0 0 0 0 0 19.85137696437216 0 0 0 0 0 0 0 1:3.25 2:2 3:2 4:1.5 5:2.75 6:2 7:2.75 8:2 9:2.75 10:3.5 11:2 12:2.5 13:1.25 14:2 16:2 18:2 19:2.25 21:0.25 22:4 23:2 24:0.5 25:2.25 27:1.75 28:3.25 29:2 30:1.75 31:2 32:1 33:1.75 34:1 35:4 36:1 37:0.25 41:-0.25 43:-0.25 45:0.25 48:-0.5 49:0.25 55:0.25 57:-0.25 61:0.25 63:0.25 64:0.25 66:0.25 69:-0.25 73:1.25 76:1.5 77:1.25 79:1.25 81:-1.25 82:1.5 84:-0.5 85:1.25 86:2 88:2 90:-2 91:2.25 93:-0.25 94:1 95:1.5 96:-0.5 97:1.75 99:-1.75 100:1.25 102:0.25 103:1 104:-1 105:0.25 106:-1 108:1 109:0.25 113:0.25 115:0.25 117:0.25 120:0.5 121:0.25 127:0.25 129:0.25 131:-0.5 133:-0.25 135:-0.25 136:0.25 138:-0.25 141:0.25 
-0 0 0 0 0 0 0 0 0 0 0 40.79150258297114 0 0 0 0 0 0 0 0 0 0 0 1:2.5 2:3.25 3:1.75 4:2 5:2 6:2.75 7:2.75 8:3.75 9:3.75 10:3.75 11:3.75 12:2.5 13:3.5 14:3 15:2.25 16:2.5 17:1.25 18:2.75 19:4 20:1.75 21:1.75 22:4.25 23:1.75 24:1 25:2.5 26:1.25 27:2.75 28:4.75 29:3 30:3.25 31:2 32:1.5 33:2.5 34:3 35:3.5 36:1.25 37:-0.5 38:0.25 39:0.25 42:-0.25 43:-0.25 44:-0.25 45:0.25 46:-1.25 47:0.25 48:-0.5 49:1 51:-0.75 52:0.5 53:-0.25 54:-0.25 55:0.5 56:0.75 57:-1.25 58:0.75 59:-0.25 60:-0.5 61:0.5 62:-0.25 63:0.75 64:-0.25 65:0.5 66:0.25 67:0.5 68:-0.5 72:0.25 73:-1.5 74:1.25 75:0.25 76:0.5 77:-0.5 78:-0.25 79:0.25 80:-0.25 81:0.25 82:-1.25 83:0.75 84:-0.5 85:1 86:1 87:-0.75 88:1 89:0.25 90:-0.25 92:1.75 93:-1.25 94:0.75 95:1.75 96:-1 97:0.5 98:-0.25 99:1.25 100:-0.25 101:1 102:-0.25 103:0.5 104:-0.5 105:-0.5 108:1.25 109:-0.5 110:0.25 111:-0.25 112:-1.5 113:-0.5 114:-0.25 115:0.25 116:-0.25 117:-0.25 118:-1.25 119:0.25 120:0.5 121:-1.5 123:0.25 125:-0.25 126:-0.25 127:-0.5 128:0.75 129:0.75 130:-0.75 131:-0.25 132:0.5 133:-0.5 134:0.25 135:-0.75 136:-0.25 137:0.5 138:-0.25 140:-0.5 143:-0.5 144:0.25 
-0 0 0 0 0 0 0 0 0.5644792261147833 0 0 0 0 0 0 0 0 0 0 0 0 0 0 1:2.25 2:1.5 3:2 4:2.5 5:2 6:2 7:3.25 8:3.75 9:3.25 10:3.25 11:2.75 12:3 13:1.5 14:1.5 15:1 16:1.75 18:1.75 19:4.5 21:0.25 22:2.5 23:2 24:1 25:2.25 27:2 28:4.25 29:1.75 30:2 31:1.25 32:1.5 33:2.5 34:1 35:2 36:0.75 37:0.25 42:-0.5 43:-0.25 44:0.25 45:0.75 46:-0.25 47:-0.25 48:-0.5 50:0.5 51:-1 52:0.25 54:-0.25 57:-0.25 60:-0.5 61:0.25 64:0.25 65:-0.25 67:-0.25 68:-0.5 69:0.5 72:0.25 73:-2.25 76:1.5 79:-0.25 80:-0.25 81:0.25 82:-1.75 83:0.25 85:1.5 86:1.5 87:-1 88:1.75 90:-1.75 93:-0.25 94:2.5 95:2 96:-1 97:1.75 99:-1 100:-0.75 101:0.25 102:-0.5 103:1.25 104:-0.5 105:0.5 106:-1 108:0.75 109:-0.25 110:0.5 114:-0.5 115:-0.75 116:0.25 117:-0.25 118:-0.25 119:0.25 120:0.5 122:0.5 123:1 124:0.25 126:0.25 127:0.5 129:0.25 132:0.5 133:-0.25 136:0.25 137:0.25 138:0.5 139:-0.25 140:-0.5 141:0.5 144:0.25 
-0 0 0 0 0 13.0910946287699 0 0 0 0 0 0 0 9.702256194947257 25.68446724761724 0 0 0 0 0 0 0 0 1:2 2:2.5 3:3.5 4:2.25 5:1.5 6:2 7:2 8:4 9:3.25 10:2.5 11:2.5 12:3 13:3 14:2.25 15:0.75 16:2.5 17:1 18:2.5 19:4 20:1.25 21:1.5 22:2.5 23:3.25 24:1.25 25:3 26:0.75 27:2.75 28:4.25 29:2.75 30:3 31:2 32:1.25 33:3 34:2 35:2 36:1.5 38:0.5 40:0.25 41:-0.5 45:0.25 47:0.5 48:-0.5 49:-0.5 50:-0.25 51:-0.25 56:1.25 57:-0.5 59:-0.25 60:-0.25 62:-0.25 63:0.25 64:-0.25 65:0.75 66:-0.5 68:-0.25 72:0.5 73:-2 74:0.5 76:1.25 77:-0.5 81:0.75 82:-2.5 83:0.5 84:-1 85:1.5 86:-0.25 87:0.25 88:1.5 90:-1 91:-1 92:1.25 93:-1.5 94:2.5 95:0.25 96:-0.25 97:1 98:0.25 99:0.25 100:-0.25 101:0.75 102:-0.5 103:2 104:-0.75 105:1 108:0.5 110:0.5 111:0.5 112:0.25 113:-0.5 117:-0.25 119:0.5 120:0.5 122:-1.75 123:0.25 126:-0.5 128:1.25 129:0.5 131:-0.25 132:0.25 134:0.25 135:-1.25 136:0.25 137:0.75 140:-0.25 144:-0.5 
