svm_type c_svc
kernel_type rbf
gamma 0.0078125
nr_class 34
total_sv 2550
rho 0.66331 -0.175356 0.00673747 0.00793468 0.0503204 -0.123093 0.196933 -0.403772 -0.183882 0.157142 -0.159833 -0.436744 0.553938 -0.166921 -0.0594882 -0.0253816 0.0514263 -0.357365 -0.128379 -0.261945 -0.120399 -0.110545 -0.277708 -0.547787 -0.210967 -0.400245 -0.162867 -0.0545752 -0.282937 -0.144271 -0.274826 -0.225665 -0.352836 -0.777167 -0.726405 -0.838474 -0.705128 -0.934895 -0.587841 -0.901696 -0.84091 -1.05054 -0.786229 -0.735118 -0.7065 -0.801374 -0.677353 -0.737106 -0.654167 -0.729602 -0.832716 -0.701339 -0.696097 -0.756936 -0.769552 -0.730375 -0.856061 -0.878485 -0.866556 -0.685944 -0.8411 -0.883945 -1.04414 -0.862895 -0.928807 0.276394 0.0826951 0.202372 0.0588528 0.658662 0.0972931 -0.166386 0.236072 -0.00251854 -0.0248351 -0.0691767 -0.0113098 0.03538 -0.0676568 0.0238108 -0.241655 0.0161605 -0.102443 -0.0284288 -0.0112025 -0.167699 -0.0371577 -0.0902494 -0.162004 -0.0437139 -0.152873 -0.231139 -0.0404169 -0.231037 -0.153815 -0.209289 0.0163869 0.102808 -0.0625356 0.520141 -0.0959077 -0.22992 0.137068 -0.249244 -0.254526 -0.212695 -0.194193 -0.164342 -0.267922 -0.0803233 -0.416003 -0.114956 -0.229708 -0.143014 -0.134201 -0.309526 -0.203895 -0.267251 -0.454808 -0.172796 -0.240545 -0.299022 -0.147682 -0.433678 -0.298347 -0.53323 0.148949 -0.0810413 0.254413 -0.0448895 -0.106856 0.313804 -0.0580968 -0.129272 -0.170384 -0.120232 -0.0848089 -0.144532 -0.0932526 -0.379135 -0.0897911 -0.202994 -0.122727 -0.106221 -0.267493 -0.144491 -0.24414 -0.256416 -0.130405 -0.253242 -0.249545 -0.157384 -0.292007 -0.159098 -0.332038 -0.417136 0.0992908 -0.248748 -0.312846 -0.010838 -0.300147 -0.37006 -0.297405 -0.331445 -0.234304 -0.332269 -0.194103 -0.429488 -0.315481 -0.349906 -0.29216 -0.341328 -0.421007 -0.268975 -0.428986 -0.953687 -0.267892 -0.356812 -0.37887 -0.27093 -0.459843 -0.340635 -0.439808 0.212569 -0.0617059 -0.0488689 0.443464 -0.0132299 -0.0994263 -0.0903691 -0.0324499 -0.0295269 -0.0155618 0.000792025 -0.306402 -0.0531461 -0.137716 -0.119361 -0.0941039 -0.249385 -0.0421807 -0.1728 -0.195456 -0.0909613 -0.167656 -0.199891 -0.093765 -0.274454 -0.173858 -0.305528 -0.187091 -0.502868 -0.0706019 -0.28026 -0.35201 -0.311113 -0.283087 -0.260131 -0.388185 -0.247791 -0.53904 -0.235118 -0.320203 -0.237516 -0.228027 -0.461059 -0.301667 -0.432185 -0.472191 -0.197422 -0.370399 -0.476236 -0.262929 -0.626471 -0.47616 -0.899449 -0.080889 0.21163 1.06938 -0.118035 0.0653648 -0.0696775 -0.0811295 0.201956 0.108502 -0.269358 -0.213733 -0.276033 -0.205686 -0.175251 -0.320908 -0.104675 -0.0854218 -0.283226 -0.180447 -0.271503 -0.333125 -0.254486 -0.368794 -0.259593 -0.403274 0.219314 -0.00964876 -0.0122127 -0.0578912 -0.0341613 0.023093 0.00401819 0.0561574 -0.153276 0.00878038 -0.113259 -0.0414526 -0.0385073 -0.253082 -0.0427779 -0.110749 -0.159839 -0.0335477 -0.124523 -0.087324 -0.0514051 -0.184631 -0.129043 -0.228307 -0.261124 -0.261443 -0.298925 -0.319149 -0.234876 -0.286934 -0.240056 -0.424666 -0.402123 -0.377087 -0.290692 -0.260081 -0.395213 -0.262402 -0.452734 -0.370918 -0.265256 -0.332843 -0.361511 -0.333775 -0.603686 -0.303047 -0.468047 -0.0401695 0.0639137 0.0987481 0.0581273 -0.111371 0.0656217 -0.281257 -0.0640054 -0.124004 -0.143931 -0.0810946 -0.245697 -0.0594051 -0.0130456 -0.201052 -0.0727854 -0.122579 -0.196852 -0.0991918 -0.229837 -0.145473 -0.242216 0.148665 0.0684529 0.099363 0.105682 0.068393 -0.194118 -0.0367582 -0.0691848 -0.0278801 0.00563289 -0.176248 0.0790828 -0.0868944 -0.201548 -0.00882022 -0.143204 -0.153835 -0.0332713 -0.177469 -0.105059 -0.205552 0.0704901 0.151027 -0.00138473 0.231904 -0.180073 0.0630174 -0.0522578 0.128215 0.117404 -0.170057 -0.0411347 -0.0101 -0.12859 0.00342252 0.0870975 -0.0759468 0.0664796 -0.0869081 -0.0476955 -0.141334 0.166529 -0.0631579 0.11515 -0.206588 -0.00288303 -0.286415 -0.0117551 0.0354963 -0.126896 0.0173981 -0.0401787 -0.153209 -0.0113587 -0.155216 -0.115842 0.0291883 -0.171022 -0.0854053 -0.218436 -0.0917409 0.0597007 -0.194761 0.0243084 -0.178031 -0.059624 -0.0016459 -0.463802 -0.0429402 -0.125875 -0.220113 0.00112004 -0.180968 -0.17341 -0.0377304 -0.218099 -0.127264 -0.304328 0.134271 -0.289505 -0.00285043 -0.143185 -0.00397941 0.0782982 -0.171874 -0.0182799 -0.0507718 -0.25017 -0.000193625 -0.194839 -0.14727 0.00282819 -0.143405 -0.0895621 -0.203719 -0.280459 -0.185044 -0.170333 -0.150261 -0.0849881 -0.370098 -0.139247 -0.247433 -0.189918 -0.0698872 -0.333294 -0.175768 -0.0978136 -0.23698 -0.123065 -0.224682 0.203437 0.137502 0.192252 0.230527 0.041885 0.189893 0.171748 0.162485 0.147451 0.14247 0.0900947 0.167336 0.0239764 0.0905291 0.0284334 -0.115362 -0.0249205 0.00716989 -0.236896 -0.0121856 -0.107067 -0.104361 -0.0438104 -0.112763 -0.177938 0.0228634 -0.377131 -0.12598 -0.265951 0.0774975 0.125019 -0.0819675 0.13641 0.0640179 -0.00876927 0.0531946 -0.0334819 -0.0174165 0.0822709 -0.0750466 -0.0112996 -0.0821196 0.0284034 -0.171571 -0.0169495 -0.0487959 -0.112602 -0.0454373 -0.138753 -0.126278 0.034856 -0.17054 -0.0978608 -0.192519 -0.166861 -0.0945613 -0.0985562 -0.138638 -0.0626254 -0.194187 -0.171386 -0.0588032 -0.232574 -0.114575 -0.19856 0.148741 0.223207 0.0343332 0.111649 0.0367261 0.0138331 0.138196 -0.0106893 0.0414057 -0.0770643 -0.0744376 -0.135377 -0.0513092 -0.165352 -0.15837 -0.0053797 -0.140097 -0.100989 -0.188198 -0.0232392 0.0355291 -0.0823689 -0.0984796 0.00761663 -0.127959 -0.0353409 -0.143494 0.107376 -0.0308782 -0.070703 0.0715386 -0.0929389 -0.013202 -0.130746 -0.0597455 -0.121063 0.0398732 -0.219179 -0.290425 -0.322575 0.00304262 0.1263 -0.0256865 0.0163561 -0.0678205 0.130644 0.0144069 0.126514 -0.0489564 -0.16848 -0.082097 -0.178647 0.101628 0.0233341 -0.125503
label 1 2 3 4 5 6 7 8 9 10 11 12 13 14 15 16 17 18 19 20 21 22 23 24 25 26 27 28 29 30 31 32 33 34
nr_sv 173 132 98 89 62 171 93 140 176 111 93 107 77 61 69 75 68 57 39 63 47 56 62 48 44 61 57 37 35 21 34 30 33 31
SV
0 0.7214154917728286 0.02369194318823698 0 0 0 0 0 0 0 0 0.1899420408031599 0 0 0 0 0 0 0 0 0 0 0 0 0 0.3489715949131859 0 0 0 0 0 0 0.5683821123121455 1:2.75 2:3 3:2.5 4:3 5:2.25 6:2 7:2 8:2 9:3.25 10:2.5 13:2.5 14:3 18:1.75 19:2.5 22:2.5 23:2.5 27:1.75 28:3.75 29:1.75 30:1.75 31:3 32:2.5 33:2 34:2 35:2 36:2.5 37:-0.25 41:-0.75 45:0.75 50:1 54:-0.25 59:0.5 63:-0.25 64:0.25 65:-0.25 66:0.25 68:-0.5 73:0.25 75:-0.5 77:-1.25 81:0.25 82:2.5 85:-2.5 86:1 90:-1.75 91:2.5 94:-2.5 95:1.5 99:-1.75 100:-0.25 101:0.25 102:-0.25 103:-0.5 104:-1.5 108:-0.5 109:0.25 113:-0.25 117:-0.25 122:-1 126:0.25 131:-0.5 135:0.25 136:0.25 137:0.25 138:0.25 139:0.5 140:-0.5 144:-1 
0 0 0 0 0 0 0 0 0 0 0 0 0 0 0 0.1391755751397727 0 0 0 0 0 0 0 0 0 0 0 0 0 0 0 0 0 1:3.25 2:2 3:2 4:2.5 5:2.5 6:3.5 7:4 8:4 9:1.75 10:4.75 13:2.5 14:2 18:2 19:5 22:4.5 23:2 27:2 28:2.75 29:2 30:2 31:2.75 32:2 33:2 34:3 35:3.5 36:1.75 37:0.25 41:-0.5 45:0.25 46:-0.25 64:0.25 67:-0.25 71:-0.5 72:0.25 73:-0.75 76:-0.5 77:-1.5 78:-0.5 81:1.25 82:0.25 85:-2.5 86:2 90:-2 94:-0.5 95:2 99:-2 100:-0.25 103:0.25 104:-1 106:-1 107:0.5 108:1.25 109:0.25 113:-0.5 117:-0.25 118:0.25 136:0.25 139:0.25 140:-1 143:0.5 144:-0.25 
0 0 0 0 0 0 0 0 0 0 0 0 0 0 0 0 0 0 0 0 0 0 0 0.3117334022564599 0 0 0 0 0 0 0 0 0 1:2.5 2:2.25 3:2.5 4:2.75 5:1.75 6:3 7:3 8:3 9:1.5 10:3.75 13:2.5 14:2.25 18:2.25 19:3.75 22:2.5 23:2.5 27:2 28:2.25 29:2.25 30:2 31:3 32:2.5 33:1.75 34:2 35:2 36:2.5 38:0.25 40:0.25 41:-0.75 45:0.5 46:1.25 50:-0.25 54:0.25 55:1.25 59:0.5 63:-0.5 64:0.25 65:0.25 69:-0.25 73:-0.5 74:0.25 75:-0.5 76:0.25 77:-1.25 81:1 82:1.25 85:-2.5 86:0.75 90:-0.75 91:1.25 94:-2.5 95:1.5 99:-1 100:-0.75 101:0.25 102:-1 104:-1 105:-0.25 108:1 110:0.25 112:-0.25 113:0.25 118:-1.25 122:-0.75 126:-0.75 127:-1.25 131:-0.5 135:-0.5 136:0.25 137:0.25 140:-0.5 141:-0.25 144:-0.5 
0 0 0 0 0 0 0 0 0 0 0 0 2.311028436036965 0 0 0 0 0 0 0 0 0 0 0 0 0 0 0 0 0 0 0 0 1:3 2:3.5 3:3.25 4:3.25 5:2 6:3.75 7:4 8:4 9:2.25 10:4.75 11:1.25 13:3.75 14:3.25 15:1 16:1 17:1 18:3 19:5 20:1.25 22:3.75 23:3 24:0.25 27:3 28:3.25 29:3.25 30:3 31:2.75 32:2.5 33:3 34:3 35:3 36:2 37:-0.5 38:0.5 39:-0.25 40:0.25 41:-0.5 42:0.25 45:0.25 46:0.25 47:1.25 49:-1.25 50:0.75 54:-0.5 56:1.25 58:-1.25 59:1 60:0.25 63:-1 64:-0.25 65:0.25 67:0.25 73:-1 74:0.5 75:-0.75 76:0.25 77:-1 78:-0.25 81:1.75 82:-0.25 83:1.25 85:-1.25 86:0.75 90:-0.5 92:1.25 94:-1.25 95:0.5 96:0.25 99:-1 100:-0.25 101:0.25 103:0.25 104:-1.5 108:1 109:0.5 110:0.5 111:0.75 112:0.25 113:0.5 114:0.25 117:-0.25 118:0.25 119:1.25 121:-1.25 122:-0.75 126:-1 128:1.25 130:-1.25 131:-0.5 132:0.25 135:-1 136:0.25 137:0.25 139:0.75 
0 0 0.1111912235073365 0 0.6162089902107771 0 0 0.8341414557289182 0 0 0.2730578974177327 0 0 0 0.2651176527056674 0.844854796063797 0 0 0 0 0.03480379462390106 0 0.3289633937707931 0 0 0.3047727060245073 0 0 0 0 0 0.04604466918791606 0.02508937451784255 1:3.25 2:1.25 3:1.75 4:2 5:2.75 6:1.75 7:2 8:2 9:2.25 10:2.25 13:2.5 14:1.25 18:1.75 19:2.5 22:3.5 23:1.75 27:1.5 28:2.75 29:1.75 30:1.5 31:1.5 32:1.5 33:2 34:2.5 35:2.5 36:1 37:0.25 38:0.25 39:-0.25 41:0.25 42:-0.25 45:0.75 46:0.25 50:0.75 54:-0.25 59:0.25 64:-0.25 65:0.25 66:-0.5 68:-0.5 70:0.5 71:-0.5 73:-0.25 74:0.25 75:-0.25 76:2 77:-0.75 78:0.25 81:1.25 82:2.25 85:2.5 86:1.25 90:-1.75 91:2.5 94:1.5 95:1.75 99:-1 100:0.25 101:0.25 102:-0.5 103:1.5 104:-0.5 106:-0.5 107:0.5 108:1 109:-0.25 110:0.25 111:-0.25 113:-0.25 114:0.25 117:-0.25 118:0.25 122:0.75 126:0.25 131:0.25 135:-0.5 136:0.25 137:-0.25 138:-0.5 140:-0.5 142:-0.5 143:-0.5 
0 0.4422680688000092 0 0 0 0 0 0 0.1161856943714451 0 0 1.290139297022288 0 0.4401205721986382 0 0 0 0 0 0.1627480911248219 0 0 0 2.143384579841688 0 0.4945058017920321 0.2883531334310556 0 0 0 0 0 0.08477506474789226 1:2.5 2:2 3:2.75 4:1.25 5:2 6:2 7:2 8:2 9:2 10:2.5 13:2.5 14:2 18:2 19:2.5 22:2.5 23:2.75 27:2.75 28:2.5 29:2 30:2.75 31:1 32:1 33:1.75 34:1.75 35:2.25 36:0.5 39:-0.25 40:-0.25 41:-1 45:1 54:-0.5 59:0.25 63:-0.25 65:0.5 66:-0.25 69:-0.25 70:0.25 71:0.25 72:0.5 73:-0.5 75:-0.25 76:1.25 77:-1 81:1 82:2.5 85:2.5 86:1.5 90:-1.5 91:2.5 94:2 95:0.75 99:-0.75 100:-0.5 102:-0.25 103:1 104:-1 105:-0.25 106:0.25 107:-0.25 108:0.5 111:-0.25 112:-0.25 122:-0.5 130:0.5 131:-0.75 135:-0.75 137:0.5 138:-0.25 141:-0.25 142:-0.25 143:-0.25 144:0.5 
0 0 0 0 0 0 0 0 0 0 0 0 0 0 0.3228562812213896 0 0 0 0 0 0 0 1.020793646856167 0 0.4586225167558699 0 0 0 0 0 0 0 0 1:1.75 2:1.75 3:2.25 4:2.5 5:1 6:3 7:3 8:3 9:1.5 10:3.75 13:3.75 14:1.75 18:1.25 19:3.75 22:1.25 23:2.25 27:1.5 28:2.25 29:1.25 30:1.5 31:1.5 32:2 33:2.75 34:2 35:1 36:1.25 37:0.25 38:-0.25 39:-0.25 45:0.5 46:1.25 49:-1.25 50:-0.25 54:-0.75 55:1.25 58:-1.25 59:0.25 63:-1 64:0.75 65:0.25 66:-0.5 68:-0.5 69:-0.25 70:0.5 72:-0.25 73:-0.75 74:-0.25 75:-0.25 76:0.5 77:-0.5 82:1.25 85:-1.25 86:1.75 90:-1.25 91:1.25 94:0.75 95:1.75 99:-1 100:-0.75 101:0.25 102:-0.5 103:1.5 104:-0.5 105:-0.25 106:1 108:-0.25 109:-0.25 110:-0.25 111:0.25 113:-0.5 118:-1.25 121:-1.25 122:-0.25 126:0.75 127:-1.25 130:-0.75 131:-0.25 135:0.5 136:-0.25 137:0.25 138:0.5 141:-0.25 142:-0.5 144:-0.75 
0 0 0 0 0 0.01543839629785904 0 0.1673567193606149 0 0.052060910696671 0 0 0 0 0 0 0 0 0.2078795862891548 0 0 0.2559808050412983 0 0 0 0 0 0 0 0.07604371892562498 0.04664862465929191 0 0 1:1.75 2:2.25 3:1.25 4:3 5:0.75 6:4 7:4 8:4 9:2.25 10:5 13:2.5 14:2.25 18:1.25 19:5 22:3 23:1.25 27:1.25 28:3.25 29:1.25 30:1.25 31:3.25 32:2 33:2.5 34:2 35:3 36:2.25 37:0.25 38:0.25 39:0.25 41:-0.25 45:0.25 50:-0.25 54:-0.75 59:-0.75 63:-0.75 64:-0.25 65:0.25 66:-0.25 67:0.25 68:-1 69:0.5 72:0.25 73:-0.75 74:0.25 75:0.25 76:1 77:-0.75 81:1.75 85:-2.5 86:0.25 90:-1.25 94:-2 95:1.25 99:-1.25 100:-0.25 101:0.25 102:-0.25 103:0.25 104:-1 105:0.5 108:1.75 109:-0.25 110:0.25 111:0.25 113:0.25 117:-0.25 122:-1.25 126:0.75 131:-0.75 135:0.75 136:0.25 137:0.25 138:0.25 139:0.25 141:0.5 143:1 144:-0.25 
0 0 0 0 0 0 0 0.1740632999979438 0 0 0 0 1.642231608655983 0 0 0 0 0 0 0 0 0 0 0 0 0 0 0 0 0 0 0 0 1:1.5 2:2.5 3:2.5 4:3 5:1 6:3 7:3 8:4 9:2.75 10:4 13:2.5 14:2.5 18:1.75 19:4.5 22:2.5 23:2.5 27:2.5 28:3.75 29:1.75 30:2.5 31:3 32:2.5 33:2 34:2 35:2 36:2.5 43:-1 45:0.25 50:0.5 54:-0.25 59:0.5 63:-0.5 64:0.25 65:-0.25 68:-0.5 72:0.5 73:-1.5 74:0.5 75:-0.5 77:-0.5 81:1.25 82:-1 85:-2.5 86:1.5 90:-1.25 91:0.5 94:-2.5 95:1.5 99:-1.5 100:-0.75 101:0.25 102:-0.5 104:-1.5 108:1.5 113:-0.5 114:-1 117:-0.25 122:-0.5 126:-0.25 131:-0.5 135:-0.5 136:-0.25 137:0.25 140:-0.5 144:-0.5 
0 0 0 0 0 0 0 0.186206915136016 0 0 0 0 0 0 0 0 0 0 0 0 0 0 0 0 0 0 0 0 0 0 0 0 0 1:2 2:2.25 3:2 4:1.75 5:1.5 6:2.75 7:2.75 8:3 9:2 10:3.5 13:3.75 14:2.25 18:1.75 19:3.75 22:4.5 23:2 27:2 28:2.75 29:1.75 30:2 31:3 32:1 33:3 34:3 35:4 36:2 37:-0.5 38:0.25 40:0.75 41:-0.5 42:-0.25 43:-0.25 45:0.5 46:1 49:1.25 50:0.25 54:-0.25 55:1.25 64:-0.25 65:-0.25 67:0.5 68:-0.5 70:-0.5 72:0.5 73:-0.5 74:-0.25 76:0.75 77:-1 78:-0.25 79:-0.25 81:0.5 82:1 85:1.25 86:0.75 90:-1.75 91:1.25 94:0.5 95:0.5 99:-2 100:-0.25 101:-0.25 103:0.5 104:-1 108:1.5 110:-0.25 112:-0.25 114:-0.25 115:-0.25 117:-1 118:-1.5 121:-1.25 122:-1.25 126:0.25 127:-1.25 131:-1.5 136:-1.25 137:-0.25 140:0.5 142:0.5 
0 0 0 0 0 0 0 0 0 0 0 0 3.548744256175512 0 0 0 0 0 0 0 0 0 0 0 0 0 0 0 0 0 0 0 0 1:3.25 2:3 3:2.5 4:3 5:2.5 6:3.5 7:3.25 8:2.5 9:3.5 10:4.75 13:5 14:3 18:2 19:2.75 22:5 23:2.5 27:2.5 28:4.5 29:2 30:2.5 31:2.75 32:2 33:4 34:4 35:4 36:1.75 37:0.25 41:-0.5 43:0.75 44:-0.5 45:0.5 46:-0.25 50:1 55:0.25 59:0.5 63:-0.5 65:-0.5 67:-0.25 68:-1 72:0.75 73:-0.75 75:0.5 76:1 77:-1.5 78:-0.5 79:0.75 80:-0.5 81:0.5 82:0.25 86:1 90:-1 91:1.75 95:0.5 99:-1.5 100:-0.5 101:0.5 102:-0.5 103:1.25 104:-1 108:0.75 109:0.25 113:-0.5 115:-0.75 116:0.5 117:-0.5 118:0.25 122:-1 126:-1 127:0.25 131:-1.5 135:-0.5 139:0.25 144:-0.25 
0 0 0 0 0.2833074596553099 0 0 0.8776433478917045 0.1485229149975401 0 0 0 0 0 0 0.4045740021943842 0 0 0 0 0 0 0 0 0 0.421779202250293 0 0 0 0 0 0 0 1:1.5 2:2.25 3:2.25 4:2.25 5:1 6:3 7:2 8:2 9:0.75 10:3.5 13:2.5 14:2.25 18:2.25 19:2.5 22:2.5 23:2.25 27:2 28:1.25 29:2.25 30:2 31:2.25 32:1.75 33:2 34:2 35:2 36:1.75 38:0.25 39:0.25 40:0.25 45:0.25 50:0.25 54:0.25 59:0.25 64:0.25 65:0.25 67:0.25 68:-0.75 72:-0.25 73:-1.5 74:-0.25 75:-0.25 76:0.25 77:-1 81:0.75 82:-1.5 85:-2.5 86:1.25 90:-0.25 91:-2.5 94:-2.5 95:1.25 99:-1.5 100:-1.25 101:0.25 103:-0.75 104:-1.25 108:1.25 110:-0.25 111:-0.25 112:0.25 114:-1 117:0.25 122:-0.75 126:-1.25 131:-0.75 135:-0.5 136:-0.25 137:0.25 139:0.25 140:0.25 144:-0.75 
0 0 0 0 0 0 0 0 0 0 0 0 7.37806443853135 0 0 0 0 0 0 0 0 0 0 0 0 0 0 0 0 0 0 0 0 1:3 2:2.25 3:2 4:1.75 5:2.25 6:3 7:3 8:3 9:2.25 10:3.75 13:3.75 14:2.25 18:2 19:3.75 22:3.75 23:2 27:2 28:3 29:2 30:2 31:2.25 32:1 33:3 34:3 35:3 36:1.5 37:0.5 38:0.25 40:-0.25 41:-0.25 45:0.25 46:1.25 49:-1.25 50:0.75 54:-0.5 55:1.25 58:-1.25 64:0.5 67:-0.25 72:0.5 74:0.75 76:0.75 77:-0.75 81:1.25 82:1.25 85:-1.25 86:1.25 90:-1 91:1.25 94:-1.25 95:1 99:-1 101:0.5 102:-0.5 103:0.25 104:-0.5 108:1 109:-0.5 110:-0.25 112:-0.25 113:-0.25 117:-0.75 118:-1.25 121:-1.25 122:-0.25 126:-0.5 127:-1.25 130:-1.25 131:-1 135:-1 136:-0.5 137:-0.5 138:-0.5 139:-0.25 140:-0.5 
0 0.00299825804214539 0 0 0 0 0 0 0 0 0.009856041201140753 0.07659172315300197 0.442125681077982 0 0.06856905984115869 0.245804004642434 0 0 0 0 0 0 0 0 0 0 0 0 0 0 0 0.03828808476971948 0 1:2.5 2:1.75 3:1.75 4:2.5 5:2 6:2 7:2 8:2 9:3 10:2.5 13:2.5 14:1.75 18:1.5 19:2.5 22:2.5 23:1.75 27:1.5 28:3.5 29:1.5 30:1.5 31:2 32:2 33:2 34:2 35:2 36:1.5 38:-0.25 39:0.25 41:-1 50:-0.25 54:-0.5 59:-0.25 63:-0.5 68:-1 72:0.5 73:-0.5 74:0.25 75:-0.25 76:0.5 77:-1 82:2.5 85:-2.5 86:0.75 90:-1.5 91:2.5 94:-2.5 95:0.75 99:-1.5 100:0.5 101:0.5 102:-0.5 104:-1 108:0.5 110:0.25 111:0.25 117:-1 122:-1.25 126:0.5 131:-1.25 135:0.5 144:-0.5 
0 0 0 0 0 0 0 0 0 0 1.164586828900397 0 3.024083657690081 0 0 0 0 0 0 0 0.6324592545878847 0 0 0 0 0 0 0 0 0 0 0 0 1:3.75 2:1.25 3:2.25 4:4 5:3 6:3 7:3 8:3 9:2.5 10:3.75 12:0.5 13:4 14:1.25 18:2 19:3.75 22:3.75 23:2 24:0.75 27:2.25 28:3.25 29:2 30:2.25 31:3 32:3 33:3.5 34:3 35:3 36:2.25 37:0.75 38:0.25 39:-0.75 41:-0.5 45:0.5 46:1.25 48:-0.5 49:-1 50:0.75 55:1.25 58:-1.25 59:0.5 60:0.25 63:-0.25 64:0.25 66:0.25 72:0.75 73:0.25 74:0.25 75:-1.25 76:1 81:1.5 82:1.25 84:-0.5 85:-1 86:1.25 90:-1 91:1.25 94:-1.25 95:1 96:0.25 99:-0.75 100:-0.25 101:0.5 102:-0.25 103:0.5 104:-1 105:0.5 108:1.25 109:-0.75 110:0.25 111:0.75 113:-0.5 117:-0.5 118:-1.25 120:0.5 121:-1 122:0.75 127:-1.25 130:-1.25 131:0.5 132:-0.25 135:-0.25 136:-0.25 137:0.5 138:-0.25 139:-0.5 144:-0.25 
0 0 0 0 0 0 0 0 0 0 0 0 0 0 0 0 0 0 0 0 0 0 0 0 0 0 0 0.5521878762455226 0 0 0 0 0 1:1.5 2:2.5 3:2.25 4:2.5 5:1 6:3.5 7:3.75 8:3 9:1 10:5 11:1 12:1.25 13:4.75 14:2.25 15:0.75 16:1 17:1 18:3 19:4.25 20:1.25 21:1.25 22:5 23:2 24:1 25:1 26:1 27:2.75 28:1.5 29:3.25 30:3 31:3.75 32:1.5 33:3.75 34:4 35:4 36:2.75 37:-0.5 39:-0.25 41:-0.5 42:-0.5 43:-0.25 45:0.5 47:1 48:-1.25 49:-0.25 50:-0.25 51:0.25 54:-0.5 55:0.25 56:1.25 57:-1.25 59:0.5 63:-0.75 64:-0.5 65:0.25 66:-0.5 67:0.25 68:-0.5 69:0.25 72:0.25 73:-1.5 74:1 75:-0.25 76:1 77:-0.5 78:-0.5 79:0.25 80:0.5 81:0.5 83:1 84:-1.25 85:-0.25 86:-0.75 87:-0.25 90:-0.5 91:-0.75 92:1.25 93:-1.25 99:-0.75 100:-1.5 101:0.25 102:-0.5 103:0.75 104:-1 105:-0.25 108:1.25 109:0.5 110:0.5 111:0.25 112:0.5 114:-0.5 115:0.25 116:-0.5 119:1 120:1.25 121:-0.25 122:-1.25 123:0.25 126:-1 127:0.25 128:1.25 129:1.25 131:-0.5 135:-0.25 136:0.5 137:0.25 138:1 139:0.25 141:0.25 144:-0.25 
0.3364780474876131 0.007151712851913449 0.1879063597781572 0.1936965959020947 1.078886171201009 0 0.6213067996774475 0 0 0 0.3727183670092503 0.2367600745723416 0 0.2595128363298068 0 0.8069432169313449 0.7468646467293999 1.321069095719398 0.2785496873428225 0.5357597122420827 0.2362460310666775 0.4091235258060934 0 0.9368323642379212 0 0.04372872911569398 0.04084330237886846 3.472047666273155 0.3063697223050393 0.2750374100163527 0.2793786041797084 0.3329563296115738 0.1037976985672518 1:2.25 2:0.5 3:0.5 4:3 5:1.75 6:2 7:2 8:2 9:1.75 10:2.5 13:2.5 14:0.5 18:1.75 19:2.5 22:2.5 23:0.5 27:2 28:2.25 29:1.75 30:2 31:3 32:2.5 33:2 34:2 35:2 36:2.5 37:0.25 41:-0.25 45:0.25 50:0.5 54:0.25 59:0.5 64:0.25 65:-0.25 68:-0.5 72:-0.5 73:0.25 74:0.5 75:-0.5 76:-1 77:0.25 81:-0.25 82:2.5 85:-2.5 86:0.5 90:-1.75 91:2.5 94:-2.5 95:0.5 99:-2 100:0.25 101:0.25 104:0.5 108:0.5 109:0.25 113:0.25 117:0.25 122:0.5 126:-0.25 131:0.5 136:0.25 137:0.25 140:-0.5 144:-0.5 
0 0 0 0 0 0 0 0 0 0 0 0 8 0 0 0 0 0 0 0 0 0 0 0 0 0 0 0 0 0 0 0 0 1:2.5 2:2.5 3:2.75 4:2.5 5:1.75 6:2.75 7:3 8:2.75 9:3 10:3.5 13:3.5 14:2.5 18:1.25 19:3.5 22:3.75 23:2.75 27:1.25 28:3.75 29:1.25 30:1.25 31:3.75 32:1.75 33:2.75 34:3 35:3 36:3 39:-0.25 41:-0.75 42:0.25 44:0.25 45:0.5 46:1 49:-1 50:0.5 54:-0.75 55:1 58:-1.25 59:0.25 63:-0.75 64:0.75 65:0.25 66:-0.25 67:-0.75 68:-0.75 69:0.25 72:0.5 73:-0.5 74:0.5 75:0.25 76:0.5 77:-1.25 78:-0.25 80:-0.25 82:1.5 85:-1.5 90:-1.25 91:1.5 94:-1.25 95:0.25 99:-1.25 100:0.25 101:0.25 102:-0.25 103:-0.25 104:-1.25 105:-0.25 111:0.25 113:0.25 114:0.25 116:0.25 117:-0.5 118:-1 121:-1 122:-1 126:0.75 127:-1 130:-1.25 131:-1.25 135:0.75 136:-0.75 137:0.25 138:0.25 139:-0.75 140:0.25 141:0.25 144:-0.5 
0 0 0.1662507197761992 0 0 0 0.4292823892947842 0 0.5810123109544554 0 0 0 0 0 0 0 0 0 0 0 0 0 0 0 0 0.1702063963480147 0 0 0 0 0 0 0 1:3.25 2:2 3:2.25 4:2.75 5:2.5 6:2.25 7:1.75 8:0.5 9:0.5 10:2.5 13:4.75 14:2 18:1.75 19:0.75 22:5 23:2.25 27:2 28:1 29:1.75 30:2 31:3 32:1.75 33:3.75 34:4 35:4 36:2 37:0.25 39:-0.25 40:-0.25 41:-0.5 42:0.25 43:0.25 44:-0.5 45:0.5 49:-0.25 54:-0.25 55:0.25 59:0.75 65:-0.25 68:-0.75 69:0.25 72:1 73:-0.75 75:-0.25 76:0.75 77:-1.5 78:0.25 79:0.25 80:-0.5 81:-0.5 82:2.5 85:0.25 86:2 90:-1.75 91:0.75 95:1.25 99:-2 101:-0.25 103:1 104:-0.75 105:0.25 108:1 109:0.25 111:0.25 112:-0.25 113:-0.5 114:0.25 115:-0.25 116:0.5 117:-0.5 121:0.25 126:0.25 127:0.25 131:-0.25 137:-0.25 140:-0.25 141:-0.25 
0.3455709712888974 0.2055731813864957 0.36535466106001 0.7639881507697741 0 0.0985866072039986 0.04151860218309157 0.9970922170422312 0 0.4561234070942865 0.8339185765408069 0 1.463970939998514 0.3436580598614697 0 0 0 0.07923239329063554 0.03929751306793668 0.1115939791869092 0.04813093349412628 0.1923608874582664 0 0.659746655350557 0.4923107735205254 0 0 0 0 0.1116036704026174 0.06327619728326515 0 0.2543796563660894 1:0.5 2:2.75 3:2 4:3.25 5:0.25 6:1.5 7:2.5 8:2.75 9:2.5 10:2.25 11:1 13:3.25 14:2.25 15:1.25 16:0.25 18:1.75 19:3.5 21:0.75 22:2.25 23:2 26:1 27:2.75 28:3.25 29:1.75 30:3 31:2 32:2.5 33:2.75 34:2.5 35:1.5 36:1.5 37:-0.5 38:-0.25 40:-0.25 41:-0.25 44:-0.25 46:-0.25 47:1 49:-0.25 50:0.25 51:0.25 52:0.25 54:0.25 55:-1 57:-0.75 58:0.25 63:0.25 64:0.25 65:0.25 66:-0.5 67:-0.5 68:0.5 69:-0.25 70:0.5 71:-0.5 73:-0.5 74:0.75 76:0.25 77:-0.25 78:-0.5 79:-0.5 80:0.25 82:-2.25 83:1 85:0.25 86:-0.25 87:0.25 88:0.25 90:-1.75 91:-1 93:-0.75 94:1.75 95:2 99:-0.25 100:-0.75 101:0.25 102:-0.5 104:-0.5 105:0.25 108:0.5 109:0.5 110:-0.25 112:-0.25 113:0.25 116:0.25 117:-0.5 118:0.25 119:1 121:-1.25 122:-0.25 123:0.25 124:0.25 126:-0.25 127:-1.5 129:0.75 130:-0.25 135:-0.75 136:-0.75 137:-0.25 139:1.5 140:-0.5 141:0.25 
0 0 0 0 0 0 0 0 0 0 0 0 0.06059729092734142 0 0 0 0 0 0 0 0 0 0 0 0 0 0 0 0 0 0 0 0 1:2 2:2.25 3:1.75 4:3 5:1.25 6:3 7:3 8:4 9:2.5 10:3.75 13:4.5 14:2.25 18:2.5 19:4.5 22:3.75 23:1.75 27:2 28:3.5 29:2.5 30:2 31:2 32:2.25 33:3.25 34:3.75 35:2.75 36:1.25 37:-1 38:0.25 39:-0.25 40:-0.5 41:-0.75 43:-0.5 45:1 46:-1.25 49:-0.5 50:-0.25 54:-0.5 58:0.25 59:0.25 63:0.5 64:-0.5 67:0.5 68:0.25 69:-0.25 70:-0.25 71:-0.25 72:0.25 73:-1 74:0.25 75:-0.25 77:-0.75 81:1 82:-1.25 85:-0.5 86:1.25 90:-1 91:-0.5 94:1.25 95:1.75 99:-0.5 100:-0.5 103:1 104:-1.25 105:-0.25 106:0.25 107:-0.25 108:1.25 110:0.25 111:-0.25 112:-0.5 113:0.25 115:0.5 117:-0.5 118:-1.25 121:-0.5 122:-0.25 126:-1 130:-0.25 131:0.25 135:-1 136:-0.5 137:-0.5 139:-0.5 140:-0.25 141:0.25 142:0.25 143:-0.25 144:0.25 
0 0 0 0.1739142550677448 0 0.765053515918074 0 0 0 0.3438776476287127 0 0 0 0 1.040892966751454 0.8842253971618539 0.331491090157031 0 0.3133123445696933 0.1486430131672069 0.2843973811845869 0.2174550274038356 0.5604123297885634 0 0.1649833124954307 0 0 0 0 0.05260222999910029 0 0 0 1:0.75 2:2 3:1.25 4:2.5 5:0.25 6:2.25 7:3 8:2.25 9:2.25 10:3.25 11:0.25 13:2.5 14:1.75 15:0.5 18:1.25 19:3.25 22:3.25 23:1.25 26:0.25 27:1 28:2.75 29:1.25 30:1.25 31:0.5 32:2 33:1.75 34:2.75 35:2.25 37:-0.25 38:0.5 39:-0.25 40:0.5 41:-0.25 42:-0.25 44:0.25 45:0.75 46:-0.75 47:0.25 49:0.5 50:0.25 54:0.75 55:-0.75 58:0.75 59:0.75 62:-0.25 63:0.5 64:-0.25 65:0.25 66:-0.25 69:0.25 70:0.25 71:0.25 73:-0.75 74:0.5 75:-0.25 76:-1 77:-0.25 78:-0.25 80:0.25 81:1.25 82:-1.75 83:0.25 85:-1 86:0.25 87:0.5 90:-1.25 91:0.25 94:1.75 95:1.25 98:-0.25 100:-0.25 101:-0.25 102:-0.25 103:0.5 105:0.25 106:-0.25 107:0.25 109:0.25 111:0.25 113:0.25 114:0.25 116:0.25 117:-0.25 118:-0.75 119:0.25 121:-1 122:-0.25 126:-0.75 127:-0.75 130:-0.75 131:0.75 134:0.25 135:-0.5 136:-0.25 137:-0.25 138:0.25 141:-0.25 142:0.25 143:0.25 
0.2745183257760138 0 0.4744588430475268 0 1.386331043723471 0.6440713126833918 0 0.4093654868120035 0 0 0 0.1376091353895922 0 0.02333586773685193 0 0.08630501324234884 0 0 0 0 0 0 0 0 0 1.801719824427753 0.08545893339626273 0 0 0 0 0 0.08779056868266223 1:1 2:2 3:2 4:2.75 5:0.5 6:2.5 7:2 8:2 9:2.75 10:3.5 13:2 14:1.75 15:0.25 18:1.75 19:2 22:3.25 23:2 26:0.25 27:1.75 28:3.25 29:1.75 30:2 31:1 32:2.5 33:1.5 34:1.75 35:2.75 36:0.5 38:0.5 40:-0.25 41:-0.5 45:-0.25 46:-1 50:0.25 51:0.25 54:-0.25 55:-0.5 58:1.25 62:-0.25 63:-0.25 64:-0.25 65:-0.25 68:-0.5 70:-0.25 71:0.25 72:0.5 73:-1 74:0.5 76:-0.75 77:-0.5 78:-0.5 79:1 81:0.25 82:-1.5 85:-2 86:0.25 87:0.25 90:-1.75 91:2 94:0.75 95:2 98:-0.25 99:-0.25 100:0.25 101:-0.25 103:1 104:0.5 105:-0.5 106:-0.25 107:0.25 108:0.5 112:0.25 113:0.5 117:-0.75 118:-1 122:-0.25 123:0.25 126:0.25 127:-0.5 130:-1.25 134:0.25 135:-1.25 136:-0.25 137:-0.25 140:-0.5 142:0.75 143:-0.25 144:0.5 
0.08991188399554269 0 0 0 0 0 0 0 0 0 0 0 0 0 0 0 0 0 0 0 0 0 0 0 0 0 0 0 0 0 0 0 0 1:3 2:3.75 3:3.5 4:3 5:2 6:4 7:3.5 8:3.75 9:2 10:4.5 11:1.75 13:5 14:3.5 15:1.25 16:1.75 17:1.5 18:3.5 19:4.75 20:2 22:5 23:3.5 27:3 28:3 29:4 30:3 31:3.5 32:2 33:4 34:4 35:4 36:2.5 37:-0.5 38:-0.75 39:0.5 40:0.5 41:-0.5 44:0.25 45:0.5 47:0.75 51:-0.25 52:-0.25 55:-0.25 56:0.5 59:0.5 63:-0.5 64:-0.5 65:0.5 66:-0.5 67:0.5 68:-0.5 72:0.5 73:-1 74:-0.25 76:1 77:-1 79:-0.5 80:-0.25 81:1 83:1.75 86:-0.5 87:0.25 88:-0.25 89:-0.5 91:-0.25 92:2 99:-0.5 100:-1 101:1 103:1 104:-1 108:1 109:-0.5 110:-0.75 112:0.5 113:-0.5 116:0.25 117:-0.5 118:0.5 119:0.75 123:-0.25 124:-0.25 126:-0.5 127:-0.25 128:0.5 135:-1 136:-0.5 137:-0.5 138:0.5 140:0.5 
0 0 0 0 0 0 0 0.1562107282507646 0 0 0 0 0 0 0 0 0 0 0 0 0 0 0 0 0 0 0 0 0 0 0 0 0 1:1.5 2:3 3:3.25 4:4 5:1 6:2.75 7:3.25 8:3.75 9:2 10:3.75 11:1.25 12:0.5 13:4.75 14:2.5 15:1.25 16:1 17:0.75 18:3.5 19:4.5 20:1 21:1.25 22:3.75 23:3.25 25:1 26:1.25 27:3 28:3 29:3.75 30:3.5 31:1.75 32:3 33:3.75 34:3.75 35:2.75 36:1 39:-0.25 40:0.5 42:-0.25 43:-0.25 44:-0.25 45:1 46:-1.25 47:1.25 48:-0.5 49:-0.25 51:0.25 53:-0.25 54:-0.5 56:1 57:-1.25 58:0.75 59:0.75 62:-0.25 63:0.5 65:0.25 66:-0.5 67:0.75 68:-0.5 69:-0.25 70:0.25 71:0.25 72:0.5 73:-1.5 75:-0.25 76:0.5 77:-1 78:-0.25 79:-0.25 80:0.25 81:1 82:-1.25 83:1.25 84:-0.5 85:-0.25 86:0.5 87:0.25 89:0.25 90:-0.5 92:1 93:-1.25 94:1.25 95:0.75 98:-0.25 100:-1 101:0.75 102:-0.5 103:1.25 104:-1 105:0.25 106:0.25 107:-0.25 108:0.5 111:0.25 114:-0.25 115:0.25 116:0.25 118:-1.25 119:1.25 120:0.5 121:-0.25 122:-1 123:0.25 125:0.25 126:-0.5 127:-0.5 128:1 129:1.25 130:-0.75 131:-0.75 134:0.25 135:-0.5 137:0.25 138:-0.5 139:0.25 140:-0.5 141:0.25 142:-0.25 143:0.25 
0.4071757252280717 0.6452476894125032 0.2885678263817338 0.0742528105544463 0.31072614666409 0 0.1610647903079367 0.2880001022722729 0.1530113186397096 0 0.8534878953106123 0 1.973934380602891 0.335970741841264 0.226111436421505 0 0.8299703739076522 1.4622247132922 0.2158724198091921 0.3211590996712053 0.1407936143982607 0.2825150836613384 0.1254776686883844 0 0 0.1554246070352764 0.06696712339817594 2.706657480148066 0.4436069824177322 0.4039567995742965 0.2425291070888894 0.2813308575263994 0.3224400735987614 1:1.5 2:1 3:0.25 4:3 5:1 6:2 7:1.75 8:1.5 9:3 10:2.5 13:3.25 14:1 18:1.75 19:1.75 22:3.25 23:0.25 27:2 28:3.5 29:1.75 30:2 31:0.75 32:2.75 33:2.25 34:2.75 35:2.25 36:0.25 38:0.5 39:-0.25 40:0.5 41:0.5 43:-0.25 49:0.75 50:0.5 54:-0.25 55:-0.25 58:0.75 59:0.25 65:-0.25 67:0.25 68:0.25 69:-0.25 70:0.25 71:0.25 72:0.25 73:-1 74:0.5 75:-0.25 76:-0.5 77:-0.5 79:0.25 80:-0.5 81:0.5 85:1.25 86:1 90:-1.75 91:0.75 94:1.75 95:0.25 99:-0.5 101:-0.25 103:0.75 104:0.75 105:-0.75 106:-0.25 107:0.25 108:0.25 109:-0.5 111:0.25 112:-1 115:0.25 117:-0.5 118:-2.5 121:-1.25 122:0.5 126:0.25 127:-1.25 130:-0.75 131:0.25 135:-0.5 136:-0.5 137:-0.25 139:0.25 140:-0.75 141:-0.25 142:0.25 143:0.25 144:0.25 
0 0 0 0 0 0 0 0 0 0 0 0 0 0 0 0 0 0 0 0 0 0 0 1.055500086319396 0 0 0 0 0 0 0 0 0 1:3 2:3 3:3.25 4:3.25 5:2.25 6:3 7:3 8:3 9:2.25 10:3.75 12:0.25 13:3.75 14:3 18:2.5 19:3.75 21:0.5 22:4.25 23:3 24:0.25 25:0.5 26:0.5 27:2.75 28:3 29:2.5 30:3 31:2.75 32:2.25 33:3.25 34:3.25 35:3.5 36:1.75 39:-0.25 40:0.25 41:-0.75 45:0.25 46:1.25 48:-0.25 49:-1.25 50:1 54:-0.5 55:1.25 57:-0.5 58:-0.75 59:1 60:0.25 63:-0.75 64:0.5 65:-0.5 66:-0.5 67:0.25 68:-0.75 69:0.25 70:0.25 72:0.75 73:-1 75:-0.25 76:1.25 77:-0.75 81:1.25 82:1.25 84:-0.25 85:-0.75 86:1 90:-1 91:1.25 93:-0.5 94:-0.75 95:1 96:0.25 98:-0.5 99:-0.25 101:-0.5 102:-0.5 103:0.75 104:-0.75 105:0.25 106:-0.25 107:-0.5 108:1.25 111:0.25 112:0.25 113:0.25 117:-0.75 118:-1.25 120:0.25 121:-0.75 122:-1 126:-1 127:-1.25 129:0.5 130:-0.75 131:-1 132:0.25 133:-0.5 135:-0.75 136:-0.5 137:-0.5 139:0.25 140:0.25 141:0.25 142:-0.25 144:0.25 
0 0 0 0 0 0 0 0.2651327575987991 0 0 1.106090855888692 2.267158058656615 2.887178586963632 0.8459047029975461 0.2016899663148949 0.8700716747264079 0 0 0 0.3790148016893676 0 0 0.01217505809648184 2.068147556096213 0.05524896921245436 0 0 0 0 0 0 0 0 1:3.5 2:2.25 3:2.25 4:2 5:2.5 6:4 7:4 8:4 9:2 10:5 13:2.5 14:2.25 18:2 19:5 22:2.75 23:2.25 26:0.25 27:3 28:3 29:2 30:3.25 31:1.5 32:1.5 33:2 34:1.75 35:2.5 36:1 38:0.25 39:-0.25 41:-0.5 45:1 50:0.25 54:-0.5 58:-0.25 59:0.25 62:-0.25 63:-0.5 65:0.5 66:-0.75 68:-0.5 70:0.25 71:0.5 73:-1.5 74:0.25 75:-0.25 76:2 77:-0.5 81:1 85:2.5 86:1.75 90:-1.5 94:1.75 95:1.75 98:-0.25 99:-1 100:-1 102:-0.75 103:1.5 104:-0.5 106:0.25 107:-0.5 108:1 110:0.25 111:0.25 113:0.5 122:-0.25 130:-0.25 131:-0.25 134:0.25 135:-0.5 137:0.5 138:0.25 140:-0.5 142:-0.25 143:-0.5 
0 0 0 0 0.01789854224018574 0 0 0 0 0 0 0 0 0 0 0 0 0 0 0 0 0 0 0 0 0 0 0 0 0 0 0 0 1:3.5 2:3.25 3:3 4:1.75 5:2.75 6:2.5 7:2 8:2.5 9:2.25 10:2.75 12:0.75 13:3.75 14:3.25 18:3.25 19:2.5 21:1 22:4 23:2.75 24:1 25:0.25 26:1 27:2.5 28:3.25 29:3.25 30:2.75 31:1.75 32:1.25 33:2.75 34:3.25 35:3 36:1 37:-0.5 38:0.25 40:0.25 41:-0.75 42:-0.5 44:-0.5 45:1.25 46:-0.25 48:-0.75 49:1.25 50:0.75 54:-0.75 57:-1 58:1 59:0.25 61:-0.25 64:-0.75 65:0.25 66:0.25 67:0.75 68:-0.25 69:-0.25 70:-0.25 72:0.5 73:-1.5 74:0.25 75:-0.5 76:1.25 77:-0.25 78:1 80:-0.5 81:0.75 82:1.75 84:-0.75 85:1.25 86:0.75 90:-0.75 91:2.5 93:-1 94:1 95:-0.25 97:-0.25 99:-0.5 100:-0.25 101:0.25 102:-0.75 103:0.75 104:-1.25 105:-0.25 106:-0.25 108:1 109:-0.5 110:0.25 111:0.5 112:-0.25 113:0.25 116:0.5 117:-0.25 118:-0.25 120:0.75 121:-1.25 122:-0.75 126:-0.75 129:1 130:-1 131:-0.75 133:0.25 135:-1 136:-0.25 137:0.25 138:0.75 139:-0.25 140:0.25 141:-0.25 142:0.25 144:0.5 
0 0 0 0 0 0 0 0 0 0 0 0 5.907430253888381 0 0 0 0 0 0 0 0 0 0 0 0 0 0 0 0 0 0 0 0 1:4 2:2 3:2.25 4:3.5 5:3.25 6:3.5 7:4 8:4 9:2.5 10:4.75 13:5 14:2 18:2.5 19:5 22:5 23:2.25 27:2.5 28:3.5 29:2.5 30:2.5 31:3 32:2.5 33:4 34:4 35:4 36:2 37:-0.5 39:-0.25 40:0.5 41:-0.25 45:0.5 46:-0.25 50:0.5 54:-0.5 59:0.25 67:0.5 68:-1 72:0.5 73:-0.5 75:-0.25 76:0.5 77:-0.75 78:-0.5 81:1.5 82:0.25 86:1.5 90:-1.5 95:1.75 99:-1 100:-0.5 101:0.5 102:-0.5 103:1 104:-1 108:1 111:0.25 112:-0.5 113:-0.25 117:-0.5 118:0.25 126:-0.5 131:-0.25 135:-0.5 139:-0.5 140:-0.5 144:-0.5 
0 0 0 0 0 0 0 0 0 0 0 0 8 0 0 0 0 0 0 0 0 0 0 0 0 0 0 0 0 0 0 0 0 1:2.5 2:3.25 3:3.5 4:3 5:1.75 6:2.75 7:2.5 8:2.75 9:3.25 10:3.25 13:4.75 14:3.25 18:2 19:3.25 22:5 23:3.5 27:2.25 28:4 29:2 30:2.25 31:3 32:2 33:3.75 34:4 35:4 36:2 37:-1 38:-0.25 40:0.5 41:-0.25 42:-0.25 44:-0.25 45:0.25 46:-0.75 49:-0.25 50:0.25 55:0.25 59:0.5 63:-0.25 64:-0.5 66:0.25 67:1 68:-0.5 69:0.25 73:-1 74:0.75 75:-0.5 76:0.5 77:-1.25 78:0.25 80:-0.25 81:0.25 82:-0.75 85:-0.25 86:0.75 90:-1.5 91:-0.25 95:0.5 99:-1.75 100:-0.5 101:0.5 102:-0.25 103:1 104:-1.5 105:-0.25 108:1 109:-0.5 110:0.25 113:-0.25 114:0.25 115:0.5 116:-0.25 117:0.25 118:-1.75 121:-0.25 122:-0.25 126:-0.5 127:-1.25 131:-0.5 135:-0.25 136:-1 137:0.5 138:-0.25 141:0.25 
0 0.04571477848380603 1.091884440589882 0.07547537824874184 0 0 0.8080778830482941 0 0 0 0 0 0 0 0 0 0 2.572525237140697 0 0 0 0 0 0.644943436665438 0 0 0 0 0 0 0 0 0 1:1 2:1.75 3:2 4:3 5:0.75 6:0.75 7:1 8:1.75 9:1 10:1 13:3.75 14:1.75 18:1.75 19:1.5 22:3.75 23:2 27:2 28:1.75 29:1.75 30:2 31:2.5 32:2.25 33:3 34:3 35:3 36:1.75 38:0.25 40:-0.5 41:0.25 42:-0.25 44:-0.25 46:1 49:-1.25 50:-0.25 54:-0.25 55:1.5 58:-1.25 64:0.25 65:-0.25 67:-0.5 68:-0.25 72:0.75 73:-1 74:-0.25 77:-0.25 78:0.25 80:-0.75 81:0.5 82:-1 85:-1.25 86:1.25 90:-1.25 91:-1 94:-1.25 95:1.5 99:-1 100:-0.75 101:0.25 103:0.5 104:-1.25 108:0.75 110:0.25 112:-0.5 113:-0.75 114:0.25 116:0.25 117:-0.5 118:-1 121:-1.25 122:-0.75 126:-0.25 127:-1 130:-1.25 131:-0.5 135:-1 136:-0.25 137:0.25 139:-0.5 140:-0.75 144:-0.25 
0 0 0 0 0 0 0 0 0 0 0 0.2852837980824385 0 0 0 0 0 0 0 0 0 0 0 0 0 0 0 0 0 0 0 0 0 1:2.25 2:3 3:2.75 4:3.5 5:1.5 6:3.75 7:4 8:4 9:1.75 10:5 13:2.5 14:3 18:2.5 19:5 22:2.5 23:2.75 27:2.5 28:2.75 29:2.5 30:2.5 31:3 32:3 33:2 34:2 35:2 36:2.5 37:0.25 39:0.25 41:-0.5 42:-0.25 45:0.75 54:-0.5 59:1.25 63:-0.5 64:0.25 68:-1 72:0.5 73:-1.75 75:-0.25 76:-0.5 77:-0.5 78:-0.25 81:0.75 85:-2.5 90:-1.5 94:-2.5 95:0.75 99:-1.5 100:-1.25 101:0.5 102:-0.5 104:-1 108:1.5 109:0.25 111:0.25 113:-0.5 114:-0.25 117:-0.25 122:-1 126:-0.5 131:-0.75 135:-0.5 136:0.25 140:-1 144:-0.5 
0 0 0 0 0 0 0 0 0.1794599205707584 0 0 0 0 0 0 0 0 0 0 0 0 0 0 0 0 0 0 0 0 0 0 0 0 1:1.5 2:2.25 3:2 4:1.75 5:1.25 6:1.5 7:1 8:1 9:1 10:1.75 13:3.75 14:2.25 18:2.75 19:1.25 22:3.75 23:2 27:2.5 28:1.25 29:2.75 30:2.5 31:1.75 32:1.25 33:2.75 34:3 35:3 36:1 37:0.5 38:0.25 40:-0.75 41:-0.75 42:-0.5 45:0.5 46:1.25 49:-1.25 50:-0.25 54:-0.25 55:1.25 58:-1.25 63:-0.5 64:0.25 65:0.25 66:0.5 67:-0.25 68:-0.25 69:-0.25 73:-1.5 74:0.25 76:1.25 77:-0.25 78:0.5 81:0.5 82:-0.75 85:-1.25 86:1.25 90:-0.25 91:-1.25 94:-1.25 95:1.5 99:-1 100:-1.25 101:-0.25 103:0.75 104:-0.25 105:-0.25 108:0.5 109:-0.5 110:0.25 112:-0.25 113:-0.25 114:-0.5 118:-1.25 121:-1.25 122:-0.25 126:-1.25 127:-1.25 130:-1.25 131:-0.5 135:-1 136:-0.25 137:0.25 139:-0.25 140:-0.75 141:-0.25 144:-0.5 
0 0 0 0 0 0 0 0 0 0 0 0 0 0 0 0.2634328056708826 0 0 0 0 0 0 0 0 0 0 0 0 0 0 0 0 0 1:2.25 2:2.5 3:2.25 4:1.75 5:1.75 6:2.25 7:3 8:3 9:1.75 10:3.25 13:2.25 14:2.5 18:1.5 19:3.75 22:3.75 23:2.25 27:1.75 28:2.5 29:1.5 30:1.75 31:2.5 32:1.5 33:1 34:3 35:3 36:1.75 37:-0.75 39:-0.25 40:0.25 41:-0.25 42:-0.25 45:0.25 46:0.75 49:-1.25 50:0.5 54:0.5 55:1.25 58:-1.25 59:0.25 63:-0.25 64:-0.5 66:-0.25 68:-0.5 72:0.25 73:-0.75 75:-0.25 76:-0.25 77:-1.25 78:-0.25 81:1.25 82:1.25 85:-1.25 86:1 90:-1 91:1.25 94:-1.25 95:1.75 99:-0.25 100:-0.5 102:0.25 104:-1 108:1.25 109:-0.75 110:-0.5 111:0.25 112:0.25 113:-0.25 114:0.25 117:-0.25 118:-1.25 121:0.25 122:-1 126:-1 127:-1.25 130:-1.25 131:-0.25 135:-1.25 136:-0.5 137:0.5 138:0.25 139:-0.5 144:-0.25 
0 0 0 0 0 0 0 0 0 0 0 0 0 0 0 0 0 0 0 0 0 0.2283956297793021 0 0 0 0 0 1.223975342652254 0 0.03147028536529243 0 0 0 1:3.25 2:1.5 3:1 4:3.75 5:2.5 6:3.5 7:3 8:3 9:1.75 10:4.25 13:3.75 14:1.5 18:2.5 19:3.75 22:3.75 23:1 27:2 28:2.5 29:2.5 30:2 31:3.25 32:3 33:3 34:3 35:3 36:2.5 37:-1.25 40:-0.25 41:-0.5 45:0.25 46:-0.75 49:-1.25 50:0.5 55:-1.25 58:-1.25 59:1 63:-1 64:-1 65:0.5 67:0.25 72:1 73:-1.25 74:0.5 76:0.25 77:-0.5 78:-0.5 81:1.25 82:-0.75 85:-1.25 86:1.5 91:-1.25 94:-1.25 95:1 99:-1 100:-1 101:0.5 103:0.25 108:1 109:-0.75 112:-0.75 113:-0.5 117:-0.25 118:-0.75 121:-1.25 122:0.5 126:-0.5 127:-1.25 130:-1.25 131:1 136:-0.5 137:-0.5 139:-0.75 144:-0.5 
0 0 0 0 0 0 0 0 0 0 0 0 1.782070252795347 0 0 0 0 0 0 0 0 0 0 0.3692555210789753 0 0 0 0 0 0 0 0 0 1:2.5 2:2 3:2 4:2.75 5:1.75 6:2.5 7:3 8:3 9:2 10:3.25 13:3.75 14:2 18:2 19:3.75 22:3.75 23:2 27:2 28:2.75 29:2 30:2 31:2.25 32:2 33:3 34:3 35:3 36:1.5 40:-0.25 41:-0.25 45:0.5 46:1.25 49:-1.25 55:1.25 58:-1.25 64:0.25 67:0.25 68:-0.5 76:-0.25 77:-1.25 82:0.75 85:-1.25 86:2 90:-2 91:1.25 94:-1.25 95:2 99:-2 100:0.25 103:0.25 104:-0.5 108:1 109:-0.5 112:-1.25 113:-0.25 114:0.5 117:-0.5 118:-1.25 121:-1.25 127:-1.25 130:-1.25 136:-0.25 139:-0.75 144:-0.5 
0 0 0 0 0.1694413843264547 0 0 0 0 0 0 0 0 0 0 0 0 0 0 0 0 0 0 0.5259711017298824 0 0 0 0 0 0 0 0 0 1:2.5 2:3 3:2.75 4:1.5 5:1.75 6:3 7:2.75 8:1 9:0.25 10:3.75 13:3.25 14:3 17:1 18:2.5 19:2 20:0.5 22:3.5 23:2.75 27:4 28:0.5 29:3 30:4 31:3.75 32:0.75 33:2.5 34:3 35:3 36:2.75 37:-1 39:0.25 40:0.5 41:-0.25 43:-0.25 45:0.25 46:-0.75 49:-0.75 50:1 54:0.5 55:-1 58:-1.5 59:0.25 64:-0.5 67:0.75 68:-0.75 71:-0.5 72:0.75 73:-1 75:0.25 76:0.5 77:-1.25 78:0.5 79:0.25 81:0.25 82:-1.25 85:-0.75 86:1 89:-1 90:0.5 91:-1.5 92:0.5 94:-1 95:-0.25 100:-0.5 101:-1 103:0.75 104:-0.75 107:-0.5 108:0.25 109:-0.5 111:-0.25 112:-0.5 113:-0.25 114:-0.5 115:0.25 117:0.25 118:-0.75 121:-1.75 122:-1 126:0.5 127:0.5 130:-1 131:-0.75 136:0.5 139:-0.25 140:0.75 141:0.5 144:0.25 
0.0129379878777864 0 0 0 0.4872949883921909 0.05822826796722792 0 0 0 0 0 0 0 0 0 0.791764436737337 0 0 0 0 0 0 0 0 0 0.3873178997842465 0 0 0 0 0 0 0 1:3.25 2:2.5 3:2.75 4:0.75 5:2.25 6:3.75 7:2.5 8:2 9:0.25 10:4 13:2.75 14:2.5 17:0.25 18:3 19:3 22:3.75 23:2.5 24:0.25 27:3.75 28:0.5 29:3.25 30:3.75 31:3 32:0.5 33:1.5 34:3 35:3.25 36:2 37:-0.75 39:-0.25 40:0.75 41:-0.25 42:0.25 43:0.5 45:0.25 46:-1 49:1.25 50:0.5 53:-0.25 54:0.5 55:-1.5 58:1.25 60:0.25 63:0.25 64:-0.5 65:-0.25 66:0.25 67:1 69:-0.5 71:-0.25 73:-0.75 75:-0.25 76:0.75 77:-1.25 78:0.25 80:1 81:0.25 82:-0.5 85:1.25 86:1.5 89:-0.25 90:1 91:-1 94:1.25 96:0.25 99:-0.25 100:-0.5 101:-0.25 102:0.25 103:1 104:-0.5 105:-0.5 107:-0.25 108:1 109:0.25 110:0.5 111:0.75 112:0.75 113:0.25 114:-0.25 117:0.25 118:-0.5 121:-0.25 122:-0.5 125:0.25 126:-0.5 127:-0.5 130:-1.25 131:-1.5 132:0.25 135:0.25 136:0.5 137:0.25 138:-0.25 141:0.5 143:0.25 
0 0 0 0 0 0 0 0 0 0 0 0 0 0 0 0 0 0 0 0 0 0 0 0 0 0 0 0 0.1334495907524082 0 0 0.009063871106694901 0 1:3.75 2:2.5 3:3 4:1 5:2.75 6:3.25 7:3 8:2.25 9:0.5 10:3.75 12:1.25 13:3.5 14:2.5 17:0.75 18:3.25 19:3.25 20:0.5 21:1.25 22:3.25 23:2.75 24:1 25:1 26:1 27:4 28:1 29:3.5 30:4.25 31:2 32:0.5 33:2.5 34:2.5 35:3 36:1.25 37:-0.25 38:-0.5 41:-0.25 42:0.25 44:0.25 45:0.5 46:-1.25 48:-1.25 49:1 50:0.5 53:-0.25 54:0.25 55:-0.75 56:0.5 57:-1.25 58:0.75 59:0.25 66:-0.25 67:0.5 68:-0.5 72:0.25 73:-1.25 76:1 77:-0.75 78:0.25 80:0.25 81:0.5 82:-1.25 84:-1.25 85:1.5 86:1.5 89:-0.25 90:0.75 91:-1.75 92:0.5 93:-1.25 94:0.75 95:-0.25 100:-1 101:-0.5 102:-0.25 103:1 104:-0.5 105:-0.5 106:0.5 108:1.25 109:-0.25 113:0.25 114:0.25 116:0.25 117:0.5 118:-1.25 120:1.25 121:-1 122:-0.5 125:-0.25 126:-0.25 127:-0.75 128:0.5 129:1.25 130:-0.75 131:-0.75 138:0.25 139:-0.5 140:0.5 144:0.25 
0 0 0 0 0 0 0 0 0 0 0 0 0 0 0 0 0 0 0 0 0 0 0 0.9822971322895518 0 0 0 0 0 0 0 0 0 1:3.5 2:2.5 3:2.75 4:0.75 5:3 6:2.25 7:3 8:3.25 9:1.25 10:3.25 12:1 13:3.5 14:2.5 17:0.5 18:3 19:3.75 20:0.25 21:1.25 22:5 23:2.25 24:1 25:1 26:1 27:3.5 28:2.25 29:3.25 30:3.75 31:3.25 32:0.25 33:2 34:4 35:4 36:2.25 38:0.5 39:-0.25 40:0.25 42:-0.25 44:-0.25 45:0.75 46:0.75 48:-1 54:-0.5 55:1.25 56:0.25 57:-1.25 59:-0.75 63:-0.5 64:0.25 65:-0.25 66:-0.25 67:0.25 68:0.25 72:0.25 73:-0.5 74:1 75:-0.25 76:0.75 77:-1 78:-0.25 80:-0.25 81:1.25 82:1.75 84:-1 85:1.5 86:0.5 89:-0.5 91:0.75 92:0.25 93:-1.25 95:-1.25 96:0.5 99:-0.5 100:-0.25 101:0.25 102:-0.75 103:1.25 104:-0.25 108:0.75 111:-0.25 112:0.25 114:0.25 116:0.25 117:0.75 118:-0.75 120:1 122:-1 126:-0.5 127:-0.75 128:0.25 129:1.25 131:-0.25 132:0.5 135:-0.5 136:-0.25 137:-0.25 138:0.25 139:0.25 140:-0.25 144:0.75 
0 0 0 0 0 0.1106952151870242 0 0 0 0.02211978252400783 0 0 0 0 0 0.5733626317465674 0 0 0 0 0 0 0 0 0 0 0 0 0 0 0 0 0 1:1.25 2:2.5 3:2.5 4:2.75 5:0.75 6:3.5 7:4 8:4 9:2 10:5 11:1.25 13:3.5 14:2.25 15:1 16:1 17:1 18:3 19:5 20:1.25 22:3.75 23:2.5 27:3 28:3 29:3.25 30:3 31:4 32:2 33:2.75 34:3 35:3 36:3.25 37:-0.25 40:-0.25 41:-0.25 42:-0.5 45:0.5 47:1.25 49:-1.5 50:-0.25 54:-1 56:1.25 58:-1.25 59:0.5 63:-1 64:-0.5 65:0.75 67:-0.5 69:-0.25 72:0.25 73:-1.25 74:-0.5 75:0.5 76:-0.25 77:-0.75 78:-0.5 81:1 83:1.25 85:-1 86:-1.25 90:-0.5 92:1.25 94:-1.25 95:-0.5 99:-1 100:-1 101:0.75 104:-2 105:0.25 108:-0.25 109:0.25 112:-0.25 113:0.25 114:-0.5 117:0.5 119:1.25 121:-1 122:-0.75 126:-0.5 128:1.25 130:-1.25 131:-0.5 135:-1 136:0.5 137:0.25 139:-0.5 141:0.25 144:-0.25 
0 0 0 0 0 0 0 0 0 0 0 0 0 0.3323044224199508 0 0 0 0 0 0.201563030858175 0 0 0 0 0 0 0 0 0 0 0 0 0 1:1.75 2:1.75 3:2 4:1 5:1 6:3 7:3 8:3 9:1.25 10:3.75 13:3 14:1.75 18:2 19:3.75 22:1.75 23:2 27:2 28:2 29:2 30:2 31:1.5 32:0.75 33:2.5 34:1.75 35:1 36:1.25 37:0.25 38:0.25 45:0.25 46:1.25 49:-1.5 50:-0.25 55:1.25 58:-0.75 63:0.5 64:0.5 68:-0.25 69:-0.5 70:0.25 72:0.25 73:-0.75 74:-0.25 76:1 77:-0.5 81:0.25 82:1.25 85:-0.5 86:1.25 90:-1.5 91:1.25 94:0.25 95:0.5 99:-1 100:-1 103:1.5 104:-0.75 105:-0.5 106:-0.25 108:0.75 109:-0.25 110:0.25 113:-0.5 117:-0.75 118:-1.25 121:-1 122:-0.75 126:-0.5 127:-1.25 130:-1.25 131:-0.5 135:-0.5 136:-0.5 140:0.25 141:-0.5 142:-0.75 144:-0.25 
0 0 0 0 0 0 0 0 0 0 0 0 1.097451550108988 0 0 0 0 0 0 0 0 0 0 0.746233075310682 0 0 0 0 0 0 0 0 0 1:3 2:2 3:2 4:3.25 5:2.25 6:3 7:3 8:3 9:2.5 10:3.75 13:3.5 14:2 18:1.75 19:3.75 22:3.75 23:2 27:2 28:3.25 29:1.75 30:2 31:3 32:2.5 33:2.75 34:3 35:3 36:2.25 40:-0.25 41:-0.75 46:1.25 49:-1 54:0.25 55:1.25 58:-1.25 64:0.25 65:0.25 69:0.25 72:0.75 76:0.25 77:-0.75 81:1 82:1.25 85:-1 86:2 90:-1.75 91:1.25 94:-1.25 95:2 99:-2 100:-0.25 101:0.25 104:-1 105:-0.25 108:0.75 109:-1 112:-0.25 113:-0.75 117:-0.5 118:-1.25 121:-1.5 126:-0.25 127:-1.25 130:-1.25 136:-0.25 137:-0.25 139:-1 140:-0.5 141:0.25 144:-0.75 
0.03960720545735326 0.2341455897767803 0 0 0 0 0.02997818427715341 0 0.0778870218681104 0 0 0 0 0 0 0 0 0 0 0 0 0 0 0.7476482634456321 0 0 0 0.1100354716936167 0.1815618946021458 0 0 0 0 1:1.75 2:2.5 3:2.5 4:2 5:0.75 6:3.5 7:2 8:1.75 10:3.5 11:0.5 13:5 14:2.5 16:1 17:2 18:3 19:2.25 20:1.75 22:3.25 23:2.5 27:4 28:0.5 29:3.75 30:4 31:3.75 32:1 33:4 34:3.75 35:2.5 36:2.75 37:-0.25 41:0.25 42:0.5 44:-0.25 47:0.5 54:0.5 55:0.25 56:1.25 58:0.25 65:-0.75 67:-0.25 68:-1 70:0.25 71:-0.5 72:0.25 73:-0.75 77:-0.75 78:0.5 80:0.25 82:-1.5 83:0.5 89:-1 90:0.5 91:-2.25 92:1.25 94:-1.75 100:-0.5 101:-0.25 103:1.25 104:-1 106:0.25 107:-0.5 108:0.75 109:0.25 110:0.5 111:0.5 113:-0.25 114:-0.5 116:0.25 119:0.5 122:-1.5 127:-0.25 128:0.75 130:0.25 131:-1.5 137:-0.75 139:0.25 140:1 142:-0.25 143:0.5 144:0.25 
0 0 0 0 0 0 0 0 0 0 0 0 0 0 0 0 0 0 0 0 0 0 0 0.04643192253342271 0 0 0 0 0 0 0 0 0 1:3.5 2:2.5 3:2.25 4:1 5:2.5 6:4 7:3.75 8:3.5 9:0.5 10:5 13:3.5 14:2.5 16:0.25 17:0.75 18:3.5 19:4.75 20:0.75 22:5 23:2 24:0.25 27:4 28:1 29:3.75 30:4 31:3.5 32:0.5 33:2 34:4 35:4 36:2.5 38:0.5 39:-0.25 41:-0.5 43:0.25 44:0.5 45:0.5 50:1 52:-0.25 53:-0.25 55:-0.25 56:0.75 59:-0.5 60:0.25 65:-0.25 68:-0.5 72:0.5 73:-0.5 74:0.5 75:-0.25 76:1 77:-1.5 79:0.25 80:0.5 81:0.5 85:1.5 86:0.5 88:-0.25 89:-0.25 90:0.5 91:0.25 92:0.75 96:0.25 100:-1 101:-0.25 103:1.5 104:-0.5 108:0.5 110:-0.5 111:0.25 113:-0.5 115:-0.25 116:-0.5 117:0.5 122:-1 124:0.25 125:-0.25 127:0.25 128:0.75 131:-1.5 132:0.25 137:-0.25 140:0.5 144:0.5 
0.6769330963151001 0.6846992595971948 0.5762985275649522 0.6292073500264098 0.4686479315009733 0.319978509552231 0.5843455075584667 1.185771088958842 0.2858087668269622 0.5527222267571721 0 0.8995364737742559 0 0.4214264970324608 0.1434598596540849 0.4804594461054539 0 0.08188115893569317 0.1515240939067948 0.3284897458116438 0 0 0.07030536810502594 0.67139419304853 0.2453041844846127 0.5000214666031524 0.2697524742596149 0 0.2831511234589512 0.1361462358127858 0.16552522257987 0.2503243652285034 0.4804844454247051 1:2.5 2:3 3:2.75 4:1.25 5:2 6:2.25 7:1.5 8:2 9:0.5 10:2.25 12:1.25 13:2.5 14:3 16:0.5 17:1.25 18:3 19:2.5 20:1.25 21:0.5 22:2.25 23:2.25 24:1.25 25:1 26:0.25 27:3.25 28:1 29:3.5 30:3.5 31:3 32:0.75 33:2 34:2 35:2.25 36:2 39:0.25 40:0.25 41:-0.5 42:0.25 45:0.5 46:1.25 48:-1.25 50:1 53:-0.25 54:0.5 56:1.25 57:-0.5 58:-0.75 59:-0.25 60:0.25 62:-0.25 63:0.25 65:-0.5 67:0.5 68:-0.25 71:-0.25 72:0.5 73:-1 75:-0.75 76:1.25 77:-0.5 78:0.25 79:-0.5 81:0.5 82:-0.25 84:-1.25 85:2.5 86:0.5 88:-0.5 89:-0.25 90:0.5 91:-2.5 92:1.25 93:-0.5 94:1.25 95:-0.75 96:0.25 98:-0.25 99:-0.25 100:-1 101:-0.5 102:-1 103:1 104:-0.75 107:-1.25 108:1 109:0.5 111:-0.25 112:0.25 114:-0.75 117:0.5 118:-1.25 120:1.25 122:-0.5 125:0.25 128:1.25 129:0.5 130:-0.75 131:-1.25 132:0.25 134:0.25 135:-0.25 137:-0.5 138:0.5 139:0.5 140:0.25 143:0.25 144:0.5 
0 0 0 0.02793373669450086 0.27696940481969 0 0 0.1981091284704442 0 0 0 0 0 0 0 0 0 0 0 0 0 0 0 0 0 0 0 0 0 0 0 0 0 1:2 2:2.75 3:3 4:1.25 5:1.25 6:2 7:2 8:2 9:0.25 10:2.25 11:1 12:0.5 13:4 14:2.75 15:0.5 16:1 17:1.25 18:2.75 19:2.5 20:1.25 22:3.75 23:2.75 24:0.75 27:4 28:0.75 29:3.25 30:4 31:3.25 32:1 33:2.75 34:3 35:3 36:2.5 37:0.5 38:0.25 40:0.75 41:-0.75 42:0.5 45:0.25 46:0.25 47:1 48:-0.5 49:-0.5 50:0.25 53:-0.25 54:0.25 56:1.25 58:-1.25 59:-0.25 60:-0.25 64:-0.25 65:-0.25 67:-0.25 68:-0.5 69:-0.25 72:0.5 73:-0.5 74:-0.25 75:-0.5 76:1.25 77:-0.75 81:0.25 82:-2.25 83:1 84:-0.5 86:0.25 87:-0.5 89:-0.25 90:0.75 91:-2.5 92:1.25 94:-1.25 95:0.25 96:0.25 100:-0.75 101:-0.25 103:1.25 104:-0.5 105:-1.25 108:0.5 110:0.25 111:0.5 112:0.75 113:0.25 114:0.5 117:0.25 118:-0.25 119:1 120:0.5 121:-0.5 122:-1.25 125:0.25 126:0.25 128:1.25 130:-1.25 131:-0.75 132:0.25 136:0.25 137:-0.75 139:-0.25 141:-0.25 144:0.5 
0 0 0 0 0.08070402544462195 0 0 0 0.002514740103847438 0 0.4101769364383072 0.6566481897401699 0 0.06043670781263885 0 0.03095379498420218 0 0 0 0 0 0 0 0.9430653536697568 0 0.1332807778819908 0 0 0 0 0 0 0 1:2.5 2:2.75 3:3 4:1.25 5:1.75 6:3 7:2.5 8:2 9:0.75 10:3.75 12:1.25 13:2.5 14:2.75 16:0.5 17:1 18:3.5 19:2.5 20:1 22:2.75 23:2.75 24:1 25:0.5 26:0.25 27:4 28:1.25 29:4 30:4.25 31:2.25 32:0.75 33:2 34:1.5 35:3.25 36:1.25 37:0.5 38:-0.25 40:-0.25 41:-0.75 45:0.25 46:1.25 48:-1.25 50:0.75 53:-0.5 56:1 58:-1.25 59:0.25 62:-0.25 64:-0.25 65:-0.5 66:-0.25 67:0.75 68:0.25 70:-0.5 71:-0.25 72:0.25 73:-0.5 74:-0.25 76:1.25 77:-0.75 79:0.5 81:0.75 82:1.25 84:-1.25 85:2.5 86:0.75 88:-0.5 89:-0.5 90:0.5 91:-2.5 92:1 94:-0.75 95:-0.25 97:0.5 98:-0.25 100:-1.25 102:-0.25 103:1.25 104:-0.75 106:0.5 107:-0.25 108:0.25 109:-0.5 110:-0.25 112:-0.25 113:-0.25 117:0.25 118:-1.25 120:1.25 122:-1.25 128:1 130:-0.75 131:-0.75 134:0.25 136:0.25 137:-0.5 138:0.25 139:0.75 140:-0.25 142:0.5 143:0.25 144:0.25 
0 0 0 0 0 0 0 0 0 0 0.4850279611018441 0 0.431254269015717 0 0 0.03486534171078647 0.1837184239441994 0 0 0 0.1023565294950304 0.3093536953184303 0 0 0 0 0 0.2724441193611586 0 0.07339788396727183 0 0 0 1:3.75 2:2.5 3:2.5 4:3.75 5:2.75 6:3.75 7:4 8:4 9:2.25 10:4.75 11:1.25 12:1.25 13:4.75 14:2.25 15:1 16:1 17:1 18:2.5 19:5 20:1.25 21:1.25 22:5 23:2.25 24:1 25:1 26:1 27:2.5 28:3.25 29:2.75 30:2.75 31:3.25 32:2.75 33:3.75 34:4 35:4 36:2.25 37:-0.25 38:0.5 39:-0.5 40:0.25 41:-0.25 42:-0.25 45:0.75 46:-0.25 47:1.25 48:-1.25 49:0.25 50:0.25 56:1.25 57:-1.25 59:0.25 64:-0.25 65:0.25 66:-0.25 67:0.25 68:-0.25 69:-0.25 72:0.75 73:-0.75 74:1 75:-1 76:0.75 77:-1.25 78:0.25 81:0.75 82:-0.25 83:1.25 84:-1.25 85:0.25 86:1.25 90:-1 92:1.25 93:-1.25 95:1.25 99:-1 100:-1.25 101:0.75 102:-0.75 103:1.25 104:-1.25 105:0.25 108:0.75 109:0.25 110:1 111:1 112:0.25 113:-0.25 114:0.25 117:0.25 118:-0.25 119:1.25 120:1.25 121:-0.25 122:0.25 126:-0.5 128:1.25 129:1.25 131:0.25 135:-0.5 136:0.25 137:0.25 138:0.25 139:0.25 140:-0.25 141:0.25 144:0.25 
0 0 0 0 0 0 0 0.4290904235191034 0 0 0 0 0 0 0 0 0 0 0 0 0 0 0 0 0 0 0 0 0 0 0 0 0 1:2.75 2:2.25 3:2.5 4:3.25 5:2 6:3.75 7:4 8:4 9:3 10:5 12:0.75 13:4.5 14:2.25 18:2 19:5 21:1.25 22:3.75 23:2.25 24:0.5 25:1 26:1 27:2 28:4 29:2 30:2.25 31:2.5 32:2.25 33:3.75 34:3.25 35:3 36:1.75 37:-0.75 38:0.25 39:-0.5 40:0.75 41:-0.5 42:-0.25 45:0.5 48:-0.75 49:0.5 50:-0.25 54:-0.5 57:-1.25 58:0.75 59:-0.25 63:0.5 64:-0.5 65:0.5 66:-0.75 67:1 68:-0.75 69:0.25 70:0.25 72:0.25 73:-0.75 74:0.25 75:-0.5 76:0.75 77:-1.5 78:-0.25 81:1 84:-0.75 85:0.5 86:0.25 90:-1.5 93:-1.25 94:1.25 95:1.25 99:-1 100:-0.5 101:0.5 102:-0.25 103:1 104:-0.75 105:-0.25 106:0.25 108:1.25 109:-0.25 110:0.25 111:0.5 112:-0.75 114:-0.25 117:-0.5 120:0.75 121:-0.5 122:-1.25 129:1.25 130:-0.75 131:-0.25 132:0.5 135:-0.5 138:0.75 139:-0.5 140:-0.75 141:0.25 142:0.25 144:-0.25 
0 0 0 0 0 0 0 0 0 0 0 0 5.018077362644217 0 0 0 0 0 0 0 0 0 0 0 0 0 0 0 0 0 0 0 0 1:3 2:2.75 3:2.25 4:2.75 5:2 6:4 7:4 8:4 9:2.25 10:5 13:4.75 14:2.75 18:1.5 19:5 22:5 23:2.25 27:2.25 28:3.25 29:1.5 30:2.25 31:3.25 32:1.75 33:3.75 34:4 35:4 36:2.25 37:-0.5 38:-0.25 39:0.25 40:0.25 41:-0.5 45:0.75 49:0.25 50:0.75 59:0.25 63:-0.25 64:0.25 66:-0.25 67:0.25 68:-0.25 69:-0.25 72:0.25 73:-0.5 74:-0.25 75:-0.25 76:0.75 77:-1.5 81:0.75 85:-0.25 86:0.25 90:-1.5 95:-0.25 99:-1.75 100:-0.25 101:-0.5 102:-0.25 103:0.25 104:-1.25 105:0.25 108:1.75 110:-0.25 111:0.75 112:0.25 117:-0.75 121:0.25 122:-0.75 131:-1.25 135:-0.25 136:-0.25 138:0.25 139:0.25 140:-0.25 141:0.25 144:-0.25 
0 0 0 0 0 0 0 0.1516469075627085 0 0 0.55617843503188 0 1.08815414723316 0 0 0 0 0 0 0 0 0 0 0 0 0 0 0.196179852248849 0 0 0 0 0 1:2.25 2:2.5 3:3 4:2.75 5:1.5 6:3 7:3 8:3 9:2 10:3.75 11:1.25 12:1.25 13:5 14:2.25 15:1 16:1 17:1 18:2.75 19:3.5 20:1.25 21:1.25 22:4 23:2.75 24:1 25:1 26:0.75 27:2.75 28:3 29:3 30:2.75 31:2.5 32:1.75 33:4 34:3.25 35:3.75 36:1.5 37:-0.75 40:0.25 41:-0.5 44:-0.5 45:0.5 46:-1.25 47:1.25 48:-1.25 50:-0.25 54:-0.75 55:-1 56:1.25 57:-1.25 59:-0.25 62:0.25 63:-0.25 64:-0.5 65:1 66:-0.25 68:-0.75 70:0.75 71:-0.25 73:-1.25 75:-0.5 76:0.25 77:-1 81:0.5 82:-1.25 83:1.25 84:-1.25 86:-0.25 90:-0.75 91:-1 92:1.25 93:-1.25 95:-0.25 98:0.25 99:-0.75 100:-1.5 101:0.5 102:-0.25 103:1 104:-1.25 106:0.75 107:-0.25 108:1 109:-0.25 110:0.5 111:0.5 112:-0.25 116:0.5 118:-1.25 119:1.25 120:1.25 122:-0.75 126:-0.25 127:-1.5 128:1.25 129:1.25 131:-1.25 134:-0.25 135:-0.75 137:0.5 138:-0.25 139:-0.5 140:0.25 142:-0.75 143:-0.25 144:-0.5 
0 0 0 0 0 0 0 0 0 0 0 0 0.7095409787755644 0 0 0 0 0 0 0 0 0 0 0 0 0 0 0 0 0 0 0 0 1:2.5 2:2.5 3:2.25 4:3.25 5:1.75 6:3.5 7:3.75 8:3.5 9:2 10:4.75 11:1.25 13:4.75 14:2.25 15:1 16:1 17:1 18:2.5 19:4.25 20:1.25 22:5 23:2.25 27:2.25 28:3 29:2.75 30:2.25 31:3.75 32:2.5 33:3.5 34:4 35:4 36:2.75 37:-0.5 39:-0.25 40:0.25 41:-0.75 43:-0.25 45:0.5 46:-0.25 47:1.25 49:-0.25 50:-0.25 54:-0.5 55:-0.75 56:1.25 59:0.25 63:-0.25 64:-1 65:0.75 66:-0.25 67:0.25 68:-1 69:-0.5 72:0.75 73:-1.5 74:0.5 75:-0.25 76:0.25 77:-0.75 78:-0.5 79:0.25 81:1 82:0.25 83:1.25 85:-0.25 86:0.75 90:-1 91:-0.75 92:1.25 95:1.75 99:-1.75 100:-0.5 101:0.75 102:-0.25 103:0.25 104:-1 108:1.25 109:-0.5 111:0.25 112:0.25 113:-0.25 115:0.25 116:0.5 117:-0.5 118:0.25 119:1.25 121:-0.25 122:-0.75 127:-0.75 128:1.25 131:-0.25 135:-0.25 136:-0.5 137:0.75 138:0.25 139:-0.25 140:-0.5 144:-0.75 
0 0 0 0 0 0 0 0 0 0 0 0 1.067550481172124 0 0 0 0 0 0 0 0 0 0 0 0 0 0 0 0 0 0 0 0 1:2.25 2:1 3:2 4:3.25 5:1.25 6:3.75 7:4 8:4 9:3.25 10:4.75 13:2.75 14:1 18:1.75 19:5 22:4.75 23:2 27:2 28:4.25 29:1.75 30:2 31:2.75 32:2.5 33:2.25 34:3 35:4 36:1.75 37:0.25 40:-0.25 41:-0.25 42:0.25 45:0.75 46:0.25 49:0.25 54:-0.25 58:-0.25 64:0.25 65:-0.25 67:-0.25 68:-0.5 69:0.25 72:0.25 73:-0.75 76:0.75 77:-1.25 78:0.25 81:0.25 82:0.25 85:-2.25 90:-1.75 94:-0.25 95:2 99:-2 100:-0.75 101:0.25 103:0.25 104:-1.5 105:0.25 106:-0.5 108:1.25 109:0.25 112:0.25 113:0.25 114:-0.25 117:-0.25 118:-0.25 121:0.25 122:-1 126:0.25 130:-0.25 136:0.25 137:0.25 139:0.25 140:-0.5 141:0.25 142:-0.5 144:-0.25 
0.3714709027195846 0 0.1038782101241802 0.1774093312391663 0.965320241487767 0.4733080347163574 0 1.742270352565419 0.249750233260008 0.4360186911304705 0.7354650402495524 0 0 0 0 0.1969271909524785 0.1723938435328236 0 0.2347494648451033 0 0.5783787807381301 0.3730673222612665 0.004987959404396082 0 0.04241322238198513 0.3390030768581961 0 0 0.02825336817770813 0.477627205747588 0.1175860026958337 0.001225483570691819 0 1:2.75 2:3.25 3:3.25 4:2 5:1.75 6:3.75 7:3.25 8:3 9:1 10:4.5 11:2.25 12:1.5 13:4.5 14:2.75 15:1.75 16:2 17:2 18:2.5 19:3.75 20:2.5 21:1.25 22:5 23:2.75 24:1.5 25:1 26:1 27:2.25 28:1.75 29:3 30:2.5 31:2.25 32:1.25 33:3.25 34:4 35:4 36:1.25 37:-0.75 38:-0.25 39:0.25 40:0.5 41:-0.25 42:0.25 43:0.25 44:-0.5 45:0.5 47:0.25 48:-1 50:-0.25 51:-0.25 54:0.5 55:-0.25 57:-1.25 59:0.75 63:-0.25 64:-0.25 67:0.25 68:-0.25 69:-0.25 72:0.25 73:-0.75 74:0.75 75:-0.25 76:1 77:-1.25 78:-0.25 79:0.25 80:0.5 81:0.5 82:-0.5 83:2.25 84:-1.5 86:0.25 87:0.25 90:0.5 91:-0.25 92:2.5 93:-1.25 95:-0.25 96:0.5 99:0.25 100:-1.25 101:1 103:0.75 104:-1.25 105:-0.25 108:1.25 109:-0.25 110:0.25 111:-0.25 112:-0.5 113:-0.25 114:0.25 115:-0.75 119:0.25 120:1 121:-0.5 122:-0.75 123:0.25 126:-1.5 127:-1.25 129:1.25 131:-0.25 135:-1.25 136:-0.25 138:0.5 139:-0.25 140:0.25 141:0.25 144:0.25 
0 0 0 0.2249300791647372 0 0 0 0.2181606793229803 0 0 0 0 0 0 0 0 0.3506551918409094 0 0.006856228671294669 0 0.1516032500188552 0.3589691578816217 0 0 0 0 0 0.03648598001876235 0 0.08389600721453812 0 0 0 1:2 2:2.75 3:2.5 4:3.25 5:1 6:3.5 7:4 8:4 9:0.75 10:4.5 11:2 12:0.25 13:4 14:2.25 15:1.5 16:2 17:2 18:2.25 19:5 20:2.5 22:3.75 23:2.25 24:0.5 27:2.75 28:1.75 29:2.75 30:2.75 31:3.25 32:2.25 33:3.5 34:3 35:3 36:2.5 38:-0.25 40:0.75 42:-0.5 45:0.25 47:0.5 48:-0.25 49:-1 50:-0.25 54:0.25 58:-1.25 59:0.25 63:-0.25 64:-0.25 65:-0.25 66:-0.25 67:0.25 68:-0.75 72:1 73:-1 74:0.75 75:-0.5 76:0.75 77:-1 78:0.5 81:0.75 82:-0.5 83:2 84:-0.25 85:-1 86:-0.75 87:0.5 90:0.75 92:2.5 94:-1.25 95:-0.25 96:0.5 99:-0.25 100:-0.75 101:0.75 102:0.25 103:0.25 104:-0.75 105:0.5 108:1 110:-0.25 111:1 112:-0.75 114:0.5 117:0.25 119:0.5 120:0.25 121:-1 122:-1.25 126:-1.25 130:-1.25 131:-1.25 135:-1.25 136:0.25 137:-0.25 138:0.25 139:-0.75 140:-0.75 144:-0.5 
0 0 0 0 0 0.3653708744099337 0 0 0 0 0 0 0 0 0 0 0 0 0 0 0 0 0 0 0 0 0 0 0 0 0 0 0 1:2 2:3.25 3:3 4:1.75 5:1 6:4 7:4 8:4 9:1.75 10:5 11:1 12:0.25 13:3.75 14:3 15:0.75 16:1 17:1 18:3.25 19:5 20:1.25 22:4.25 23:2.75 24:0.5 27:3.25 28:2.75 29:3.5 30:3.25 31:2.75 32:1 33:3 34:3.5 35:3 36:2 38:-0.25 39:0.5 40:0.25 41:-1 45:1.25 47:1 48:-0.25 49:1.25 50:-0.5 51:-0.25 54:-0.25 56:1.25 58:0.75 59:-0.75 60:0.5 63:-0.75 64:-0.25 66:-0.25 67:0.75 72:0.5 74:-0.25 75:0.5 76:0.75 77:-1 81:0.75 83:1 84:-0.25 85:1.25 86:-1 87:0.25 90:-0.25 92:1.25 94:0.75 95:-0.75 99:-0.75 100:-0.25 101:0.5 102:-0.25 103:1.25 104:-1 106:-0.5 108:0.5 110:0.25 112:-0.75 113:1 117:0.25 119:1 120:0.25 121:-1.25 122:-0.5 123:0.25 126:-0.75 128:1.25 130:-0.75 131:-0.25 135:-0.75 136:-0.25 138:0.25 139:-0.75 144:-1 
0 0 0 0 0 0 0 0 0 0 0.4386919276688718 0 3.244194340923214 0 0 0 0 0 0 0 0 0 0 0 0 0 0 0 0 0 0 0 0 1:2.5 2:3.25 3:3.25 4:2 5:1.5 6:3.75 7:4 8:4 9:2.5 10:4.75 11:1.25 12:0.75 13:4 14:3 15:1 16:1 17:1 18:2.75 19:5 20:1.25 22:3.75 23:3 24:0.75 25:0.25 27:3.25 28:3.5 29:3 30:3.25 31:3.75 32:1.25 33:3 34:3.25 35:3 36:3 37:-0.5 38:-0.25 39:0.25 40:1 42:0.25 46:-0.25 47:1.25 48:-0.75 49:0.5 50:0.5 54:-0.25 56:1.25 58:-1.25 59:0.5 60:0.25 61:0.25 63:-0.75 64:-0.5 65:-0.5 66:-0.25 67:0.25 68:0.25 70:0.25 72:0.5 73:-0.5 74:0.25 75:-0.25 76:0.5 77:-1.5 78:-0.25 81:0.5 82:0.25 83:1.25 84:-0.75 90:-0.25 92:1.25 94:-1.25 96:0.25 97:0.25 99:-0.75 100:-1.5 101:0.5 102:-0.25 103:0.75 104:-1.25 105:-0.5 106:0.25 108:0.5 109:-0.5 110:-0.25 111:-0.25 112:-0.5 114:0.25 118:0.25 119:1.25 120:0.75 121:-0.5 122:-0.5 126:-0.25 128:1.25 130:-1.25 131:-0.5 132:-0.25 133:0.25 135:-0.75 136:-0.5 138:0.25 139:-0.75 140:-0.25 141:0.5 142:0.25 
0 0 0 0 0 0 0 0.4308276228695936 0 0 0.1069707254603642 0 0 0 0 0 0 0 0 0 0.3252439179348944 0 0 0 0 0 0 0 0 0 0 0 0 1:2.75 2:2 3:2.5 4:2.25 5:2 6:3.75 7:4 8:4 9:2 10:5 12:1 13:4.75 14:2 18:2 19:5 22:5 23:2 24:1.5 27:1.5 28:3 29:2 30:1.5 31:3.75 32:1.5 33:3.5 34:4 35:4 36:2.75 37:-0.25 39:0.5 40:0.75 42:-0.25 45:0.5 49:0.25 50:1 59:0.5 60:-0.5 63:0.5 64:-0.5 67:0.25 72:0.75 73:0.25 74:-1 75:-0.5 76:0.75 77:-2 78:-0.25 81:1.5 84:-1 85:0.25 90:-2 95:-0.5 96:0.5 99:-1.5 100:-0.5 102:0.5 103:0.25 104:-1.5 105:-0.5 108:1.25 109:0.25 111:0.5 112:-0.75 114:-0.25 121:-0.25 122:-1 132:0.5 135:-0.5 139:-0.25 144:-0.75 
0 0 0 0 0 0 0 0 0 0 0 0 0 0 0 0 0 0 0 0 0 0 0 0.06296667505552221 0 0 0 0 0 0 0 0 0 1:1.5 2:1.5 3:2.25 4:2.25 5:1.25 6:2.5 7:2.75 8:2.5 9:1.25 10:3.75 13:3.5 14:1.5 17:0.25 18:2 19:3.25 22:3.75 23:2.25 27:1.75 28:1.75 29:2.25 30:1.75 31:2.5 32:1.5 33:2.75 34:3 35:3 36:1.75 38:0.5 39:-0.25 40:0.25 41:-0.25 42:-0.5 43:-0.25 45:0.25 46:1.25 49:-1 50:-1 53:-0.25 54:0.5 55:1.75 58:-1.25 59:-0.25 63:0.75 64:-0.25 65:0.25 66:-0.25 68:-1 69:0.25 72:0.75 73:-1.5 74:0.5 75:-0.25 76:0.25 77:-0.75 78:-0.5 79:0.25 80:0.5 81:0.75 82:1.25 85:-1.5 86:0.5 89:-0.25 90:-1 91:0.75 94:-1.25 95:0.75 99:-0.25 100:-1.75 101:0.25 102:-0.75 103:0.5 104:-1 105:-0.25 108:1.25 110:0.5 111:0.25 112:0.25 113:-0.25 114:-0.5 115:0.25 117:-0.25 118:-1.25 121:-1 122:-1 125:0.25 126:-0.5 127:-0.75 130:-1.25 131:-0.75 135:-1.25 136:0.25 137:0.25 138:0.25 140:0.5 141:0.25 144:0.25 
0 0 0 0 0 0 0 0.935569816822331 0 0 0.2995970039409325 0 0 0 0 0 0 0 0 0 0 0 0 0 0 0 0 0 0 0 0 0 0 1:2.25 2:3.25 3:3.5 4:2.5 5:1.5 6:3.25 7:3 8:3 9:1.75 10:4 11:2 13:4.25 14:2.75 15:1.5 16:2 17:2 18:3.25 19:3.75 20:2.5 22:3.75 23:3.5 27:3 28:2.5 29:3.75 30:3 31:3.25 32:1.5 33:3.75 34:3 35:3 36:2.5 37:-0.75 38:0.25 40:0.5 42:0.25 45:0.25 46:-1 49:-0.75 50:0.25 51:-0.5 54:0.25 55:-1.25 58:-1.25 59:0.5 63:-1 64:-1 65:0.25 67:0.25 69:0.25 72:1 73:-0.75 74:-0.25 75:-0.5 76:0.5 77:-1.5 78:-0.25 81:1.25 82:-1 83:2 85:-0.75 86:-0.75 87:0.5 90:0.25 91:-1.25 92:2.5 94:-1.25 95:0.5 99:-1 100:-1 101:0.25 103:0.25 104:-1.5 105:0.25 108:1 109:-0.75 110:-0.25 112:-0.5 114:-0.25 117:-0.25 118:-1 121:-0.75 122:-0.25 123:0.5 126:-0.75 127:-1.25 130:-1.25 131:-0.5 135:-1 136:-0.5 137:-0.25 139:-0.75 141:-0.25 144:-0.5 
0 0 0 0 0 0 0 0.108034623175549 0 0 0.1189445743468638 0 0 0 0 0.9278189937907472 0 0 0 0 0 0 0 0 0 0 0 0 0 0 0 0 0 1:2.75 2:3.25 3:3 4:1.5 5:1.75 6:3.75 7:4 8:4 9:2.25 10:4.75 12:1.25 13:4 14:3.25 18:2.75 19:5 21:0.25 22:3.5 23:2.75 24:1 25:0.75 27:3 28:3.25 29:2.75 30:3 31:2.5 32:1 33:2.5 34:3.5 35:2.5 36:2 37:0.25 38:0.25 41:0.25 42:0.25 45:0.75 46:-0.25 48:-1.25 50:0.75 54:-0.25 57:-0.25 59:0.75 61:0.25 63:-1 64:0.25 65:0.25 69:-0.5 71:0.5 73:-0.25 74:0.25 76:1.5 77:-1.75 78:-0.25 81:1.25 82:0.25 84:-1.25 85:1 86:0.75 90:-0.75 93:-0.25 94:1 95:0.25 97:0.25 99:-1 100:-0.25 101:0.25 103:2.5 104:-1 105:-0.5 106:0.5 107:0.5 109:0.25 110:0.25 113:-0.25 114:0.25 117:-0.25 118:0.25 120:1.25 122:-0.75 126:-0.75 129:0.25 130:0.5 131:-0.75 133:-0.25 135:-1 136:-0.25 137:0.75 141:0.5 143:0.5 
0 0 0 0 0 0 0 0.2888459841249319 0 0 0 0 0 0 0 0 0 0 0 0 0 0 0 0 0 0 0 0 0 0 0 0 0 1:2.5 2:3.25 3:2.75 4:2.25 5:1.5 6:3.5 7:4 8:4 9:2.25 10:4.5 11:1.25 12:1.25 13:4.75 14:3 15:1 16:1 17:1 18:3 19:5 20:1.25 21:0.5 22:4.25 23:2.5 24:1 25:1 27:2.75 28:3.25 29:3.25 30:2.75 31:3.25 32:1.25 33:3.75 34:4 35:3 36:2.5 38:-0.25 39:-0.25 40:-0.25 41:-0.5 45:0.25 46:0.5 47:1.25 48:-1.25 49:-0.25 50:0.5 54:-0.5 56:1.25 57:-0.5 58:-0.75 59:1 63:-0.75 64:-0.25 65:0.25 66:-0.25 67:-0.25 68:-0.25 69:0.25 73:-0.5 74:0.25 75:-0.25 76:0.75 77:-1.5 81:1.75 83:1.25 84:-1.25 85:-0.25 90:-0.5 92:1.25 93:-0.5 94:-0.75 99:-1.25 100:-0.25 101:0.25 102:0.25 103:0.25 104:-1.25 105:-0.25 108:1 110:-0.25 111:-0.25 112:0.25 113:0.5 114:0.5 117:-0.25 119:1.25 120:1.25 121:-0.25 122:-0.5 126:-1 128:1.25 129:0.5 130:-0.75 131:-0.5 135:-0.75 136:0.25 137:0.25 138:0.25 139:-0.25 140:0.25 141:0.25 144:-0.5 
0 0 0 0 0 0 0 0 0 0 0 0 0 0 0 0 0 0 0 0 0 0 0 0 0 0 0 0.5871611236860372 0 0 0 0 0 1:3.5 2:1.25 3:1.75 4:4 5:3 6:2.75 7:3.25 8:3.5 9:1.5 10:3.5 13:5 14:1.25 18:3 19:4.75 22:5 23:1.75 26:0.25 27:3.5 28:2.25 29:3 30:3.75 31:3 32:3 33:4 34:4 35:4 36:2 37:-0.5 38:0.25 39:-0.25 40:0.5 41:-0.5 42:-0.25 43:0.25 45:0.5 46:1 50:0.75 54:-0.5 55:0.25 59:0.75 62:-0.25 63:-0.5 64:-0.75 66:-0.25 67:0.5 72:0.5 73:-0.5 74:0.25 75:-0.75 76:1 78:-0.25 79:-0.75 81:1 82:1.5 86:1.25 90:-0.5 91:-0.25 95:1.25 98:-0.25 99:-0.5 100:-1.25 102:-0.75 103:0.5 104:-0.5 108:1.5 109:-0.5 110:0.25 111:0.25 112:-0.5 113:0.5 114:-0.25 115:0.25 116:-0.5 118:-1 122:0.75 126:-1 127:0.25 131:0.25 134:0.25 135:-0.5 136:-0.25 138:0.25 140:-0.5 
0 0 0 0 0 0 0 0 0 0 0 0 0 0 0 2.489643319259204 0 0 0 0 0 0 0 0.8655799454345737 0 0 0 0 0 0 0 0 0 1:2.5 2:2 3:2 4:3 5:1.5 6:3.75 7:4 8:4 9:1 10:4.75 13:2.5 14:2 18:1.75 19:5 22:4.75 23:2 27:2 28:2 29:1.75 30:2 31:3.5 32:2 33:2.25 34:3 35:4 36:2.5 41:-0.5 42:-0.25 46:0.25 49:0.5 54:0.25 58:-0.25 65:-0.25 68:-1 69:0.75 72:0.5 73:-0.5 76:1 77:-1.5 78:0.25 81:1 82:0.25 85:-2 86:1.5 90:-1.75 94:-0.25 95:1.5 99:-1.5 100:-1 101:-0.25 103:0.5 104:-1 105:0.75 106:-0.5 108:1.5 113:0.5 114:0.25 118:-0.25 122:-0.5 126:-0.25 130:-0.25 131:-0.5 135:-0.5 137:-0.25 141:0.25 142:-0.5 144:-0.5 
0.102171620594365 0 0 0 0.5296058532046457 0.3589459941188077 0 0.5850123788744048 0 0.02842659372731106 0 0.247845796846856 0 0.1314312038736724 0 0.9272257043567009 0 0 0 0 0 0 0 0 0 0.422997093604651 0 0 0 0 0 0 0 1:2.5 2:3 3:3.75 4:1.25 5:1.75 6:3 7:3 8:3.25 9:2.25 10:3.75 12:1.25 13:2.25 14:2.75 15:0.25 17:0.25 18:3.25 19:3.75 21:1.25 22:4 23:3.25 24:1.25 25:1 26:1 27:2.75 28:3.25 29:3.5 30:3 31:2.75 32:0.75 33:1.75 34:2 35:4 36:1.75 37:-0.5 38:0.5 39:0.25 40:0.25 41:-0.75 44:-0.25 45:0.75 46:1.25 48:-1.25 49:0.25 50:-0.75 51:0.25 53:-0.25 54:-0.75 55:1.25 57:-1.25 59:-0.25 60:0.25 63:-0.75 64:-0.25 65:0.5 66:-0.5 67:0.25 68:-0.25 69:0.25 72:0.75 73:-1 74:0.5 75:0.25 76:1.25 77:-1.25 80:-0.25 81:0.75 82:1.25 84:-1.25 85:2.25 86:-1.25 87:0.25 89:-0.25 90:-0.75 91:1.25 93:-1.25 94:1 95:-0.75 96:0.25 99:-0.25 100:-1.25 101:0.5 102:-0.5 103:0.75 104:-0.75 105:-0.25 108:1.25 111:-0.25 112:0.25 113:0.25 116:0.25 117:0.25 118:-1.25 120:1.25 121:0.25 122:-0.75 123:0.25 125:0.25 126:-0.75 127:-1.25 129:1.25 131:-0.25 132:0.25 135:-0.75 136:0.25 137:0.5 139:0.25 140:0.25 141:0.25 144:0.25 
0 0 0 0 0 0 0 0 0 0 0 0 0 0 0 0.2640387782676584 0 0 0 0 0 0 0 0 0 0 0 0 0 0 0 0 0 1:2.5 2:2.5 3:2.75 4:1.5 5:1.5 6:3 7:3.25 8:3 9:1.25 10:3.5 12:1.25 13:2.75 14:2.5 16:0.5 17:1 18:3 19:4.25 20:1.25 21:1 22:4.25 23:2.5 24:1 25:0.75 26:1 27:2.5 28:1.75 29:3.25 30:2.75 31:1.5 32:1 33:2 34:2.75 35:3.25 36:1 39:-0.25 40:0.5 43:-0.25 45:0.25 46:1 48:-1.25 49:-0.25 55:0.25 56:1.25 57:-1 58:-0.25 59:-0.5 61:-0.25 63:0.5 64:-0.25 65:0.25 66:-0.25 68:-0.5 70:-0.75 71:0.75 72:0.5 73:-1.5 74:1 75:-0.75 76:1.5 78:0.5 79:-0.25 80:0.5 81:0.75 82:1.5 84:-1.25 85:2.25 86:0.5 88:-0.5 91:-0.75 92:1.25 93:-1 94:0.75 95:-0.5 97:0.25 99:0.5 100:-1.75 101:0.25 102:-0.75 103:1.5 104:-0.5 106:-0.25 107:0.25 108:0.5 110:0.5 111:0.25 112:0.5 113:0.5 114:0.5 115:0.25 116:-0.5 117:-0.25 118:-1 120:1.25 121:0.25 122:-1 126:-1 127:0.25 128:1.25 129:1 130:0.25 131:-1.5 133:0.25 135:-1.5 136:0.25 137:0.25 138:0.25 142:0.25 143:-0.25 
0 0 0 0 0 0 0 0 0 0 0 0 2.35365550664894 0 0 0 0 0 0 0 0 0 0 0 0 0 0 0 0 0 0 0 0 1:3 2:3.5 3:3 4:2 5:2 6:3.5 7:4 8:3.5 9:2.25 10:4.5 11:0.75 13:3.75 14:3 15:0.75 16:1.25 17:1 18:3.5 19:4.5 20:1.5 22:3.75 23:2.75 24:0.25 27:2.75 28:3.25 29:3.75 30:2.75 31:2.5 32:1.5 33:2.75 34:3 35:2.75 36:2 37:-0.5 40:0.5 41:-0.5 44:-0.5 45:0.75 46:0.5 47:0.75 49:-1.25 51:0.25 52:0.25 56:1 58:-1.25 59:0.25 60:0.25 63:-0.75 64:-0.25 65:0.25 66:-0.25 67:0.5 68:-0.5 69:-0.25 71:0.25 72:0.5 73:-1 74:0.5 76:1.5 77:-1 78:0.5 81:1.25 82:0.5 83:0.75 85:-1.25 87:0.75 88:-0.25 92:1.5 94:-1.25 95:0.25 96:0.25 99:-0.25 100:-0.75 101:0.25 102:0.25 103:1 104:-1 105:-0.25 107:0.25 108:1 109:-0.5 113:-0.5 117:-0.25 118:-0.5 119:0.75 121:-1.25 122:-1 123:0.25 124:-0.25 126:-0.5 127:0.5 128:1 130:-1.25 131:-1.25 132:0.25 135:-0.75 136:-0.25 137:-0.25 138:0.25 139:-1 141:-0.25 143:-0.25 144:-0.5 
0 0 0 0 0 0 0 0 0 0 0 0 2.412593544901328 0 0 0 0 0 0 0 0 0 0 0 0 0 0 0 0 0 0 0 0 1:3.75 2:3.5 3:3 4:1.75 5:2.75 6:3.75 7:3.75 8:4 9:1.75 10:4.75 11:0.5 13:4.5 14:3.25 15:0.25 16:0.75 17:0.5 18:3.5 19:4.75 20:0.5 22:3.75 23:3 27:3 28:2.75 29:3.75 30:3 31:1.75 32:1 33:3.25 34:3.5 35:3 36:1 37:-0.75 38:0.5 40:0.75 41:-0.75 42:-0.25 43:-0.25 45:0.25 46:-0.25 47:0.5 49:0.5 50:0.75 51:0.25 52:0.25 55:-0.25 56:0.5 58:-0.25 59:1 63:-0.5 64:-0.75 65:0.25 67:0.75 68:-0.5 69:-0.25 72:0.5 73:-0.75 74:0.5 76:0.75 77:-0.75 78:0.25 79:0.25 81:1.25 82:-0.25 83:0.5 85:0.5 86:0.75 87:0.25 88:0.25 89:-0.5 91:0.25 92:0.5 94:0.75 95:1 99:-0.5 100:-0.75 101:0.25 103:0.75 104:-1 105:-0.25 106:0.5 107:0.5 108:1 109:-0.25 110:0.5 112:-0.25 113:-0.25 114:0.25 115:0.25 117:-0.25 118:-0.25 119:0.5 121:-0.5 122:-0.75 123:0.25 124:-0.25 126:-0.5 127:0.25 128:0.5 130:-0.25 131:-1 135:-1 136:-0.25 137:-0.25 139:-0.25 140:0.5 141:0.25 143:0.5 144:0.5 
0 0 0 0 0 0 0 0 0 0 0 0 0 0 0 0 0 0 0 0 0 0 0 0.8228659574366828 0 0 0 0 0 0 0 0 0 1:2.5 2:2.5 3:2.5 4:2.25 5:2 6:2.75 7:3 8:3 9:3 10:3.75 12:1 13:4.75 14:2.5 18:1.25 19:3.75 21:1.25 22:5 23:2.25 24:0.75 25:1 26:1 27:2.75 28:3.75 29:1.25 30:3 31:2.5 32:1.25 33:3.75 34:4 35:4 36:1.5 38:0.5 39:-0.5 40:0.25 41:-0.5 42:-0.25 45:0.5 46:1.25 48:-1 49:-0.25 54:0.25 55:1.25 57:-1.25 59:-0.25 60:-0.25 63:0.25 64:0.75 65:0.25 66:-0.5 68:-0.25 69:-0.25 72:0.5 73:-0.5 74:0.5 75:-0.5 76:1.25 77:-0.5 78:-0.25 82:1.25 84:-1 85:-0.25 86:1.5 90:-0.25 91:1.25 93:-1.25 95:1.25 96:0.25 99:-0.25 100:0.25 101:0.25 102:-1 103:1.5 104:-0.75 105:0.25 108:0.5 110:0.5 111:0.5 112:0.25 114:-0.25 117:-0.5 118:-1.25 120:1 121:-0.25 126:0.75 127:-1.25 129:1.25 131:-0.25 132:0.25 135:1.25 136:-0.75 137:0.25 138:0.5 140:-0.25 141:0.25 144:-0.5 
0 0 0 0 0 0 0 0 0 0 0 0 0 0 0 0 0 0 0 0 0 0 0 0.3011917570815846 0 0 0 0 0 0 0 0 0 1:2.5 2:2.25 3:2.25 4:2 5:1.75 6:3 7:3 8:3 9:2 10:3.75 13:4.75 14:2.25 17:0.25 18:2.5 19:3.75 22:4.25 23:2.25 26:0.5 27:2.25 28:2.75 29:2.75 30:2.75 31:2.5 32:1.25 33:3.5 34:4 35:3 36:1.75 38:0.25 39:-0.25 40:0.5 41:-0.75 45:0.5 46:1.25 49:-0.25 50:0.75 53:-0.25 54:-0.5 55:1.25 58:-0.25 59:0.75 62:-0.5 63:-0.25 64:-0.25 65:-0.25 66:0.25 67:1 68:-0.75 71:-0.5 72:0.25 74:0.25 75:-0.25 76:1 77:-1.25 81:1.5 82:1.25 85:-0.25 86:1.25 89:-0.25 90:-1.5 91:1.25 94:0.75 95:1.25 98:-0.5 99:-1.75 100:-0.25 101:0.25 102:0.25 103:1 104:-0.75 105:-0.5 107:0.5 108:1.25 109:-0.5 110:0.25 111:0.25 112:0.5 113:0.25 118:-1.25 121:-0.25 122:-0.25 125:0.25 126:-0.5 127:-1.25 130:0.25 131:-0.25 134:0.5 135:-0.25 136:-0.25 137:0.25 138:-0.25 139:-0.5 140:0.25 144:-0.25 
0 0 0 0 0 0 0 0 0 0 0 0 3.108478737777481 0 0 0 0 0 0 0 0 0 0 0 0 0 0 0 0 0 0 0 0 1:3 2:1.75 3:1.75 4:2.75 5:2.25 6:3.5 7:2.75 8:2 9:2.25 10:4.25 13:4.25 14:1.75 18:2.25 19:2.75 22:4 23:1.75 27:2 28:2.75 29:2.25 30:2 31:2.25 32:1.75 33:4 34:2.75 35:3 36:1.75 37:-1.5 38:0.25 39:-0.25 40:0.75 41:-0.25 43:0.25 45:0.75 46:-0.75 49:0.75 50:0.25 54:-0.25 55:-0.25 59:0.25 63:0.5 64:-0.75 65:0.25 66:-0.5 67:0.75 68:-0.25 70:0.25 72:0.25 73:-1 74:0.25 75:-0.25 76:0.25 77:-0.25 78:-0.5 79:0.25 80:0.5 81:0.75 82:-0.75 85:0.25 86:1.75 90:-1.75 91:-0.75 94:0.5 95:1.75 99:-1 100:-0.75 101:0.25 103:0.75 104:-1.25 106:-0.25 107:0.5 108:1.25 109:-0.5 110:-0.25 111:-0.25 112:0.25 113:-0.75 115:-0.25 116:0.5 117:-0.75 118:-0.75 121:-0.25 122:0.25 126:-0.25 127:-1.75 130:-0.5 131:0.25 135:-0.5 136:-1.25 137:0.25 138:0.5 139:-0.75 140:-0.25 142:0.25 143:-0.5 144:-0.25 
0 0 0.4264909026461437 0.3144758977562097 0.3486486390552263 0.09074456059056671 0 0 0 0.05181148429808165 0 0 0 0 0 0 0 0.9925690721759233 0 0 0 0 0 0 0 0 0 0.02574480209500874 0 0 0 0 0 1:1.5 2:1.25 3:1.75 4:0.75 5:0.75 6:2.25 7:2 8:2 9:2.25 10:2.5 12:1.25 13:4.5 14:1.25 18:1.75 19:2.5 21:1.25 22:5 23:1.5 24:1 25:1 26:1 27:2.25 28:2.75 29:1.75 30:2.5 31:2 32:0.25 33:3 34:4 35:4 36:1 38:0.25 39:-0.25 40:0.25 41:-0.25 42:0.25 45:-0.25 48:-1.25 50:0.75 54:0.25 57:-1.25 63:-0.25 64:-0.25 65:0.25 68:-0.25 73:-0.5 74:0.25 75:0.25 76:0.75 77:-0.25 78:0.25 81:1.25 82:2.5 84:-1.25 85:0.5 86:-0.75 90:-1.75 91:2.5 93:-1.25 95:-1.5 99:-0.75 100:0.25 101:0.25 102:-0.5 103:1 104:-0.25 105:-1 108:1 110:0.25 111:0.25 112:0.25 113:0.75 114:0.25 117:-0.25 120:1.25 122:-0.25 126:-0.25 129:1.25 135:-0.25 136:0.25 137:-0.25 140:0.25 
0.942671382856112 0.7915758188809592 0.8683687792644665 0.09794624826132183 1.149462419380238 0 0.717116427499131 1.147513166234078 0.7678824462457342 0.2659824162746426 0.9714468269401411 0 0 0 0 1.043424584634484 0 0 0.05029006211290745 0 0.06285041997958524 0.1057552333406223 0 0.8185757304918778 0.1613807834055514 0.2147143788462937 0.2526657200269527 0 0.3195231295312377 0.2676181058246294 0.1830747405377131 0.3338001586057068 0.1645760455978604 1:3.5 2:2.75 3:3.25 4:1.75 5:3 6:2 7:2 8:2 9:2.25 10:2.5 12:2.25 13:4.75 14:2.75 18:3 19:2.5 21:2.5 22:5 23:2.75 24:1.75 25:2 26:2 27:3 28:2.75 29:3 30:3.5 31:2 32:0.75 33:3.75 34:4 35:4 36:1 38:-0.25 39:0.25 40:-0.25 41:-1 45:0.25 48:-0.25 49:-0.25 50:1.25 54:-1 59:0.25 60:-0.25 64:0.25 68:0.25 69:0.25 73:0.5 74:0.25 75:-0.25 76:0.75 77:-1 81:1.25 82:2.5 84:-2.25 85:0.25 86:0.75 90:-1 91:2.5 93:-2.5 95:-0.25 96:0.25 100:-0.25 102:-0.5 103:1 104:-0.75 105:-0.25 108:1 110:0.25 111:-0.25 112:-0.25 113:-1 117:-0.75 120:0.25 121:0.25 122:-0.75 126:-1 131:-0.75 132:0.25 135:-1 136:0.25 140:-0.25 141:0.25 
0 0 0 0 0 0 0 0 0 0 0 0 0 0 0 0 0 0 0 0 0 0 0 2.255801860928418 0 0 0 0 0 0 0 0 0 1:2.5 2:3 3:3.25 4:2.5 5:2 6:2.75 7:3 8:3 9:2 10:3.75 12:1 13:4.5 14:3 18:3 19:3.75 21:1.25 22:4.75 23:3 24:1 25:0.75 26:1.25 27:3.5 28:2.75 29:3 30:4 31:2.25 32:1.5 33:3.5 34:4 35:3.75 36:1.25 37:0.5 39:0.25 42:-0.25 45:1 46:1.25 48:-1 49:-0.5 50:1 55:1.25 57:-1.25 58:0.25 59:0.5 61:0.25 62:-0.25 63:0.5 64:0.25 65:-0.5 66:0.5 67:-0.25 68:-0.5 71:-0.25 72:0.75 75:-0.25 76:0.5 77:-1 78:-0.25 81:1 82:1.25 84:-1 86:1 91:1.25 93:-1.25 94:0.25 97:-0.25 98:-0.25 100:-0.75 101:0.5 102:-0.5 103:0.75 104:-1.5 107:0.25 108:0.75 111:-0.25 114:-0.25 118:-1.25 120:1 122:-1 126:-1 127:-1.25 129:1.25 130:-0.25 131:-0.5 133:0.25 134:0.25 136:-0.25 139:0.25 140:0.5 141:0.5 143:0.25 144:0.25 
0 0 0 0 0 0 0 0 0 0 0 0 0 0 0 0 0 0 0 0 0 0 0 0.6900878020181918 0 0 0 0 0 0 0 0 0 1:2.5 2:3.25 3:3.5 4:2 5:1.5 6:4 7:3 8:3 9:1.25 10:4.5 11:0.25 12:1.25 13:3.75 14:3.25 16:0.25 17:0.75 18:3.25 19:3.75 20:0.5 21:1.25 22:4 23:3 24:1.25 25:1 26:1.25 27:4 28:2 29:3.5 30:4.5 31:2 32:1.25 33:3 34:3.25 35:3 36:1.25 37:-0.5 38:0.25 40:0.5 41:-0.5 45:0.25 46:-0.5 47:0.25 48:-1.25 49:1.25 50:0.25 52:0.25 53:0.25 54:-0.25 55:-1.25 56:0.5 57:-1.25 60:0.25 62:-0.25 64:-0.5 65:0.5 67:0.5 68:-0.25 70:-0.25 71:0.5 72:0.25 73:-1 74:-0.25 75:-0.5 76:1 77:-0.5 81:1.25 82:-0.5 83:0.25 84:-1.25 85:0.75 86:0.25 88:0.25 89:-0.25 90:0.75 91:-1.25 92:0.5 93:-1.25 94:0.5 96:0.25 98:-0.25 100:-1 102:-0.5 103:1 104:-1.25 106:-0.25 108:1.25 110:-0.25 112:-0.5 113:-0.5 117:0.25 118:-0.5 119:0.25 120:1.25 121:-0.75 122:-0.75 124:0.25 125:0.25 126:0.25 127:-1.25 128:0.5 129:1.25 130:-0.5 131:-1 132:0.25 134:0.25 136:-0.5 139:-0.5 140:0.25 142:-0.75 143:0.5 144:0.25 
0 0 0 0 0 0 0 0 0 0 0 0 0 0 0 0.05770221787582781 0 0 0 0 0 0 0 0 0 0 0 0 0 0 0 0 0 1:3 2:2.75 3:2.5 4:1.5 5:2 6:4 7:3.75 8:3.75 9:1.5 10:5 12:0.25 13:3 14:2.5 15:0.25 16:0.25 17:0.75 18:3 19:4.5 20:0.75 22:4 23:2.25 24:0.5 26:0.25 27:3 28:2.5 29:3.25 30:3.25 31:2.5 32:1 33:2 34:3 35:3.5 36:1.5 38:0.25 39:-0.5 41:-1 43:-0.25 44:-0.25 45:0.5 48:-0.25 50:1 51:0.25 52:-0.25 53:-0.25 54:-0.5 55:-0.5 56:0.75 58:-0.5 59:-0.25 62:-0.25 63:-1 65:0.25 66:-0.25 71:-0.5 72:0.5 73:-1 74:0.75 75:-0.5 76:1.5 77:-1 79:0.25 80:-0.25 81:0.5 84:-0.25 85:2 87:0.25 88:-0.25 89:0.25 90:-0.5 91:0.5 92:0.75 94:0.5 95:-0.25 96:0.5 98:-0.25 99:-0.5 100:-1.5 101:0.25 102:-0.25 103:1.5 104:-1 108:0.5 110:0.25 111:0.5 115:0.25 116:-0.25 117:-0.5 120:0.25 122:-0.5 123:0.25 124:0.25 125:0.25 126:-1 127:0.5 128:0.75 131:-1.75 134:0.25 135:-0.5 137:0.25 138:0.25 142:-1 144:-0.5 
0 0 0 0 0 0 0 0.5586258205591115 0 0 0.6109688418452512 0 0 0 0 0 0 0 0 0 0 0 0 0 0 0 0 0 0 0 0 0 0 1:1.5 2:2.75 3:2.75 4:2.5 5:1 6:2.5 7:3.5 8:2.5 9:1.5 10:4 11:1.25 12:1.25 13:5 14:2.5 15:1 16:1 17:1 18:2.75 19:3.5 20:1.25 21:0.25 22:3.75 23:2.75 24:0.75 25:0.75 26:0.25 27:2 28:2 29:3 30:2.25 31:3.5 32:1.5 33:4 34:3.75 35:3 36:2.5 37:-0.5 38:0.75 39:-0.25 41:-0.5 42:-0.5 43:0.5 44:0.5 47:1.25 48:-1.25 54:-0.25 56:1.25 57:-0.25 58:-0.75 59:0.25 60:-0.25 61:0.25 62:-0.25 64:-0.5 65:0.5 66:-0.25 68:-0.5 70:0.25 72:0.5 73:-1.5 74:-0.25 75:-0.25 76:1.5 77:-0.5 78:-0.5 79:0.5 80:-0.5 81:0.5 82:-1 83:1.25 84:-1.25 86:0.5 90:-1.25 91:-1.5 92:1.25 93:-0.25 94:-1.25 95:0.75 96:-0.25 97:0.25 98:-0.25 99:-1 100:-2 101:1 102:-0.75 103:0.5 104:-0.5 106:0.25 107:-0.5 108:1.5 109:0.5 110:0.75 111:-0.25 114:0.5 115:-0.5 116:-0.5 119:1.25 120:1.25 122:-1 126:-0.25 128:1.25 129:0.25 130:-0.75 131:-0.75 132:-0.25 133:-0.25 134:0.25 136:0.5 137:0.5 138:0.75 140:-0.5 142:-0.25 143:0.5 144:-0.5 
0 0 0 0 0 0 0 0 0 0 0 0 0 0 0 0 0 0 0 0 0 0 0 1.390746010232346 0 0 0 0 0 0 0 0 0 1:1.75 2:2.75 3:2.5 4:2.5 5:1.25 6:2.25 7:2 8:1.25 9:1.25 10:3.25 13:3.75 14:2.5 15:0.25 17:0.25 18:3 19:1.25 22:3.75 23:2.5 26:0.25 27:3 28:1.75 29:3.25 30:3.25 31:2.75 32:1.75 33:3 34:3 35:3.25 36:1.75 37:-0.25 38:0.25 40:-0.5 41:-0.25 42:0.25 44:-0.25 45:0.25 46:1.25 49:-1.25 51:0.25 53:-0.25 55:1.25 58:-1.25 59:0.5 62:-0.25 64:-0.25 65:0.25 66:-0.25 67:0.25 68:0.25 71:-0.25 72:0.75 73:-1.75 74:0.75 75:-0.5 76:1.5 77:-0.75 78:-0.75 79:1 80:-0.25 81:0.75 82:0.75 85:-1.25 86:1 87:0.25 89:-0.25 91:-1.25 94:-1.25 95:1.5 98:-0.25 100:-1.75 101:0.25 102:-0.25 103:0.75 104:0.25 107:-0.25 108:1.25 109:0.25 110:0.25 112:-0.5 113:-0.25 114:0.25 116:0.25 117:-0.25 118:-1.25 121:-1.25 122:-0.5 123:0.25 125:0.25 126:-1 127:-1.25 130:-1.25 131:-0.5 134:0.25 135:-1 136:0.25 137:0.25 138:0.25 139:0.25 140:-0.25 143:0.25 144:0.25 
0 0 0 0 0 0 0 0.1972217904381436 0 0 0 0 0 0.04814493620590531 0 0.1512475092616198 0 0 0 0 0 0 0 0 0 0 0 0 0 0 0 0 0 1:3 2:3.25 3:2.25 4:1 5:2 6:3 7:4 8:3.5 9:2.25 10:4 11:0.75 12:1.25 13:4 14:3 15:0.5 16:1 17:0.5 18:3.25 19:4.5 20:0.75 21:1.25 22:4.25 23:2 24:1 25:1 26:1 27:2.5 28:3.25 29:3.5 30:2.75 31:1.5 32:0.5 33:2.5 34:4 35:2.75 36:1 37:0.5 38:0.25 39:0.25 40:0.5 45:0.25 47:0.75 48:-1.25 50:0.5 54:-0.25 55:0.5 56:0.75 57:-1.25 58:-0.25 63:-0.5 64:-0.25 66:-0.25 69:-0.5 71:0.25 73:-0.5 74:0.25 75:0.25 76:1 77:-1.5 78:0.5 80:-0.5 81:1.75 82:0.5 83:0.75 84:-1.25 85:1 86:0.5 87:0.5 89:-0.5 90:-0.25 91:0.5 92:0.75 93:-1.25 94:0.75 95:0.5 100:-0.25 101:0.5 102:0.25 103:1.5 104:-0.5 105:-0.5 107:0.75 108:1 110:0.25 111:0.25 112:0.5 113:-0.5 114:0.5 117:-0.25 118:-0.5 119:0.75 120:1.25 122:-1 126:-0.75 127:-0.5 128:0.75 129:1.25 130:0.25 131:-0.5 135:-1 136:0.25 138:0.25 141:0.5 143:0.25 
0 0 0 0 0 0 0 0 0 0 0.3711203945715229 0 0 0 0 0 0 0 0 0 0 0 0 0 0 0 0 0 0 0 0 0 0 1:3.25 2:2 3:2 4:2.5 5:2.5 6:3.5 7:4 8:3 9:2 10:4.75 13:3.75 14:2 18:1.25 19:4.5 22:3.25 23:2 27:2 28:2.5 29:1.25 30:2 31:2.5 32:1.5 33:3.75 34:2 35:3.25 36:1.5 37:0.25 41:-0.5 46:-0.25 49:-0.25 54:-0.75 58:-0.25 63:-0.5 65:0.25 66:-0.5 68:-0.5 69:-0.25 71:-0.25 72:0.5 73:-0.75 76:0.5 77:-1.5 78:-0.5 80:0.5 81:1 82:0.25 85:0.75 86:2 90:-1.25 91:0.5 94:1.75 95:1.5 99:-1.5 100:0.5 101:0.25 102:-0.5 103:1.5 104:-1.5 105:0.25 107:-0.75 108:0.5 109:0.25 113:-0.5 116:-0.5 117:-1 118:0.25 121:-0.25 126:0.75 130:0.25 131:-0.5 137:0.25 140:0.5 141:0.25 143:-0.25 144:-0.5 
0 0 0 0 0 0 0 0 0 0 0 0 5.899820050595131 0 0 0 0 0 0 0 0 0 0 0.4942522502622527 0 0 0 0 0 0 0 0 0 1:4.25 2:3 3:3 4:2.5 5:3.25 6:4 7:4 8:4 9:3 10:5 13:5 14:3 18:3.5 19:5 22:4.75 23:3 26:0.5 27:4 28:4 29:3.5 30:4.5 31:3.5 32:1.5 33:4 34:3.75 35:4 36:2.5 37:0.25 41:-0.25 50:1 54:-0.5 58:-0.25 62:-0.5 68:-0.5 70:-0.25 72:0.5 73:-0.75 76:0.5 77:-0.75 81:1 86:1 90:-0.5 94:0.25 98:-0.5 100:-1 101:0.5 102:-0.5 103:1.5 104:-1.5 106:0.25 108:0.5 109:0.25 113:-0.25 122:-1 126:-0.5 130:0.25 131:-1 134:0.5 140:0.5 142:0.25 144:0.5 
0.3766375253842493 0 0.4771841979268349 0 0 0.1566155527813738 0.03971133744511063 0.1920454814806087 0 0.2468526994126154 0.3168402253418567 0 3.814142973178045 0.2107848808257035 0 0 0 0 0 0.2263095126709873 0 0 0 0 0 0.0229291412359799 0 0 0 0 0.05822717429820434 0 0 1:2 2:1.5 3:2 4:1.75 5:1.5 6:2 7:2 8:2 9:2.5 10:2.5 13:2.5 14:1.5 18:1.25 19:2.5 22:2.5 23:2 27:1.5 28:3 29:1.25 30:1.5 31:3.5 32:1.5 33:1.75 34:2 35:2 36:3 40:-0.25 41:-0.5 45:0.5 50:-0.5 54:-0.25 63:-0.5 65:-0.25 68:-0.5 69:-0.25 74:-0.5 76:0.25 77:-0.5 81:-0.5 82:2.5 85:-2.5 86:1.5 90:-1.25 91:2.5 94:-2.5 95:1 99:-1.5 100:1 101:0.25 102:-0.5 103:-0.5 104:-1.5 105:-0.25 112:0.25 113:-0.5 117:-0.5 122:-0.5 126:0.25 131:-1 135:0.5 137:-0.25 140:0.5 141:-0.25 144:-1 
0 0 0 0 0 0 0 0 0 0 0 0 0 0 0 0.05627969686047242 0 0 0 0 0 0 0 0 0 0 0 0 0 0 0 0 0 1:2.5 2:3 3:3 4:1 5:1.5 6:4 7:4 8:4 9:1.5 10:5 12:1.25 13:4.5 14:3 18:3.25 19:5 21:1 22:4.75 23:2.75 24:1 25:1 26:0.75 27:3.75 28:2.5 29:3.25 30:4 31:2.5 32:0.5 33:3 34:4 35:3.75 36:1.5 38:0.5 41:-0.5 45:0.5 48:-1.25 50:-1 54:0.75 57:-1 58:-0.25 59:-0.75 62:-0.25 63:-0.25 65:-0.25 68:-0.5 69:-0.5 71:-0.25 72:0.5 73:-0.5 74:0.5 75:-0.5 76:1 77:-1.5 81:1.5 84:-1.25 85:0.5 86:-0.5 90:0.25 93:-1 94:-0.25 95:-1.25 98:-0.25 99:-0.25 100:-0.5 101:-0.25 102:-0.5 103:1.5 104:-0.5 105:-0.5 107:0.25 108:0.5 111:0.5 113:0.5 117:0.5 120:1.25 122:-0.5 126:-0.25 129:1 130:-0.25 131:-0.75 134:-0.25 135:-0.25 137:0.25 138:0.5 140:0.5 143:0.25 144:-0.5 
0 0 0.1593490699305909 0 0 0 0.2524814316255341 0 0 0 0 0 0.01455069670960602 0 0 0 0 0 0 0 0 0 0 0 0 0 0 0 0 0 0 0 0 1:2 2:1.5 3:2 4:2 5:1.5 6:2 7:1.25 8:1.5 9:2.5 10:2 13:5 14:1.5 18:0.75 19:2.25 22:5 23:2 27:1.5 28:2.5 29:0.75 30:1.5 31:2.5 32:1 33:4 34:4 35:4 36:1.5 41:-0.5 43:0.25 44:0.5 45:0.5 50:-0.5 54:-0.75 55:0.25 63:-0.5 65:0.25 72:1 74:-0.5 76:1 77:-0.5 79:-0.25 80:0.5 81:-0.5 82:2 86:1.5 90:-0.75 91:2.25 95:1 99:-1.5 100:0.5 101:-0.25 102:-0.5 103:0.5 104:-1 108:0.5 113:-0.5 115:0.75 116:-0.5 117:-0.5 122:-0.5 126:0.75 127:0.25 131:-1 135:0.5 137:0.25 
0 0 0 0 0 0 0 0 0 0 0 0 0 0 0 0 0 0 0 0 0 0 0 0 0 0 0 2.602944511338534 0 0 0 0 0 1:2 2:2.5 3:1 4:4.5 5:1.25 6:3 7:3 8:3.75 9:1.75 10:3.75 11:1.25 13:4.25 14:2.25 15:1 16:0.5 18:3 19:4.25 21:0.5 22:3.25 23:1 26:0.75 27:3 28:2.75 29:3 30:3.25 31:1.75 32:3.5 33:3.75 34:3 35:2.5 36:1 37:-0.5 38:0.5 41:-0.25 44:0.25 45:0.75 46:-1.25 47:1.25 49:-0.25 50:0.75 54:-0.5 55:-0.75 57:-0.5 58:0.75 59:1 62:0.25 64:-0.75 65:0.5 66:-0.25 67:0.25 69:-0.25 70:0.5 71:-0.5 73:-1 74:1.5 77:-1.25 80:-0.25 81:0.75 82:-1.25 83:1.25 85:0.25 86:0.75 88:0.5 90:-0.5 91:-0.25 93:-0.5 94:1.75 95:1 98:-0.25 100:-0.75 102:-0.25 103:1.25 105:0.25 108:1 109:-0.5 110:0.5 112:-0.5 113:0.25 116:0.25 117:-0.25 118:-1.25 119:1.25 121:-0.25 122:0.25 126:-1 127:-0.25 129:0.5 130:-0.75 131:1 134:0.25 135:-1 136:-0.25 137:0.5 138:0.25 139:-0.25 140:-0.5 141:0.25 142:0.5 
0 0 0 0 0 0 0 0 0 0 0 0 3.355311997939724 0 0 0 0 0 0 0 0.3000012618184789 0 0 0 0 0 0 0 0 0 0 0 0 1:2 2:2.5 3:3.25 4:2.75 5:1.25 6:3.25 7:3 8:3 9:2.25 10:4 12:0.25 13:5 14:2.5 18:2.25 19:3.75 22:5 23:3 24:0.5 27:2 28:3 29:2.25 30:2 31:4.75 32:1.75 33:4 34:4 35:4 36:3.75 37:-1 39:-0.25 40:0.75 41:-0.75 42:0.25 45:0.75 46:-1 48:0.25 54:-0.25 55:-1.25 59:-0.5 63:-0.5 64:-1 65:0.25 67:0.25 68:-0.25 72:0.25 73:-1 75:-0.25 76:0.75 77:-0.75 78:-0.25 81:0.25 82:-1 84:-0.25 90:-1.25 91:-1.25 95:-0.5 96:0.5 99:-1 100:-1.5 101:0.25 103:0.25 104:-1.25 108:0.25 110:0.5 111:0.25 112:-0.25 113:0.25 114:-0.25 117:-0.25 118:-1 120:-0.25 122:-1.5 126:-0.75 127:-1.25 131:-1 135:-0.5 136:-0.5 137:0.25 139:-0.25 140:-0.25 144:-0.25 
0 0 0 0 0 0 0 0 0 0 0 0.1380920583486399 0.5470720825794496 0.1923572132570043 0.01156533649031618 0.8891128991464626 0 0 0 0 0 0 0 0 0 0 0 0 0 0 0 0 0 1:2.75 2:2 3:1.75 4:2.5 5:1.75 6:3.5 7:4 8:4 9:2.5 10:4.5 13:2.25 14:2 18:2 19:5 22:2.5 23:1.75 27:2 28:3.5 29:2 30:2 31:2.5 32:2 33:1.75 34:2 35:2 36:2 37:-0.25 38:0.5 39:0.25 41:-0.75 42:0.5 45:0.5 49:-0.25 50:0.5 59:0.75 66:-0.5 69:-0.25 73:-1.25 74:0.5 75:-0.25 76:-0.5 77:-0.75 81:1.5 85:-2.25 86:1.5 90:-1.5 94:-2.5 95:1.25 99:-1.5 100:-0.5 102:-0.5 103:-0.5 104:-1 105:0.25 108:1 109:-0.25 111:0.25 113:-0.25 117:-0.5 118:0.5 121:0.25 126:-0.5 131:0.25 135:-0.5 140:-1 141:0.25 144:-1 
0 0 0 0 0 0 0 0 0 0 0 0 0 0 0 0 0 0 0 0 0 0 0 3.680427077131009 0 0 0 0 0 0 0 0 0 1:2.5 2:4.5 3:2.5 4:3 5:1.5 6:4 7:4 8:4 9:1.5 10:5 13:4.75 14:4 15:0.5 18:2.75 19:5 22:4.75 23:2.5 26:0.5 27:4 28:2.5 29:2.75 30:4.5 31:4.25 32:2 33:3.75 34:3.75 35:4 36:3.25 41:-0.5 45:0.5 49:-0.25 51:0.5 54:0.25 58:-0.25 59:-0.5 62:-0.5 65:-0.25 67:-0.25 68:-1 69:0.25 70:-0.25 72:0.25 73:-0.5 74:0.5 75:-0.5 76:1 77:-1.5 81:1.5 85:-0.25 87:0.5 90:0.25 94:0.25 95:-0.5 98:-0.5 100:-0.5 101:0.25 102:-0.5 103:0.75 104:-1 105:-0.25 106:0.25 108:0.75 113:0.5 117:0.5 121:-0.25 123:0.5 126:-1.25 130:0.25 131:-1.5 134:0.5 137:0.25 139:0.25 141:0.25 142:0.25 144:-0.25 
0 0 0 0 0 0 0 0 0 0 0.6425625803576331 0 0 0 0 0 0 0 0 0 0 0 0.5935746232005127 0 0.1800881115931417 0 0 0 0 0 0 0 0 1:3 2:1.75 3:1.75 4:2.5 5:2 6:4 7:4 8:4 9:1.25 10:5 13:3 14:1.75 18:1.25 19:5 22:2.5 23:1.75 27:1.25 28:2.25 29:1.25 30:1.25 31:2.25 32:1.5 33:3 34:2 35:2.5 36:1.25 38:-0.25 39:0.25 41:-1 45:0.75 50:-0.25 54:0.25 59:-0.25 63:0.25 64:-0.25 65:-0.25 66:0.25 67:0.25 68:-0.5 71:-0.5 72:0.75 73:-1 74:0.25 75:0.25 76:0.5 77:-1 81:1.25 85:-2 86:1.25 90:-0.75 94:-2.5 95:1.75 99:-0.75 100:-0.25 101:-0.25 102:0.25 103:0.25 104:-1.5 105:1 107:-0.5 108:1.25 110:0.25 111:-0.25 117:0.75 122:-0.75 126:-0.75 131:-0.25 135:-0.75 136:0.25 137:0.25 138:0.25 139:0.25 140:0.5 143:0.5 144:0.75 
0 0.4557462636327612 0 0 0.4663470306794986 0 0.3373339226226642 0.9577505461728318 0.8426333033301233 0 0.05771064315156536 0.5901470056502737 0 0 0 0 0 0 0.0385214356866384 0.08210899459186434 0.1316668391382537 0.3052053385393013 0.1056471168708815 0.09841424717815163 0.1235754926293424 0.2545262845839577 0.1264199259623555 1.354386667516672 0.5507270070070113 0.04897521530918392 0.1682210943200444 0.3080950787888548 0 1:2 2:2.5 3:1.25 4:3.75 5:1.5 6:2 7:1.5 8:3 9:1 10:2.5 11:1.25 13:3.25 14:2.25 15:1 16:0.5 18:3 19:2.75 21:0.75 22:2 23:1.25 26:1 27:2.25 28:1.75 29:3 30:2.5 31:1.25 32:3 33:3 34:1.5 35:2 36:0.75 37:-0.5 38:0.5 39:-0.25 40:-0.75 45:0.5 47:1.25 49:-1.25 50:0.75 54:-0.5 55:1.25 57:-0.75 58:-0.5 59:0.75 63:0.25 64:-0.25 67:0.25 68:-0.5 70:0.5 72:0.25 73:-2 74:1.5 75:-0.25 76:-0.25 77:-0.5 79:0.5 81:0.5 82:-2.5 83:1.25 85:-0.75 86:0.75 88:0.5 90:-0.5 91:0.25 93:-0.75 94:2 95:1.25 99:0.75 100:-0.75 102:-0.5 103:1.25 106:0.5 108:0.75 109:0.5 110:0.5 111:0.25 112:-0.75 119:1.25 121:-1.25 122:0.25 126:-1 127:-1.25 129:0.75 130:-0.5 131:0.75 135:-1.25 136:0.25 139:0.25 140:-0.5 142:0.5 144:0.25 
0 0 0 0 0 0 0 0 0 0 0.1109945301393618 0 0 0 0.223572044656383 0 0 0 0 0 0 0 0 0 0.1532458177687243 0 0 0 0 0 0 0 0 1:2.25 2:1.25 3:2 4:2.5 5:1.25 6:3.75 7:4 8:4 9:2.25 10:4.75 13:2.5 14:1.25 18:1.75 19:5 22:2.5 23:2 27:1.25 28:3.25 29:1.75 30:1.25 31:2 32:1.5 33:2.5 34:2 35:2 36:1.5 37:0.25 38:-0.25 41:-0.75 42:0.25 45:0.75 46:0.25 49:-0.5 50:-0.25 54:0.25 63:0.25 64:-0.25 65:0.25 66:0.25 68:-0.5 72:0.5 73:-0.25 74:-0.25 76:0.5 77:-1.25 78:0.25 81:1.25 82:0.25 85:-2 86:0.75 90:-1.25 94:-2.5 95:1.5 99:-1.25 100:-0.75 101:0.25 102:-0.25 104:-1.5 105:1 108:1.5 109:-0.25 110:0.25 113:0.75 114:-0.25 117:-0.25 118:-0.25 122:-0.75 126:-0.75 131:-0.5 135:-0.25 136:-0.25 137:-0.25 138:-0.25 140:0.5 141:0.5 144:0.5 
0 0 0 0 0 0 0 0 0 0 0 0 0 0 0 0 0 0 0 0 0 0 0 0.312550050587087 0 0 0 0 0 0 0 0 0 1:2.5 2:2 3:2 4:2.5 5:2 6:2 7:2 8:2 9:2 10:2.5 13:2.5 14:2 18:2 19:2.5 22:2.5 23:2 27:2 28:2.5 29:2 30:2 31:2.5 32:2 33:2 34:2 35:2 36:2 73:0.5 76:-0.5 77:-1 81:1 82:2.5 85:-2.5 86:2 90:-2 91:2.5 94:-2.5 95:2 99:-2 100:0.5 103:-0.5 104:-1 108:1 113:-1 117:-1 140:-1 144:-1 
0 0 0 0.3006684266720351 0 0.04041148362694206 0 1.08755453051382 0 0.0898385376771358 0 0 0 0 0 0 0 0 0 0 0 0.02064356468117419 0 0 0 0 0 0 0 0 0 0 0 1:1.25 2:2.25 3:2 4:1.25 5:0.75 6:2.5 7:3 8:2 9:1 10:3.5 11:1.25 12:1.25 13:5 14:2 15:1 16:1 17:1 18:2.25 19:3 20:1.25 21:1.25 22:5 23:1.75 24:1 25:1 26:1 27:2.25 28:1.5 29:2.5 30:2.5 31:2.75 32:0.75 33:3.5 34:4 35:4 36:1.75 37:-0.25 38:0.25 39:-0.5 40:0.25 41:-0.25 42:-0.5 45:0.5 47:1.25 48:-1.25 54:0.25 56:1.25 57:-1.25 59:-0.25 63:0.25 64:-0.5 65:0.5 66:-0.5 67:0.25 68:-0.25 69:-0.5 72:0.75 73:-1.25 74:0.25 76:1.25 77:-0.75 78:-0.5 81:0.5 82:-1.5 83:1.25 84:-1.25 86:0.5 90:-1.25 91:-2 92:1.25 93:-1.25 95:0.75 99:-1.25 100:-1.5 101:0.5 102:-0.5 103:0.75 104:-0.75 105:-0.5 108:1.25 109:0.25 110:0.25 111:0.5 112:0.25 113:0.25 114:0.5 115:1 119:1.25 120:1.25 122:-0.5 126:-0.25 128:1.25 129:1.25 131:-0.25 135:-0.25 136:0.5 137:0.5 138:0.5 139:0.25 140:0.25 141:-0.5 144:0.25 
0 0 0 0 0 0 0 0 0 0 0 0 0 0 0 0 0 0 0 0 0 0 0 0.482204084330675 0 0 0 0 0 0 0 0 0 1:3 2:2.5 3:2.5 4:3 5:2.25 6:3 7:3 8:3 9:1.75 10:3.75 13:3.75 14:2.5 18:2 19:3.75 22:3.75 23:2.5 27:2.25 28:2.5 29:2 30:2.25 31:2.5 32:2.25 33:3 34:3 35:3 36:1.75 41:-1.25 45:0.25 46:1.25 49:-1.25 50:0.5 55:1.25 58:-0.75 59:0.5 63:-0.25 66:0.25 67:1 68:-1.25 72:0.25 74:0.5 75:-0.5 77:-0.75 81:1.25 82:1.25 85:-1.25 86:1.5 90:-2 91:1.25 94:-0.75 95:1.5 99:-1.75 102:-0.25 103:1 104:-0.75 108:1.25 109:-1 112:-1 113:-0.25 117:-0.25 118:-1.25 121:-1.25 122:-0.5 127:-1.25 130:-1.25 131:-0.5 135:-0.25 136:-0.5 138:-0.25 139:-0.5 140:-0.25 144:-0.25 
0 0 0 0 0 0 0 0 0 0 0 0.6264411589400553 0.3659950889447387 0 0 0 0 0 0 0 0 0 0 0.117818800794153 0 0 0 0 0 0 0 0 0 1:3 2:2 3:2 4:2.75 5:2.5 6:3 7:4 8:4 9:2.25 10:4.5 13:2.5 14:2 18:2 19:5 22:2.5 23:2 27:2 28:3.25 29:2 30:2 31:2.5 32:2.25 33:2 34:2 35:2 36:2 40:0.25 41:-0.5 45:0.25 64:-0.25 68:-0.75 72:1 76:-0.25 77:-1.5 78:-1 81:1.75 82:0.5 85:-2.5 86:2 90:-1 94:-2.5 95:2 99:-1 100:-0.25 103:0.5 104:-1.25 108:1 112:0.25 113:-0.5 117:-0.25 126:-1 135:-1 136:0.25 140:-0.25 
0 0.05494976125623885 0 0 0 0 0 0 0.1154506377347962 0 0 0 0 0 0.2969249060084394 0.0667116874604848 0 0 0 0 0 0 0.4560835352906233 0 0 0 0.3318994871552565 0 0 0 0 0.01572278092130639 0 1:3 2:2.5 3:2.5 4:3 5:2.5 6:2 7:2 8:2 9:2 10:2.5 13:2.5 14:2.5 18:1.25 19:2.5 22:2.5 23:2.5 27:1.5 28:2.5 29:1.25 30:1.5 31:2 32:2.5 33:2 34:2 35:2 36:1.5 41:-0.5 50:0.5 54:-0.25 59:0.5 63:-0.5 65:-0.25 68:-0.5 72:0.5 74:0.5 75:-0.5 77:-1.5 82:2.5 85:-2.5 86:1.5 90:-1.25 91:2.5 94:-2.5 95:1.5 99:-1.5 100:0.5 101:0.75 102:-0.5 103:-1 104:-1.5 108:0.5 113:-0.5 122:-0.5 126:0.25 131:-0.5 135:0.5 137:0.25 140:-0.5 144:-0.5 
0 0 0 0 0 0 0 2.032561769096128 0 0 0.8810286061214526 0 0 0 0 0.6985552816412236 0 0 0 0 0 0 0 0 0 0 0 0.07670926743044243 0 0 0 0 0 1:2.75 2:2.25 3:2.25 4:2 5:1.75 6:3.75 7:3.5 8:4 9:1 10:4.5 11:1.25 12:1.25 13:3.75 14:2 15:1 16:1 17:0.5 18:2.5 19:4.75 20:1 21:1 22:3.25 23:2 24:1 25:1 26:0.75 27:2.75 28:2 29:2.5 30:3 31:2 32:1.25 33:3 34:2.75 35:2.75 36:1.25 37:-0.25 38:-0.25 39:0.25 40:0.5 41:-0.75 42:-0.25 45:0.5 47:1.25 48:-1.25 49:0.25 55:-0.25 56:1 57:-1 58:1.25 62:0.25 63:-0.25 64:-0.5 65:-0.5 66:0.5 67:0.5 68:-0.25 69:-0.5 70:0.75 71:-0.25 72:0.25 73:-1.25 74:0.75 75:-0.75 76:1 77:-0.75 78:0.25 81:1 83:1.25 84:-1.25 85:1.25 86:1 89:0.5 90:-0.5 91:0.25 92:1 93:-1 94:1.25 95:0.5 98:-0.25 99:-0.25 100:-0.5 101:0.5 102:-0.5 103:1 104:-1.25 106:0.25 107:0.25 108:1.25 109:-0.25 110:0.25 111:0.25 112:-0.5 113:-0.25 114:0.25 115:0.5 117:0.5 118:-0.5 119:1.25 120:1.25 121:-0.25 122:-1 126:-1 127:0.25 128:1 129:1 130:-0.75 131:-0.5 134:0.25 135:-0.25 137:0.5 139:-0.5 140:0.25 141:0.5 142:0.25 143:0.25 144:0.25 
0.5100156124581027 0.3991090302767776 0.0723245521186849 0.6146184562243429 0 0 0.2800508606671368 0 1.026591714628428 0.4516439078659121 0.5840858975325309 0 1.710703483793619 0.2194935371266696 0.7665459516461526 0.8594675029751211 0.4169267227681552 0 0.354489520400418 0.01595051505781499 0.3775530368720697 0.3473031721692308 0.9079331893461552 0.5705053491215709 0.781075577109682 0 0.2244266700542109 0 0.5072354940372132 0.3339890028800339 0.2100774243429008 0.2447437667177306 0.1160385319378648 1:2.75 2:3.25 3:2.75 4:2.75 5:2 6:3.25 7:3.25 8:3.25 9:1.25 10:4 11:1.25 12:1.25 13:3.75 14:3 15:1 16:1 17:1.75 18:2.5 19:4.25 20:1.25 21:1.5 22:3.25 23:2.5 24:1 25:1 26:2 27:1.5 28:2 29:3.5 30:2.5 31:1.25 32:2 33:2.75 34:3.25 35:2.5 36:0.5 37:-0.75 38:0.25 39:0.25 40:0.75 41:-0.5 42:-0.25 43:-0.25 44:-0.25 45:-0.25 46:-1 47:1.25 48:-1.25 49:0.25 50:0.5 53:-0.25 54:0.5 55:-0.25 56:0.75 57:-1 58:0.75 59:0.5 62:-0.5 63:0.5 64:-0.5 67:0.25 68:-0.5 69:0.25 70:0.25 71:-0.5 72:0.5 73:-1.25 74:0.25 75:-0.25 76:0.75 77:-1 78:-0.25 79:-0.25 80:0.75 81:-1.25 82:-1 83:1.25 84:-1.25 85:0.75 86:0.5 89:-1.25 90:0.5 91:-0.25 92:1.25 93:-1.5 94:1.25 95:0.5 98:-1 99:1.5 100:-1 101:0.5 102:0.5 103:0.75 104:-1 105:-0.25 106:0.25 107:-0.5 108:0.5 109:-0.75 110:0.25 111:0.25 112:-0.25 113:-0.5 114:0.25 115:0.25 116:0.25 117:0.25 118:-1 119:1.25 120:1.25 121:-0.75 122:-1 125:0.75 126:0.5 127:0.25 128:0.75 129:1 130:-1.25 131:-0.5 134:0.5 135:0.5 136:-0.5 139:-0.25 140:-0.5 141:0.25 142:0.25 143:-0.5 144:0.5 
0 0 0 0 0 0 0 0 0 0 0 0 0.5467596005752407 0 0 0 0 0 0 0 0 0 0 0 0 0 0 0 0 0 0 0 0 1:3 2:2.75 3:2.75 4:2.75 5:2 6:3.75 7:4 8:4 9:2.25 10:4.75 13:2.5 14:2.75 18:2.5 19:5 22:4.75 23:2.75 27:2.25 28:3.25 29:2.5 30:2.25 31:2.75 32:2.25 33:2 34:3 35:3.75 36:1.75 37:-0.5 38:-0.25 39:0.25 40:0.25 41:-0.5 42:0.25 45:0.75 46:0.25 50:0.25 54:-0.5 58:0.25 59:0.75 63:0.25 64:-0.25 66:0.25 67:0.25 68:-0.75 71:-0.25 72:0.25 73:-1 74:0.25 75:0.25 76:0.25 77:-1 78:0.25 81:1.25 82:-0.25 85:-2.5 86:0.25 94:0.25 95:0.75 99:-0.25 100:-0.75 101:-0.5 102:0.25 103:0.25 104:-1.25 106:-1 107:-0.25 108:1.75 109:-0.5 110:0.25 111:-0.25 112:-0.25 113:-0.5 114:-0.25 117:-0.25 118:0.25 122:-1.25 126:-1 130:-0.25 131:-1.25 135:-1.25 136:-0.25 138:0.25 139:-0.25 140:-0.25 143:-0.25 144:0.25 
0 0 0 0 0 0 0 0 0 0 0 0 0 0 0 0 0 0 0 0 0 0 0 0.3494016637868653 0 0 0 0 0 0 0 0 0 1:2 2:2.25 3:2 4:1.5 5:1.5 6:2 7:2 8:2 9:2.25 10:2.5 13:3.75 14:2.25 18:1.75 19:2.5 22:3 23:2 26:0.25 27:2.25 28:2.75 29:1.75 30:2.5 31:1.5 32:1 33:2.75 34:3 35:2 36:1 38:-0.25 40:-0.5 41:-0.5 45:-0.25 49:-1.25 50:0.25 54:0.25 58:-1.5 62:-0.25 63:-0.25 64:-0.25 65:0.25 69:-0.25 74:0.25 76:1 77:-1 81:1.25 82:2.5 85:-1.25 86:1.25 90:-1.75 91:2.5 94:-0.5 95:0.5 98:-0.25 99:-0.75 100:0.25 101:0.25 102:-0.5 103:1.5 104:-1 105:-0.25 107:0.5 108:1 110:-0.25 117:-0.25 121:-1.25 122:-0.75 126:-0.25 130:-1 131:-0.5 134:0.25 135:-0.25 136:0.25 137:-0.25 141:-0.25 143:0.5 
0 0 0 0 0 0 0 0 0 0 0 0 0 0 0 0 0 0 0 0 0 0 0 0.4340571640763936 0 0 0 0 0 0 0 0 0 1:2.25 2:2 3:1.75 4:2.25 5:1.5 6:3 7:3 8:3 9:1.75 10:3.75 13:3.75 14:2 18:2 19:3.75 22:3.75 23:1.75 27:2 28:2.5 29:2 30:2 31:2.25 32:1.5 33:3 34:3 35:3 36:1.5 37:0.25 39:0.25 40:-0.25 41:-0.5 45:0.75 46:1.25 49:-1.25 55:1.25 58:-1.25 59:-0.25 64:0.5 67:-0.25 68:-0.5 72:0.5 73:-0.25 75:0.25 76:0.25 77:-1 81:0.75 82:1.25 85:-1.25 86:1 90:-1.5 91:1.25 94:-1.25 95:1.25 99:-1 100:-0.5 102:-0.5 103:0.25 104:-1 108:1 109:-0.25 111:-0.25 112:-0.25 117:-0.25 118:-1.25 121:-1.25 122:-1 126:-0.5 127:-1.25 130:-1.25 131:-0.75 135:-1 136:-0.5 138:-0.5 139:-0.25 
0 0 0.007828364308305661 0.02982661559940759 0 0 0.1319076458817239 0 1.128335758680179 0 0 0 0 0 0 0 0 0 0 0 0 0 0 0 0 0 0.256109191334912 0 0 0 0 0 0 1:0.5 2:2 3:1.75 4:2.75 6:2.25 7:3 8:1.75 9:2 10:3.25 11:0.5 13:3 14:2 15:0.5 18:1.75 19:2.75 21:0.5 22:3 23:1.75 26:0.75 27:1.25 28:2.5 29:1.75 30:1.5 31:0.5 32:2.25 33:2 34:3 35:2 39:0.25 40:0.25 42:-0.25 44:-0.25 45:0.5 46:-0.75 47:0.5 49:0.5 54:-0.25 55:-0.75 57:-0.5 58:0.5 59:0.25 62:-0.25 63:0.25 64:-0.5 65:-0.25 68:-0.25 73:-0.5 75:-0.25 76:-0.75 78:-0.25 80:-0.25 81:0.5 82:-1.75 83:0.5 85:-1 86:0.5 90:-1.75 91:0.75 93:-0.5 94:2 95:1.75 98:-0.25 99:-0.25 100:0.5 101:0.25 103:0.5 104:0.25 111:0.25 112:-0.25 114:0.25 116:-0.25 117:-1 118:-0.75 119:0.5 121:-0.5 122:-0.5 123:-0.5 126:0.25 127:-0.75 129:0.5 130:-0.5 131:0.25 134:-0.25 135:-0.25 136:-0.5 137:0.25 138:0.5 140:-0.25 
0 0 0 0 0 0.5260760346704746 0 0.4718074066712293 0 0 0 1.522950980421099 0 0.7967289937871784 0.02990301729421181 0.8852055391421192 0 0 0 0.2462842235529746 0 0 0 0 0 0 0.1029982501622512 0 0 0 0 0 0.06437058458429887 1:0.75 2:2.5 3:1.75 4:3 5:0.25 6:2 7:2.25 8:2.5 9:2.25 10:2.25 11:0.75 13:2 14:2.25 15:1 18:2 19:3.5 22:2.25 23:1.75 27:2 28:2.75 29:2 30:2 31:1 32:2.5 33:1.75 34:1.75 35:1.5 36:0.75 37:-0.25 39:0.25 41:-0.25 43:-0.25 45:0.25 46:0.25 47:0.75 49:0.5 50:-0.25 55:1 58:-0.25 59:0.25 64:-0.25 69:0.25 70:0.25 72:0.25 73:-0.75 74:0.5 75:-0.25 76:-0.5 77:-0.25 79:-0.75 80:0.5 81:0.75 82:-1.75 83:0.75 85:-2 86:-0.25 90:-1.5 91:1.5 94:0.25 95:1.75 100:-0.25 101:0.5 103:1 105:-0.25 106:-0.25 107:0.5 108:0.75 109:0.25 111:0.25 112:-0.5 113:0.25 115:-0.25 117:-0.25 118:-0.75 119:0.75 121:-0.5 122:-0.75 126:-0.5 127:-1 130:-2.25 131:0.25 135:-1 136:-0.25 137:0.5 140:-0.5 141:0.25 142:0.25 144:0.25 
0 0.2192823308683294 0 0 0 0 0.1527051512177376 0 0.516832148082797 0 0 0 0 0 0.002002999428617686 0 0 0 0 0 0.216113532211303 0 0.2125207332335173 0 0.2953647151334595 0.1438282440469398 0.02772044879444637 0 0 0 0 0 0 1:2.25 2:2 3:2.25 4:1.5 5:1.75 6:2.5 7:3 8:0.75 9:0.5 10:3.5 13:3 14:2 17:0.75 18:2 19:2 20:0.5 22:3 23:2.25 27:1 28:0.75 29:2.25 30:1 31:2.25 32:1 33:2.5 34:2.25 35:2 36:2 37:-0.75 39:-0.25 40:1 41:-0.25 44:-0.25 46:-1 49:0.5 53:-0.25 55:-1 56:0.5 58:-1 59:-0.25 63:-1 64:-0.75 65:0.75 67:-0.25 68:-0.5 70:-0.25 73:-0.25 75:-0.25 76:0.5 77:-1.25 78:-0.5 80:0.25 81:0.5 82:-1 85:0.5 86:1.5 89:-0.25 91:-1 92:0.5 94:-1 95:0.25 99:-1 100:-0.75 101:0.75 103:-0.25 104:-1 105:-0.5 106:-0.25 107:1 109:-0.25 111:0.25 113:-0.25 116:0.25 118:-1.5 121:-2 122:-0.5 125:-0.25 126:-1 128:0.5 130:-1 131:-1.25 135:1 136:0.75 137:0.25 139:0.25 140:0.5 142:0.25 144:-1 
0 0 0 0 0 0 0 0 0 0 0.1740705829671673 0 1.176277862570315 0 0 0 0 0 0 0 0 0 0 0 0 0 0 0 0 0 0 0 0 1:3 2:1.5 3:2.25 4:2 5:2.25 6:3 7:2.25 8:3 9:1.25 10:3.5 13:3.75 14:1.5 18:2 19:3.25 22:3.75 23:2.25 27:1 28:2 29:2 30:1 31:3.25 32:1.25 33:3 34:3 35:3 36:2.5 37:0.5 39:-0.25 40:1 41:-0.25 43:-0.25 45:0.75 46:1.5 49:1.25 50:0.5 55:-0.75 58:-1.25 59:-0.25 63:-1 64:-1 67:-0.25 68:-0.75 72:0.5 75:-0.25 76:1 77:-0.75 79:0.25 81:0.75 82:1 85:1.25 86:1.5 90:-1.5 91:-0.75 94:-1.25 95:1.25 99:-1 100:-1 103:-0.25 104:-0.75 108:0.5 109:-0.5 110:0.5 111:0.25 113:-0.25 115:-0.25 117:0.25 118:-1 121:-1.25 122:0.5 126:-0.5 127:-1.75 130:-1.25 131:-0.25 135:1 139:-0.75 140:0.25 144:-0.5 
0 0 0 0 0 0 0 0 0 0 0 0 0 0 0 0 0.2483332306301067 0 0 0 0 0 0 0 0 0 0 0 0 0 0 0 0 1:2.25 2:1.25 3:2.25 4:2.5 5:1.75 6:2.25 7:2.75 8:2.25 9:0.75 10:3.25 13:3.75 14:1.25 17:0.5 18:2.25 19:3 20:0.25 22:3 23:2.25 27:1.5 28:1.25 29:2.5 30:1.5 31:3 32:1.75 33:3 34:3 35:2 36:2.5 37:-0.25 38:0.25 39:-0.75 40:0.5 41:-0.25 42:0.25 43:-0.25 44:0.25 45:-0.25 46:-1.25 49:1.25 50:0.75 54:0.25 55:-0.5 56:0.25 58:0.5 59:0.25 63:-0.5 64:0.25 65:0.5 67:0.5 68:-0.75 73:0.25 74:0.25 75:-0.75 76:1.5 77:-0.75 78:-0.75 79:0.25 80:0.25 81:0.75 82:-0.75 85:1.25 86:1.25 89:-0.5 90:-0.75 91:-2 92:0.25 94:-1 95:1.25 99:-1.5 100:-1.25 101:0.5 104:-0.75 109:-0.25 110:0.25 111:0.25 112:-0.5 113:-0.75 114:0.25 115:0.25 116:0.25 117:-0.25 118:-1.25 121:-1.25 122:0.75 126:-0.75 127:-0.5 128:0.25 130:-0.5 131:0.25 135:0.5 136:-0.25 137:0.5 138:0.5 139:-0.5 140:-0.25 144:-0.5 
0 0 0 0 0 0 0 0 0 0 0 0 0.8837368084439776 0 0 0 0 0 0 0 0 0 0 0 0 0 0 0 0 0 0 0 0 1:3 2:3 3:2 4:3.25 5:2 6:4 7:4 8:4 9:2 10:5 11:1.25 13:4.75 14:2.75 15:1 16:1 17:1 18:2.75 19:5 20:1.25 22:5 23:2 27:2 28:3 29:3 30:2 31:3.5 32:2.25 33:3.75 34:4 35:4 36:2.5 38:0.5 40:-0.25 41:-1 45:1 47:1.25 49:-0.25 50:0.25 54:-0.25 56:1.25 65:0.5 68:-0.25 69:-0.25 72:0.5 73:-1 74:1 76:0.75 77:-1 81:1 83:1.25 85:0.25 86:1.25 90:-0.75 92:1.25 95:1.5 99:-1.5 100:-1 101:0.5 103:0.5 104:-1.25 105:0.25 108:1.5 110:0.5 112:0.25 119:1.25 121:0.25 122:-0.25 126:-0.75 128:1.25 131:-0.5 135:-0.5 140:-0.75 141:0.25 144:-0.5 
0 0 0 0 0 0 0 0 0 0 0 0 3.795254565701054 0 0 0 0 0 0 0 0 0 0 0 0 0 0 0 0 0 0 0 0 1:3.5 2:2.75 3:2 4:2.5 5:2.5 6:3.75 7:4 8:4 9:2.5 10:4.75 13:4.75 14:2.75 18:2 19:5 22:5 23:2 27:2 28:3.5 29:2 30:2 31:3.5 32:1.5 33:3.75 34:4 35:4 36:2.5 38:0.25 41:-0.5 42:0.25 45:0.5 46:0.25 49:-0.25 50:0.75 68:-0.5 69:-0.25 72:0.5 73:-0.5 74:0.25 76:0.5 77:-1.5 78:-0.25 81:1.5 82:0.25 85:-0.25 86:1.25 90:-1.5 95:0.5 99:-1.5 100:-0.5 103:0.5 104:-1.5 105:0.25 108:1.5 110:-0.25 113:-0.5 114:0.25 117:-0.5 118:-0.25 121:-0.25 122:-0.75 126:-0.5 131:-1.5 135:-0.5 140:0.5 141:0.25 144:-0.5 
0 0 0 0 0 0 0 0 0.1015853447070012 0 0 0 0 0 0 0.1015579748210439 0.5465563362491055 0 0 0.08922104027530815 0.2654125364267912 0.3887756996909565 0 0 0.06977810315570265 0 0.01550289515093525 0.2003640577271547 0.09407655672293346 0.02157258709135452 0 0.05666583357390362 0 1:2.25 2:1 3:1.75 4:0.5 5:1.5 6:2.75 7:2 8:2.25 9:0.25 10:3 13:3.25 14:1 18:1.25 19:3 22:2.5 23:1.75 27:1.75 28:0.5 29:1.25 30:1.75 31:2 32:0.25 33:2 34:2.75 35:2 36:1.25 37:-0.25 39:-0.25 40:0.5 42:0.25 44:0.25 45:0.25 46:0.5 49:1.25 50:-0.5 54:0.25 55:-0.5 59:-0.25 63:-0.25 64:-0.5 65:-0.25 66:-0.25 68:-0.25 70:0.25 72:0.25 73:-0.25 74:-0.5 75:-0.25 76:0.5 77:-1 78:0.25 80:0.25 81:0.25 82:0.5 85:1.25 86:1 90:-0.75 91:-1 94:0.5 95:-0.25 99:-1.75 100:-0.5 101:-0.25 102:-0.25 104:-0.25 105:-1 106:0.25 107:-0.5 108:0.75 109:-0.75 110:0.5 111:-0.25 112:0.5 113:-0.5 114:-0.25 116:-0.75 117:0.25 118:-2 121:-0.75 122:-0.5 126:-0.75 127:-1.5 130:-2 131:-1.25 135:0.25 136:0.5 137:0.25 138:-0.25 139:-1 140:0.25 142:-0.25 143:0.5 144:-0.25 
0 0 0 0.1502292069474694 0.09193943631625473 0 0 1.972307724252323 0 0.1091442124022793 0 0 0 0 0 0 0.2984270749313851 0.06867778845407049 0 0 0.07354087595461976 0.2590156156069172 0 0 0 0 0 0.2344823740387549 0 0 0 0 0 1:1.5 2:2.25 3:2 4:3 5:1 6:2 7:1.75 8:2.5 9:1.5 10:2.5 11:1.25 13:4.5 14:2 15:1 16:1 17:1 18:2.5 19:2.75 20:1.25 22:5 23:2 27:2 28:2 29:2.75 30:2 31:3.75 32:2 33:3.5 34:4 35:4 36:2.75 38:0.25 43:0.25 44:0.5 45:0.5 47:1.25 55:-0.25 56:1.25 63:-0.5 65:0.75 66:-0.5 67:-0.25 68:-0.5 69:0.5 72:1.25 73:-1.5 74:0.25 77:-1 79:0.25 80:-0.5 81:0.5 82:-2.5 83:1.25 85:-0.5 90:-1 91:-1.75 92:1.25 95:1.5 99:-1.5 100:-2 101:0.25 103:-0.25 104:-1 105:0.5 108:0.75 110:0.25 115:-0.25 116:-0.5 117:-0.5 119:1.25 122:-1 126:-0.5 127:0.25 128:1.25 131:-0.5 137:0.25 138:0.5 139:-0.25 140:-0.5 141:-0.5 144:-0.75 
0 0 0 0 0 0 0 0 0 0 0 0 0 0 0 0.1545339170241763 0 0 0 0 0 0 0 0 0 0 0 0 0 0 0 0 0 1:2.25 2:2 3:1.5 4:1.5 5:1.5 6:2.25 7:3 8:2.25 9:0.25 10:3 13:3 14:2 18:1.25 19:3.5 22:3.75 23:1.5 27:1.5 28:0.5 29:1.25 30:1.5 31:2.25 32:1 33:2 34:3 35:3 36:1.5 37:-0.25 40:0.5 42:0.25 44:0.25 45:0.25 46:-0.5 49:-0.5 54:-0.25 55:-1 58:-1.25 63:0.5 64:-0.5 65:-0.25 66:0.5 67:-0.25 68:-0.5 72:0.5 73:-0.25 76:0.5 77:-1 78:0.25 80:0.25 81:0.25 82:-0.5 85:-1 86:2 90:0.25 91:-1.5 94:-1.25 95:1.5 99:-1.5 100:-0.5 101:0.25 103:-0.25 104:-1 105:-0.5 108:1 109:-0.75 111:-0.5 112:-0.5 113:-0.5 114:0.25 116:-0.75 117:0.25 118:-2 121:-1.5 126:-1.25 127:-1 130:-1.25 135:-0.5 136:0.5 137:-0.25 139:-0.75 140:0.5 141:0.5 
0 0 0 0 0 0 0 0 0.3180559883330564 0 0 0 0 0 0 0 0 0 0 0 0 0 0 0 0 0 0 0 0 0 0 0 0 1:2 2:1.75 3:1.25 4:1.5 5:1.5 6:2 7:3 8:1.75 9:0.25 10:3 13:3.75 14:1.75 18:2 19:3 22:2.25 23:1.25 27:1.75 28:0.5 29:2 30:1.75 31:1.75 32:1 33:2.75 34:3 35:1 36:1.5 38:0.25 39:-0.25 40:0.5 44:-0.25 45:0.25 46:-0.5 49:-1.25 50:0.25 54:1 55:-1 58:-1.25 59:-0.25 63:0.25 64:-0.5 66:-0.25 67:-0.25 68:-0.5 69:-0.25 72:0.5 73:-0.5 74:0.25 75:0.25 76:0.5 77:-1 80:1.25 81:0.25 82:-0.5 85:-1.25 86:1.75 91:-1 94:-1.25 95:1.25 99:-1.75 100:-0.5 101:0.5 102:-0.25 103:-0.75 104:-0.5 105:-0.25 109:-0.5 110:-0.25 111:-0.25 112:-0.5 113:-0.5 116:0.25 117:0.25 118:-2 121:-1.25 122:0.25 126:-1 127:-1 130:0.25 131:-0.25 135:-0.25 136:0.5 137:-0.5 138:-0.25 139:0.25 141:-0.25 144:-1 
0 0 0 0 0 0 0 0 0 0 0 0 0 0 0 0 0 0 0 0 0 0 0 0.9990634846878364 0 0 0 0 0 0.03638037233279867 0 0 0 1:2.5 2:1.5 3:1.25 4:1.25 5:1.75 6:3 7:2.75 8:2.5 9:1 10:3.75 13:3.75 14:1.5 18:1.25 19:3 22:2.25 23:1.25 27:1.5 28:1.75 29:1.25 30:1.5 31:2.25 32:0.75 33:2.75 34:3 35:1 36:2 39:0.25 40:0.25 41:-0.25 43:0.25 45:0.5 46:1.25 49:-1.25 50:-0.5 54:0.25 58:-1.25 59:-0.75 63:-0.5 64:-0.75 65:0.25 67:-0.25 68:-0.25 69:-0.25 74:-0.5 75:0.25 76:0.25 77:-1.25 79:0.25 80:-0.5 81:1 82:1.25 85:-1.25 86:1.5 90:-1.25 94:-1.25 95:1.25 99:-1.5 100:-0.75 101:-0.25 102:-0.5 103:-0.25 104:-0.75 105:-0.25 109:-0.5 111:0.25 112:-0.75 113:-0.25 115:-0.25 117:0.5 118:-1.25 121:-1.25 122:-0.5 126:-0.25 127:-2 130:0.25 131:-0.75 135:0.5 136:-0.25 137:-0.25 139:0.25 140:0.25 141:-0.25 144:-1 
0 0 0 0 0 0 0 0.7150229988251685 0 0 0.04299352296421169 0 0 0 0 0 0 0 0 0 0 0 0 0 0.08365185457232505 0 0 0 0 0 0 0 0 1:2 2:1.5 3:1.5 4:1 5:1.25 6:2.5 7:2 8:2.75 9:1 10:2.5 13:3.5 14:1.5 18:1.5 19:3.25 22:2.5 23:1.5 27:1.25 28:1.75 29:1.5 30:1.25 31:2.75 32:0.25 33:3 34:1.75 35:2.75 36:2 38:-0.5 40:0.5 41:-0.25 44:-0.25 45:0.5 46:0.5 49:1 55:-0.75 58:-0.5 59:-0.5 63:-0.75 64:-0.75 66:-0.25 67:-0.25 68:-0.25 70:0.25 71:-0.25 72:1 73:-0.5 76:0.5 77:-0.75 78:0.5 79:-0.5 80:-0.25 81:1 85:1 86:1.5 90:-1.5 91:-0.75 94:-0.5 95:1 99:-1.25 100:-0.75 102:-0.25 103:-0.25 104:-0.25 106:0.75 107:-0.25 108:0.5 109:-0.5 111:0.5 113:-0.25 115:0.5 116:-0.25 117:0.5 118:-2 121:-1.5 127:-1.75 130:-1.5 131:-1 135:0.75 136:-0.25 137:-0.5 138:0.25 139:-1.25 140:0.25 142:0.25 143:-0.25 144:-0.5 
