svm_type c_svc
kernel_type rbf
gamma 0.0078125
nr_class 31
total_sv 1289
rho -0.238915 -0.356986 0.0118633 -0.124911 -0.221639 -0.178486 -0.35215 0.0364023 0.0767918 -0.12569 -0.104507 -0.177038 -0.134386 -0.257722 -0.364568 -0.235685 -0.101833 -0.315726 0.00530858 -0.308678 0.130324 -0.174159 -0.077807 -0.406532 -0.00575378 -0.377648 0.213084 -0.391703 -0.517699 0.0700602 -0.291308 0.245004 0.230968 -0.0183525 0.10622 -0.202379 0.307943 0.526604 0.325222 0.114522 0.0267798 0.129635 -0.14498 0.0502325 -0.0742949 0.120735 -0.211241 0.344373 -0.252846 0.414541 0.13347 0.241208 -0.394525 0.294544 -0.111235 0.623047 -0.412894 -0.280595 0.400716 0.392848 0.377637 0.245526 0.188033 -0.000804363 0.475711 0.722924 0.55995 0.217381 0.266236 0.304379 -0.0665861 0.252252 0.131542 0.272298 0.0295785 0.611893 -0.138259 0.587982 0.442101 0.454229 -0.283288 0.661162 0.012847 0.874184 -0.193214 -0.187243 0.713099 -0.15274 -0.118134 -0.144108 -0.313787 0.135122 0.222999 -0.0354308 -0.11926 -0.211572 -0.0399028 -0.254123 -0.217811 -0.256584 -0.0753626 -0.322465 -0.0263379 -0.338607 0.131779 -0.113011 0.0284322 -0.51863 -0.0157459 -0.30537 0.299014 -0.3947 -0.343979 0.0466519 -0.0606334 0.00665642 -0.213859 0.454359 0.52565 0.147924 0.063324 -0.0363978 0.191454 -0.30833 -0.0947298 -0.181972 0.160402 -0.288009 0.164502 -0.286098 0.525243 0.11901 0.209741 -0.492267 0.167819 -0.175628 0.747903 -0.342461 -0.264651 0.313106 0.00945688 -0.160589 0.295579 0.36757 0.176679 0.0574903 -0.0323114 0.0695812 -0.122136 -0.0205832 -0.0922624 0.140172 -0.12352 0.178411 -0.297006 0.406397 -0.00826064 0.246478 -0.334793 0.203073 -0.107021 0.430918 -0.310347 -0.216365 0.239087 -0.216989 0.35005 0.440752 0.22512 0.0789428 0.0109556 0.213456 -0.350985 0.00646223 -0.155106 0.167215 -0.159297 0.368905 -0.260136 0.545449 0.102346 0.282361 -0.365771 0.258931 -0.183136 0.716573 -0.352158 -0.245665 0.395765 0.399381 0.60711 0.464144 0.249882 0.200276 0.254676 0.0552348 0.235826 0.0935443 0.247764 0.0950753 0.394486 0.00998471 0.433974 0.236827 0.292609 -0.116516 0.392232 0.0406566 0.581833 -0.133558 -0.0526544 0.520592 0.151784 -0.104192 -0.228929 -0.186581 -0.216452 -0.662011 -0.393992 -0.251586 -0.471669 -0.452673 -0.130329 -0.611371 0.174794 -0.2844 -0.0989565 -0.785816 -0.128648 -0.470943 0.44906 -0.599229 -0.568016 0.0561106 -0.232817 -0.280882 -0.262397 -0.280786 -0.858411 -0.50824 -0.438466 -0.311824 -0.512718 -0.216543 -0.604328 -0.011006 -0.289883 -0.220492 -0.804626 -0.201776 -0.594221 0.343579 -0.582733 -0.529189 -0.050625 -0.0174247 -0.158965 -0.0497208 -0.41701 -0.323888 -0.332332 -0.0235203 -0.396339 0.0558995 -0.316169 0.223938 -0.129343 0.0259137 -0.612603 0.0438027 -0.514629 0.36931 -0.545602 -0.399538 0.104148 -0.0365288 0.278042 -0.217436 -0.0927793 -0.198367 0.0425842 -0.209252 0.179101 -0.390698 0.505684 -0.0303598 0.115918 -0.375887 0.0529983 -0.238678 0.423741 -0.367004 -0.298354 0.200471 0.0574455 -0.127345 -0.0524644 -0.118285 0.0771975 -0.0859705 0.150268 -0.267134 0.302114 -0.0605893 0.166182 -0.295415 0.113955 -0.131301 0.35687 -0.348875 -0.214581 0.275999 -0.437593 -0.0688322 -0.184932 -0.0628372 -0.320385 0.197746 -0.329256 0.245376 -0.018101 0.183881 -0.490893 0.108338 -0.256041 0.660497 -0.407093 -0.335226 0.259108 0.125523 0.170612 0.346849 0.086798 0.560268 -0.04778 0.651592 0.329508 0.399606 -0.161486 0.495609 0.0239609 0.979572 -0.22933 -0.142634 0.546214 -0.0765409 0.11712 -0.169497 0.387683 -0.231743 0.325594 0.146628 0.188179 -0.361215 0.313595 -0.169429 0.525829 -0.347504 -0.221496 0.465555 0.144659 -0.0401806 0.324617 -0.161436 0.374946 0.13879 0.269553 -0.202401 0.189671 -0.0558005 0.526561 -0.337152 -0.170154 0.314492 -0.263103 0.169752 -0.331216 0.37851 -0.0021593 0.243974 -0.49381 0.0956885 -0.247198 0.521912 -0.426537 -0.334757 0.199231 0.431053 -0.100401 0.493868 0.343373 0.375597 -0.183088 0.482254 0.025317 0.788186 -0.207314 -0.160027 0.561748 -0.512422 0.171706 -0.237765 0.0376957 -0.691656 -0.0543774 -0.476539 0.443843 -0.562217 -0.482538 0.177826 0.690368 0.47875 0.409672 0.0119877 0.486554 0.167808 0.738691 -0.0416738 -0.0592605 0.504715 -0.354217 -0.151381 -0.70094 -0.280664 -0.404362 0.230504 -0.632992 -0.47146 -0.16469 0.0978882 -0.498829 0.147644 -0.255709 0.573693 -0.346637 -0.413929 0.284501 -0.574912 0.0200758 -0.403265 0.414325 -0.4361 -0.427866 0.223086 0.618007 0.235401 0.99734 -0.0468355 0.0676325 0.789841 -0.358483 0.513757 -0.521115 -0.460579 0.231345 0.787935 -0.271277 -0.162893 0.615668 -0.682618 -0.652304 -0.32414 0.069725 0.597128 0.527387
label 35 36 37 38 39 40 41 42 43 44 45 46 47 48 49 50 51 52 53 54 55 56 57 58 59 60 61 62 63 64 65
nr_sv 37 25 33 23 29 18 42 50 46 106 63 29 33 52 29 31 18 30 16 41 59 51 71 51 10 72 21 87 19 5 92
SV
0 0 0 0 0.1496475675510526 0 0 0 0 0 0 0.02374434617206693 0 0 0 0 0 0.4585684065561779 0 0 0 0.5004072925710283 0 0 0.009130348205768907 0 0.3249365426701802 0 0.08685159501976551 0 1:2 4:2.75 5:1.25 6:3 7:3 8:3 9:0.75 10:3.75 13:3.5 19:3.75 21:2.25 22:3.75 25:0.75 26:2 27:1 28:1.5 30:1.5 31:3.75 32:2 33:2.75 34:3 35:3 36:3 37:0.5 40:-1.25 41:-0.25 45:0.25 46:1.25 49:-1.5 55:1.25 57:0.25 58:-1.25 61:-0.25 64:0.5 67:-1.25 69:0.25 73:1 76:-0.25 77:-1.25 81:0.75 82:1.25 85:-1 91:1.25 93:2.25 94:-1.25 97:-0.75 99:1 100:1 102:1.5 103:-1.25 104:-0.5 105:-0.25 109:-0.5 112:-1.25 113:0.25 117:0.25 118:-1.25 121:-1 127:-1.25 129:0.25 130:-1.25 133:0.25 139:-1.25 140:-0.5 141:0.25 
0.03382921586013804 0.001500644766836227 0.3568169560002139 0.4857031509058341 0 0.1968301240107692 0 0.2237637449716222 0.6006261268616719 0.2677168898982066 0.4159903953102159 0.1090941510855474 0.1916121882042684 0.1226656625969503 0.1069768163387874 0 0.07483524602200128 0.2083609428574433 0.1247012356495944 0.1028575188656187 0.1932280236233291 0.3084121538447632 0.5604025603827588 0.3172329194786577 0.7278670085542883 0.2094057664325509 0.5723438607156802 0.0357256099106668 0 0.8116042390522898 1:2.25 2:1 3:1.5 4:2.5 5:1.75 6:2 7:2 8:2 9:2.25 10:2.5 11:1.25 12:3.5 13:2.5 14:0.75 15:1 16:1 17:1 18:1 19:2.5 20:1.25 21:3.75 22:2.5 23:0.75 24:2.75 25:3 26:3 27:3 28:2.75 29:1.25 30:3.75 31:2.5 32:2 33:2 34:2 35:2 36:2 37:0.25 38:-1 39:1 41:0.25 45:0.25 47:-1.25 48:1.5 50:-0.25 56:-1.25 57:1.25 59:-0.25 60:0.25 64:0.25 65:-1.25 66:1.25 73:-2.25 74:-1 75:1 76:-2.5 77:0.25 81:-0.75 82:-2.5 83:-1.25 84:1 85:-2.5 86:-0.25 91:-2.5 92:-1.25 93:1.25 94:-2.5 95:-0.25 96:0.25 100:-0.75 101:-1.25 102:1.25 103:-2.5 109:-0.25 110:1 111:0.5 113:-0.25 117:-0.75 119:1.25 120:-1 122:-0.25 128:1.25 129:-1.25 131:-0.25 132:-0.25 136:-0.25 137:1.25 138:-1.25 
0.8812253826675837 0.4412709700046285 0.2119982711510625 0.5980150223897863 0.04150529664222222 1.201493660070503 0.5178615402513558 0.4671195201885997 0.9516396612472897 1.046299957966706 0.6905070539783137 0.8440884639157068 0.5322319949659359 0.8004950650471702 0.6439192599197083 1.212264628883207 0.5937433695333957 0.7305898912725825 0.7933723305329038 0.5206050605056962 0.5551601195831706 0.7857745554113569 0.4968330316080689 0.3740251617077003 0.5190884930435219 1.046501769063804 1.455528438750714 0.7334480927524749 0.6394626733969995 0.8701116161123128 1:1.25 2:1.25 3:1 4:3.25 5:1 6:1 7:1 8:1 9:1.5 10:1.25 11:1.25 12:1.25 13:1.25 14:1 15:1 16:1 17:1 18:0.75 19:1.25 20:1.25 21:1.25 22:1.25 23:0.75 24:1 25:1 26:1 27:1.25 28:1.75 29:1 30:1.5 31:2.25 32:3 33:1 34:1 35:1.25 36:1.75 37:-1.25 38:-0.75 39:1 40:1.25 46:-1.25 47:-1.25 48:1.25 49:1.25 54:0.25 55:-1.25 56:-1.25 57:1.25 58:1.25 59:-0.25 63:0.25 64:-0.75 65:-1 66:0.5 67:-0.25 71:-0.25 72:-0.25 73:1.25 74:-1.25 75:1 76:0.75 81:-0.5 82:1.25 83:-1.25 84:1.25 85:-1.25 86:-0.5 90:0.25 91:1.25 92:-1.25 93:1.25 94:-1.25 95:-0.25 99:0.75 100:1.75 101:-1 102:1.5 103:-2.25 107:-0.25 108:0.25 109:-1.25 110:0.75 111:1 112:-1.25 118:-1.25 119:1.25 120:1.25 121:-1.25 122:-0.5 126:-0.25 127:-1.25 128:1.25 129:1.25 130:-1.25 131:-0.25 135:-0.25 136:-0.75 137:1 138:0.5 139:0.25 143:0.25 144:0.25 
0 0 0.04401395857419592 0 0.5100246460286118 0 0 0 0 0.1417677820225382 0 0 0.07559353299439488 0 0 0 0 0.1041380664091235 0 0 0 0.04241609017034442 0 0 0 0 0 0 0 0 1:3.25 2:0.75 3:0.75 4:2.5 5:2.5 6:2.75 7:3 8:3 9:2.25 10:3.5 11:1.25 12:1.25 13:3.5 14:0.5 15:1 16:1 17:1 18:0.5 19:3.75 20:1.25 21:1.25 22:3.5 23:0.5 24:1 25:1 26:1 27:0.75 28:3 29:0.75 30:1 31:4 32:2 33:2.75 34:2.75 35:3 36:3 37:-1.25 38:-0.75 39:0.75 40:0.5 41:-0.5 42:-0.25 45:0.75 46:-1 47:-1.25 48:1.25 49:1 55:-1.25 56:-1.25 57:1.25 58:1 63:0.25 64:-0.5 65:-0.75 66:1 67:-1 68:-0.5 69:-0.25 70:0.25 71:-0.5 73:-0.75 74:-0.75 75:0.75 76:0.5 78:0.25 81:0.75 82:-1.5 83:-1.25 84:1.25 85:1.5 86:-0.5 90:0.5 91:-1.25 92:-1.25 93:1.25 94:1.5 95:-0.5 99:0.25 100:-0.5 101:-0.75 102:1 103:-0.5 104:-1 105:-0.25 106:-0.25 108:0.5 109:-1.25 110:0.75 111:0.75 112:-1.5 114:0.25 117:-0.75 118:-1 119:1.25 120:1.25 121:-1 127:-1.25 128:1.25 129:1.25 130:-1 135:-0.25 136:-1 137:0.75 138:1 139:-0.5 140:-0.5 141:-0.25 142:0.25 143:0.5 144:0.5 
0.9874995233756035 0.4784975377992464 0.9900535958838101 0 1.502892239537544 0.01956407179689037 0.05374750602754273 0.7335595155837451 0.6249195446448577 0.5719385268276865 0.310005892216748 0.337426084088454 0.377443470956587 0.1255280548329686 0.2419396794060529 0.2872891555732287 0.3140840665461231 0.06403368895967367 0.4849358506737824 0.4578379815551416 0.5696389549984349 0.8058954565759521 0.6873312865066171 0.2562426471327274 0.4595022505433159 0.1932139826813731 0.5746660620903403 0.4160909277379459 0.4924907941368247 0.7182973707630038 1:1.75 2:1 4:3.75 5:1.25 6:1.75 7:2 8:1.5 9:1.25 10:2.25 11:1 13:3.75 14:0.75 15:0.75 16:1 17:0.75 19:2.25 20:1.25 22:3.75 28:1.5 31:3.75 32:3 33:3 34:3 35:3 36:3 37:-0.25 38:1 40:-1.25 41:-0.25 42:-0.25 45:-0.25 46:-0.25 47:1 49:-1.25 50:-0.25 51:-0.25 53:0.25 55:0.25 56:1.25 58:-1.25 64:0.5 67:-1.25 73:-1.75 74:1 76:-1.25 77:-0.75 78:0.25 80:0.5 81:0.75 82:-2.25 83:1 85:-1.25 86:-0.25 87:0.25 89:0.25 91:-2.25 92:1.25 94:-1.25 103:-1.25 109:0.25 110:1 112:-1.25 113:-0.25 114:0.25 117:-0.75 118:0.25 119:1 121:-1.25 122:-0.25 123:0.25 125:-0.25 127:-0.25 128:1.25 130:-1.25 136:-1 139:-1.25 
0.1091350386818316 0 0.2050753518255315 0 0 0 0 0.127262954454742 0.4495780402884416 0.1399009744089397 0 0.02784505212500487 0 0.1163343694081029 0.1095493587569076 0.04934781250597429 0 0.08956514772749773 0.0886089203435786 0 0 0.02481248255667554 0.09710031824073205 0.02559912831432113 0 0 0.1019481629894909 0 0 0 1:2.75 2:2 3:1.25 4:4.75 5:2 6:3 7:3 8:3 9:1.5 10:3.75 11:2.5 12:0.25 13:4.25 14:1.5 15:2 16:2 17:2 18:0.5 19:3.75 20:2.5 21:1.75 22:3.75 23:1 24:0.5 25:0.25 26:2 27:0.5 28:2.25 29:1 30:1 31:3.75 32:3.75 33:3.75 34:3 35:3 36:3 37:0.75 39:-1.25 40:0.25 41:-0.5 46:1.25 48:-0.25 49:-0.75 50:-0.5 54:0.5 55:1.25 57:0.25 58:-1.25 61:-0.25 63:0.5 64:0.75 67:-1.25 68:0.25 69:0.25 73:1.25 74:-2 75:-1.25 76:-0.25 77:-0.5 81:1.5 82:1.25 83:-2.5 84:-0.25 85:-0.75 86:-0.5 90:0.5 91:1.25 92:-2.5 93:1.75 94:-1.25 96:0.5 97:-0.25 99:0.5 100:0.75 101:-1 102:1 103:-1.25 104:-0.25 105:0.25 109:-0.75 111:1.25 112:0.25 113:-1 118:-1.25 120:0.25 121:-0.75 122:-0.5 126:0.5 127:-1.25 129:0.25 130:-1.25 133:0.25 135:0.5 136:-0.75 139:-1.25 140:0.25 141:-0.25 
0 0 0 0.1777212364222755 0 0 0 0 0 0 0 0 0 0 0 0 0 0 0 0 0 0 0 0 0 0 0 0 0 0.1271853766437123 1:4 2:1.75 3:1 4:3.5 5:3 6:3.25 7:2.75 8:2.75 9:2.75 10:3.75 11:2.25 12:2.5 13:4.5 14:1.5 15:1.5 16:1.5 17:1 18:0.75 19:3.25 20:1.25 21:2.25 22:4.25 23:0.75 24:1.75 25:2 26:1.75 27:1.25 28:3.5 29:1 30:1.75 31:2.5 32:2.75 33:3.25 34:3.75 35:3 36:2 37:-0.5 38:0.25 39:1 40:1 41:-0.5 42:0.25 43:-0.25 44:0.25 45:0.25 46:-1.25 47:-0.25 49:0.5 50:-0.5 51:-0.5 54:0.25 55:-0.75 56:-1.25 57:0.25 58:0.25 59:-0.25 60:-0.25 62:-0.25 63:0.25 64:-1 65:-1 66:0.25 68:0.25 69:-0.25 70:0.25 73:0.5 74:-1.75 75:1 76:1.5 77:-1 78:0.25 79:0.25 80:-0.25 81:0.75 82:-1.25 83:-2.25 84:2.5 85:0.5 86:-0.5 88:0.5 90:0.25 91:-0.75 92:-1.25 93:2.25 94:-0.25 95:-0.25 96:-0.25 98:0.25 99:0.75 101:-1 102:1.75 103:-2.5 104:0.25 105:-0.25 106:0.25 107:1 110:-0.25 111:1 112:-1 113:-0.5 114:0.25 115:0.25 116:0.25 117:-0.75 118:-1.25 119:0.25 121:-0.5 122:-0.5 126:-0.25 127:-1.75 128:1.25 129:0.25 130:-0.25 131:-0.25 132:-0.25 134:0.25 135:-0.25 136:-0.5 137:1 138:0.25 140:-0.25 141:0.25 142:-0.25 
1.449360808748409 1.489449273317812 1.045045233783146 1.840763768522516 1.074128038589169 1.56769336797465 1.21074287875113 1.62349111355358 1.815827496115095 1.950106412424561 1.769795730796689 1.32817783432484 1.477988804762706 1.320189656410179 1.434649211100041 1.276143649964267 1.84496947616749 0.8903661152774245 1.549165028167688 1.187864675588958 2.040907153777522 1.764111513073074 2.022938144558692 0.9596743203564231 1.669748628540846 1.548844511957865 1.790463219270151 0.9904539358113114 1.211693327245766 2.438769736040767 2:3.75 3:2.75 4:1.25 7:0.5 8:2 9:1.5 11:1.5 12:3.25 13:1.25 14:3 15:1.75 16:1 18:0.25 19:1.75 20:0.5 21:2.25 22:2.5 23:2 24:2.75 25:2.75 26:1 27:0.5 28:2.25 29:0.25 30:0.75 31:3.25 32:1 33:1 34:1.5 35:2 36:2.75 38:1.25 39:-0.75 40:-1.25 47:1 48:-0.25 49:-1.25 51:-0.25 54:-0.25 55:-1.25 56:0.5 57:1.25 58:-1 60:0.25 61:-0.25 64:0.25 65:-0.25 66:0.75 67:0.75 70:-0.5 72:-0.25 74:1.25 75:-1.75 76:-1.25 79:-0.5 80:-1 81:1 83:1 84:-0.25 85:-1.25 87:1.25 90:0.25 91:-1.25 92:0.5 93:1.25 94:-1 95:-0.5 96:0.25 97:-0.25 99:0.5 100:0.25 101:-0.25 102:0.75 103:0.75 106:-0.5 108:-0.25 110:-1.25 111:-0.25 112:1.25 117:-0.5 119:0.5 120:-1.75 121:1.25 123:0.25 126:-0.25 127:0.75 128:0.5 129:0.25 130:-0.5 131:-0.5 132:-0.25 133:-0.25 136:-0.75 137:0.25 138:0.75 139:-1.75 142:0.5 144:-0.25 
0.04517982455694643 0.7717967966713204 0.5090445678505221 0.3766121561021402 0.6851803013417369 0.3778637594953828 0.5158380199834225 0.6829654779338066 0.8963237500427601 0.4661461021846236 0.6055980730681003 0.3863082323573729 0.6660658292644871 0.455273663800999 0.7382468968121612 0 0.6944332534109491 0.2438735856539868 0.8156235886402258 0.1716221223973872 0.744196001878581 0.4239052113527728 0.5266803800663282 0.2531314870383171 0.3809434013423185 0.2497069178274669 0.3679539020411811 0.2166208580240577 0.2640283147630012 0.4706608767715932 1:3.5 2:1.25 3:2.25 4:1.75 5:2.5 6:4 7:4 8:4 9:3.25 10:5 11:2.5 12:3.25 13:2 14:0.75 15:2 16:2 17:2 18:1.5 19:5 20:2.5 21:1.25 22:2.5 23:1.5 24:3 25:1.5 26:1 27:1 28:4.25 29:2 30:1.25 31:2.5 32:1.25 33:1.5 34:2 35:2 36:2 37:-0.5 38:-0.25 39:0.75 40:-0.25 41:-1 45:0.75 48:1.25 50:-0.25 54:0.5 57:1.25 61:0.5 64:0.25 66:1.25 68:-0.75 69:-0.5 73:1 74:-0.25 75:0.75 76:-1.75 77:0.5 81:0.75 84:1.25 85:-2 86:-0.25 90:0.5 93:1.25 94:-2.5 95:-1.5 97:0.5 100:0.25 102:1.25 103:-2.5 104:-0.25 105:0.5 110:1.25 111:-0.75 112:0.25 117:-0.75 119:2.5 120:-0.75 122:-0.25 126:-0.5 128:2.5 129:1.25 133:0.5 136:0.25 137:2 138:1.25 140:-0.25 141:0.5 
1.044427602377917 0.3817753479317546 1.053911733647043 0.8654967360945743 0.3765570627320874 0.7688361986859329 0.6376088456166515 1.084438950461838 1.39796183911827 0.8210772985215972 0.579599242723812 0.4197423380383241 0.8540208088492635 0.5757683677757273 1.15433333913629 0.5324369822238877 0.7926390884504018 0.6913609951932745 1.264328127576099 0.6375783224664646 0.5394000776678894 0.6611621668347727 1.435354664670407 0.5781261521436241 0.7069983150472048 0.9654706408700986 1.334346094642464 0.3024335776664917 0.2617938517749551 2.121724005300038 1:2 2:2.25 3:0.75 4:2.5 5:1.5 6:2 7:2 8:2 9:1 10:2.5 11:3.75 12:1.25 13:4.75 14:1.5 15:3 16:3 17:3 18:1 19:2.5 20:3.75 21:1.25 22:5 23:0.5 24:1 25:1 26:1 27:0.5 28:1.5 29:1.75 30:0.75 31:4.25 32:2 33:3.25 34:4 35:4 36:3.25 38:-0.75 39:0.75 41:-0.5 47:-1.25 48:1.25 49:-0.25 54:0.5 56:-1.25 57:1.25 65:-0.75 66:0.75 67:-0.25 69:-0.25 72:0.75 73:2 74:-0.75 75:0.75 76:2.5 77:-0.5 81:1 82:2.5 83:-1.25 84:1.25 85:0.25 86:-1.5 90:1 91:2.5 92:-1.25 93:1.25 95:-0.5 99:0.5 100:1.5 101:-0.75 102:0.75 103:-0.75 105:-0.75 108:0.25 110:-0.75 111:0.75 113:-0.5 119:-1.25 120:1.25 121:0.25 126:0.5 128:-1.25 129:1.25 137:-0.25 138:0.75 139:-0.25 141:-0.25 144:-0.25 
0.4066062917232164 0.4517745256988386 0.595685735956051 0.602240775830477 0.4952070917731503 1.062184480767479 0.1931994550218958 1.217001913454999 0.9269429777550116 0.9525089832453235 1.379782349427024 0.776832931703858 1.691207640267995 0.5876623348969616 0.3487300054775577 0.2910233506822677 1.642202458874238 0.4715760097422906 0.984383396534965 0.532915738841835 0.9201555741353819 0.5871558508558349 0.6570539957339583 0.6738181951756419 0.8767108233799412 0.4689001995005792 0.9280956356375217 0.6206661362856962 0.3505424969614254 0.9060987757513029 1:3 2:2.25 3:0.75 4:1.25 5:2.25 6:1.5 7:1 8:2 9:2.75 10:1.25 11:2 12:2.5 13:1.25 14:1.75 15:2 16:0.5 17:1 18:0.75 19:2 20:0.75 21:2.5 22:1.25 23:0.25 24:2 25:2 26:2 27:1 28:3.25 29:1 30:1.5 31:3.25 32:1 33:1 34:1 35:1 36:3 37:1 38:-0.25 39:0.25 40:-1.25 41:-0.75 42:0.5 45:0.25 46:1.25 49:-1.25 50:-0.25 52:0.5 54:0.25 55:0.5 56:0.75 58:-1.25 59:-0.25 64:0.25 65:1 67:-1.25 73:1 74:-1.75 75:0.75 76:1.25 77:-0.75 78:0.5 81:-0.75 82:-1.25 83:-2 84:2.5 85:1.25 86:-0.75 88:0.5 90:0.25 91:-2 92:0.75 93:2.5 94:1.25 95:-0.25 99:1 100:-1.25 101:1 102:1.5 103:-0.75 109:-1 110:-0.25 111:0.25 112:-1.25 113:-0.75 114:0.5 117:-0.25 118:-1.25 121:-1.25 122:-0.75 124:0.5 126:-0.25 127:-0.5 128:0.75 130:-1.25 131:0.25 136:-0.25 137:1 139:-1.25 
0 0.3279888510054731 0.374576671640401 0.1830670856364442 0.1893498112327684 0 0 0.1313168851979963 0.1726987387474634 0 0 0 0 0 0.3976377225159032 0 0.01482658889705905 0 0 0 0.2835016372371645 0.2774828004912781 0.2799031910139058 0 0.3808500276037909 0 0 0 0 0.04577511047296075 1:2.75 2:1 3:1.75 4:4.5 5:2 6:2.75 7:3 8:3 9:3.25 10:3.5 11:1.75 12:3.75 13:4 14:0.75 15:1.5 16:1 17:0.75 19:3.75 20:1.25 21:3.75 22:3.75 23:1 24:3 25:3 26:3 27:0.5 28:4 30:1.25 31:3.75 32:3.5 33:3.5 34:3 35:3 36:3 37:-0.75 38:-0.5 39:0.75 41:-0.5 42:-0.25 45:0.25 46:-1 47:0.75 48:1.25 49:-1 50:-0.25 53:-0.25 55:-1.25 56:0.75 57:1.25 58:-1.25 59:-0.5 64:-0.5 66:0.75 67:-1.25 68:-0.5 72:0.5 73:-1.25 74:-0.5 75:0.75 77:-0.5 78:0.25 81:0.25 82:-1 83:0.75 84:1.25 85:-0.5 86:-0.75 89:0.75 91:-1.25 92:0.75 93:1.25 94:-1.25 95:-1 99:0.5 100:-0.5 102:0.75 103:-0.75 104:-0.5 105:0.5 108:-0.5 109:-0.75 110:1 111:-0.25 112:-0.5 113:-1 114:0.25 117:-0.75 118:-1.5 119:1.75 120:-1.25 121:-0.5 122:0.25 123:-0.5 125:-0.25 127:-1.25 128:1.25 129:-1.25 130:-1.25 131:0.5 136:-1 138:0.25 139:-0.75 140:-0.5 
0.04132859996294491 0 0 0.1248697583874207 0 0.5941716496072156 0.537165246088617 0.1282395946728979 0.4904265963817748 0.001798749094221211 0 0 0.02323870304705566 0 1.324473780499923 0 0 0 0.3925172377306438 0.03637367687457833 0 0 0.8521362046373209 0.03986325722683868 0 0.5182035213752747 0.0854001537821816 0 0 0.6927658915088368 1:1 2:0.5 3:1.5 4:3.75 5:0.75 6:1 7:1 8:1.75 9:1.75 10:1.25 11:2.5 12:2.25 13:3.75 15:2 16:1.75 17:2 19:1.5 20:2.25 21:2 22:3 23:1 24:1.75 25:1.75 26:1.75 27:0.5 28:2.5 29:0.5 30:1 31:3 32:3 33:3 34:3 35:2 36:2.5 37:1 40:-1.25 41:-0.25 44:-0.25 45:0.75 46:1.25 48:0.25 49:-1.25 52:0.25 55:1.5 56:0.25 57:-0.5 58:-0.5 60:0.25 61:-0.25 62:-0.25 63:0.5 64:1 67:-0.5 73:-1 74:-0.5 75:1.5 76:-1.25 77:-0.25 80:-0.75 81:0.75 82:-1.25 83:-2.5 84:2.25 85:-1.25 88:0.25 91:-1 92:-2.25 93:2 94:-2 95:-0.5 96:-0.25 97:0.25 98:-0.25 99:0.5 100:1 101:-0.5 102:1 103:-2 109:-1 112:-1.25 113:-0.25 116:0.25 117:-0.25 118:-1.25 120:0.25 121:-1.25 124:-0.25 127:-1 128:-0.25 129:-0.5 130:-0.5 131:-0.5 132:0.25 133:0.25 134:-0.25 135:0.5 136:-0.5 139:-0.5 144:-0.5 
0.3101952424376551 0.7859487292303015 0.4057236016616901 0.7944009350119418 0.4674227189169321 0.6447406867767869 0.03952556181631389 0.9100663430111337 0.8696810622741726 0.5613618754013484 0.29389737906337 0.4525387149251914 0.8828239378486866 0.5455627151828028 0.5977253627177181 0.06676963633406681 0.7726036505540432 0.5386948808476436 0.8489870679800134 0.3778799516821596 0.6928010888998779 1.163055876014502 0.8029425237314912 0.8779539674737957 0.7550817931688291 0.4344021842369497 0.6070837742904521 0.05743711644829494 0.1125590737032268 0.1880074241110932 1:1.25 2:1.75 3:2.75 4:2.5 5:1 6:1.75 7:2 8:2 9:1.25 10:2.5 11:1.25 12:3.5 13:2.5 14:1.5 15:1 16:1 17:1 18:0.25 19:2.5 20:1.25 21:4 22:3.25 23:2 24:2.75 25:3 26:3.25 27:1.25 28:1.75 29:0.5 30:2 31:3.5 32:2 33:2 34:2 35:3 36:2.75 37:-1.25 38:0.75 39:1.25 42:-0.25 45:-0.25 47:1.25 48:1.5 54:0.25 56:1.25 57:1 58:-0.75 60:0.25 62:0.25 63:0.25 64:0.25 65:0.5 66:0.5 67:-1 72:0.25 73:-1.25 74:1.75 75:0.25 76:-2.5 78:-0.25 81:1.25 82:-2.5 83:1.25 84:1 85:-2.5 86:0.5 90:0.25 91:-2.5 92:1.25 93:1 94:-1.75 95:-0.5 96:-0.25 98:0.25 99:1.25 100:-0.75 101:0.5 102:1 103:-1 108:-0.25 109:1.25 110:0.75 111:-1.25 114:-0.25 117:-0.25 119:1.25 120:-1 126:0.25 128:1.25 129:-1 130:-0.75 131:-0.5 132:0.25 134:0.25 135:0.25 136:-0.25 137:0.5 138:-0.5 139:-1.5 144:0.25 
0 0 0 0 0 0 0 0 0 0.1252900156658041 0 0 0 0 0 0 0 0 0 0 0 0 0 0 0 0 0 0 0.107555075133045 0 1:0.5 3:0.75 4:3.25 5:0.25 6:1 7:2.5 8:2.75 9:1.5 10:2 11:0.25 12:1.25 13:3.75 16:0.75 17:0.75 18:0.5 19:3.5 20:1 21:2.5 22:3.75 23:0.5 24:0.75 25:1.75 26:2 27:1 28:2 29:0.75 30:1.5 31:3.75 32:2.5 33:3 34:3 35:3 36:3 37:-0.5 39:-0.75 40:-1.25 41:-0.25 44:0.25 46:-1.5 47:-0.25 48:-0.75 49:-1.25 52:-0.25 53:0.25 55:-1 56:-1 58:-1.25 60:-0.25 61:-0.25 64:0.5 65:-0.75 67:-1.25 68:-0.5 73:-0.5 75:0.75 76:-1.25 77:-0.25 80:0.25 81:1 82:-1 83:-0.25 84:1.25 85:-1.25 88:-0.25 89:-0.25 90:0.5 91:-1 92:-1 93:2.5 94:-1.25 95:-0.5 96:0.25 97:-0.25 99:1 100:0.5 101:-0.75 102:1.5 103:-1.25 104:-0.5 109:0.5 111:-0.75 112:-0.75 113:0.25 115:0.5 116:-0.25 117:-0.5 118:0.5 119:0.25 120:-0.75 121:-1.25 124:-0.25 125:0.25 127:-1.5 128:1 130:-1.25 132:0.25 133:-0.25 136:-1 137:0.75 139:-1.25 140:-0.5 
0 0 0 0 0 0 0.09454679586474465 0 0 0 0 0.0635778689179043 0 0 0 0 0 0 0 0 0 0 0 0 0 0.127628922061784 0 0.01307998014131278 0 0 1:0.75 3:1.5 4:2.5 5:0.5 6:1 7:1 8:1.5 9:1.75 10:1.25 12:2.25 13:2.5 19:1.25 21:2.5 22:2.5 23:1 24:1.75 25:2 26:2 27:0.5 28:2.5 30:1 31:2.5 32:2 33:2 34:2 35:2 36:2 37:0.75 44:-0.5 45:0.75 46:1.25 48:0.25 55:1.25 60:0.25 63:0.5 64:0.5 73:-0.75 75:1.5 76:-2.5 80:-0.5 81:0.75 82:-1.25 84:2.25 85:-2.5 91:-1.25 93:2.5 94:-2.5 95:-0.5 96:-0.25 99:0.5 100:1.5 102:1 103:-2.5 109:-0.75 113:-0.5 116:0.5 117:-0.25 118:-1.25 120:0.25 127:-1.25 131:-0.5 132:0.25 135:0.5 136:-0.5 
0 0 0 0 0 0 0 0 0 0 0 0 0 0 0 0 0 0 0 0 0 0 0 0 0 0 0 0 0.05920113304429446 0 1:1 2:0.75 3:0.75 4:1.75 5:0.75 6:1.5 7:3 8:2 9:1.75 10:2.75 11:1.25 12:1.25 13:2.5 14:0.5 15:1 16:1 17:1 18:0.5 19:3.25 20:1.25 21:1.25 22:2.5 23:0.5 24:1 25:1 26:1 27:0.75 28:2 29:0.75 30:1 31:2.5 32:1.5 33:1.75 34:2 35:2 36:2 37:-1 38:-0.75 39:0.75 40:0.25 41:-0.25 42:-0.5 45:0.25 46:-1.25 47:-1.25 48:1.25 55:-1.25 56:-1.25 57:1.25 63:0.25 65:-0.75 66:0.5 68:-0.5 69:-0.25 73:1 74:-0.75 75:0.75 76:-1.75 77:-0.25 78:-0.5 80:1 81:0.25 82:-0.25 83:-1.25 84:1.25 85:-2.5 86:-0.5 90:0.5 91:-0.75 92:-1.25 93:1.25 94:-2.5 95:-0.5 99:0.75 100:2 101:-0.75 102:1 103:-2.5 105:-0.25 109:-1 110:0.75 111:0.75 112:-0.25 113:-0.25 114:0.5 117:-0.25 118:-1.25 119:1.25 120:1.25 127:-1.25 128:1.25 129:1.25 135:0.25 137:0.75 138:0.5 141:-0.25 
0 0 0 0 0 0 0.05401847715790165 0 0 0.02320203301403239 0 0 0.1537594628740005 0 0 0 0 0 0 0 0 0 0 0 0 0.02278553753884833 0 0 0 0.4642505467155472 1:0.75 3:1 4:3.5 5:0.5 6:1 7:1 8:1 9:2.5 10:1.25 11:0.5 12:1.25 13:3.75 16:0.75 17:0.25 19:1.25 20:0.5 21:1.25 22:3.75 23:0.75 24:1 25:1 26:1 27:0.25 28:2.75 30:0.5 31:3.75 32:2.75 33:3 34:3 35:3 36:3 37:-0.75 39:1 40:-1 45:0.5 46:-1.25 47:0.5 48:1.25 49:-1.25 52:0.25 53:0.25 55:-1.25 56:0.5 57:1.25 58:-1.25 59:-0.25 63:0.25 64:-0.75 66:0.5 67:-1.25 68:-0.25 73:-0.75 75:1 76:-1 81:0.5 82:-1.25 83:0.5 84:1.25 85:-1.25 88:0.25 89:0.25 91:-1.25 92:0.5 93:1.25 94:-1.25 95:-0.25 99:0.25 100:-0.25 102:0.5 103:-1.25 104:-0.25 109:0.75 111:1 112:-1.5 113:-0.5 117:-0.5 118:1.25 119:0.5 120:1.25 121:-1.25 124:-0.25 125:0.25 127:1.25 128:0.5 129:1.25 130:-1.25 131:-0.25 135:0.25 136:-0.75 138:0.5 139:-1.25 140:-0.25 
0 0 0 0 0 0 0 0 0 0 0 0 0 0 0 0 0 0 0 0 0 0 0 0 0.05909061431969008 0 0 0 0 0 1:0.5 3:1 4:3 5:0.5 6:0.25 7:1 8:1 9:1.25 10:0.75 12:2.5 13:3.5 19:1.25 21:2.5 22:3.75 23:0.75 24:1.75 25:2 26:2 27:1 28:1.5 30:1.5 31:3.75 32:2.25 33:2.75 34:3 35:3 36:3 37:0.5 39:0.5 40:-1.5 42:0.25 45:0.25 46:0.75 49:-1.5 55:1.25 58:-1.25 59:-0.25 60:-0.25 64:0.5 67:-1.25 68:-0.25 69:-0.25 73:-0.5 75:1 76:-0.5 78:-0.25 81:0.25 82:-0.75 84:2.5 85:-1 91:-1.25 93:2.5 94:-1.25 95:-0.75 96:-0.25 99:1 100:0.5 102:1.5 103:-1.25 104:-0.75 105:0.25 109:-0.5 111:0.5 112:-1 113:-0.5 114:-0.25 117:-0.75 118:-0.75 121:-1 127:-1.25 130:-1.25 131:0.25 132:-0.25 136:-0.5 139:-1.25 140:-0.25 141:0.25 
0.00150952548608863 0.1008128023674695 0 0 0.219030384754381 0 0 0 0 0 0 0.2537751998055004 0.02832937827112792 0 0.2321688795361915 0 0 0.3370061201615872 0.4086531036043296 0 0 0.4679445427800439 0.1093570238939601 0 0.2694786781260606 0 0.1912466542543068 0 0.4151238800645316 0 1:2 3:1.25 4:2.5 5:2 6:2 7:4 8:3 9:0.75 10:4 12:2.5 13:2.5 19:4.5 21:2.5 22:2.5 23:0.75 24:2 25:2 26:2 27:0.75 28:1.25 30:1.25 31:2.5 32:2 33:2 34:2 35:2 36:2 39:0.25 45:0.25 59:-0.25 63:0.25 64:0.25 66:0.25 75:1.25 76:-2.5 77:-2 78:-2 80:0.5 81:0.75 84:2.5 85:-2.5 91:0.5 93:2.5 94:-2.5 95:-0.75 99:0.75 100:1.25 102:1.25 103:-2.5 111:0.25 116:-0.5 117:0.25 131:0.25 135:0.25 136:0.25 138:0.25 
1.226370435442748 1.585495054904781 1.10901797942255 1.089164472937559 1.111749827060304 1.36888256666355 1.479570216262804 1.130169953458079 1.327219705715717 2.028696413788842 0.8917048083439952 1.493195387543291 1.235931664223574 1.170856215692638 1.093145381742287 1.436913862572445 1.254728936985656 1.283018469967646 1.20475253769321 0.8655707667444299 1.128924606508399 1.146512825575913 0.7594764738988509 0.7938959428400111 1.596638772876762 1.104847629029051 1.515680537097089 0.9813150402997223 1.285194817286856 1.747376367623052 1:2.25 2:1 3:1 4:2.25 5:1.75 6:2 7:2 8:2 9:1.75 10:2.5 11:1.25 12:1.25 13:2 14:0.75 15:1 16:1 17:1 18:0.75 19:2.5 20:1.25 21:1.25 23:0.75 24:1 25:1 26:1 27:1.75 28:2.25 29:1 30:2 31:0.5 32:1.75 33:2 34:0.5 36:0.5 37:0.25 38:-1 39:1 40:-0.25 41:0.25 45:0.25 47:-1.25 48:1.25 50:-0.25 54:0.25 56:-1.25 57:1.25 59:-0.25 63:0.25 64:-0.25 65:-1 66:1 68:0.25 70:0.5 72:-0.5 73:-2.25 74:-1 75:1 76:2.25 77:0.25 81:-0.25 82:-2.5 83:-1.25 84:1.25 85:2 86:-0.25 90:0.25 91:-2.5 92:-1.25 93:1.25 95:-0.25 99:0.25 100:-1.25 101:-1 102:1 103:-0.5 104:0.25 106:0.5 108:-0.5 109:-0.25 110:1 111:1 112:-0.25 113:-0.25 117:0.25 119:1.25 120:1.25 122:-0.25 126:-0.25 128:1.25 129:1.25 131:-0.25 135:-1.25 136:0.25 137:1 140:-0.25 142:0.5 144:0.5 
0 0 0 0 0 0 0 0 0 0 0 0 0 0 0 0 0 0.0007785071045406836 0 0 0 0 0 0 0 0 0 0 0 0 1:2 2:2.5 3:1.5 4:2 5:1.5 6:3.25 7:4 8:4 9:1.75 10:4.75 11:3.75 12:1.75 13:2.5 14:1.75 15:3 16:3 17:2.25 18:0.5 19:5 20:3.5 21:1.25 22:4.75 23:1 24:1.75 25:1 26:1 27:0.25 28:2.75 29:0.75 30:0.5 31:5 32:1.5 33:2 34:2.75 35:4 36:4 38:-0.5 39:-0.5 41:-0.5 42:-0.75 45:1.25 46:0.25 47:-1.25 48:0.75 50:-0.75 53:0.25 56:-1.5 57:1.25 58:-0.25 59:-0.5 60:0.25 63:0.25 64:0.25 65:-0.75 66:0.5 68:-0.5 70:-0.25 73:2 74:-0.5 75:-0.5 76:2 77:-0.5 78:-0.25 81:0.75 82:-0.25 83:-1.25 84:0.75 85:2.5 86:-0.75 89:0.25 90:0.5 92:-1 93:1.25 94:0.25 96:0.25 99:0.25 100:-0.75 101:-0.75 102:0.5 104:-0.5 106:-0.75 110:-1.5 111:1.5 113:-0.5 114:-0.25 117:0.25 118:0.25 119:-1.25 120:1.75 122:-0.25 125:-0.75 128:-1 129:1.25 130:0.25 131:0.5 132:-0.25 135:0.25 136:-0.25 137:0.75 138:0.5 140:-0.5 142:0.25 
0.2398925663115167 0.4788483497616571 0.03347258075356065 0.0838422680591345 0.4471321317144308 0.1942323838184293 0 0.472958138005193 0.09119470769829481 0.297934025516365 0.1984449732505577 0.5788721327061481 0.1962036463851545 0.2767013495799671 0.27182019426136 0.1363316394232483 0.1441316334680098 0.6672805423754354 0.6323635477255747 0.2139900243744327 0.3125916013495424 0.9947906059349154 0.3915775521712266 0.2390791041152386 0.565286732250909 0.424869778988209 0.4242549563832971 0.2213568181078707 0.4745244066067491 0.3510282204333773 1:2.75 2:2.75 3:1.25 4:2.5 5:2 6:3 7:3 8:3 9:1.25 10:3.75 11:2.25 12:0.5 13:2 14:2.25 15:1.75 16:1.75 17:1 19:3.75 20:1.75 21:0.5 22:3.25 23:1 24:0.75 26:1 27:1 28:2 30:1.5 31:3.75 32:2 33:1.5 34:2.25 35:2.75 36:3 37:0.25 38:-1.25 39:-1.25 45:0.25 46:1.25 47:-0.25 48:-0.5 49:-1 50:-0.25 51:-0.25 52:-0.25 55:1.25 56:-0.25 58:-0.75 60:0.25 64:0.5 67:-1.25 70:-0.25 71:-0.25 73:2.25 74:-0.75 75:-1.25 76:2.5 81:1.25 82:1.25 83:-2.25 84:-0.5 85:1 86:-0.75 87:0.25 88:0.25 89:0.5 91:1.25 92:-1.75 93:0.5 94:-1.75 96:0.25 98:-1 99:1 100:1 102:1.5 103:-1.25 105:0.5 106:-0.25 107:-0.25 109:-0.25 110:-0.75 111:1.25 117:0.25 118:-1.25 119:0.25 120:0.5 121:-1 122:-0.25 123:0.25 124:0.25 125:-0.5 127:-1.25 128:0.25 130:-0.75 132:-0.25 136:-0.5 139:-1.25 142:-0.75 143:-0.25 
0.353067074893164 0.4880250487465256 0.7340018423124028 0.8642236978558505 1.141833123361118 0.4666130705274263 0.1352203664968648 0.903665806380542 0.7255050048152194 0.8246563226907672 0.8551052444211109 0.2893528687100553 0.901780172038848 0.4061580402324682 0.9114001793443961 0.04582494501702897 1.368350958973594 0.3165545315548361 0.7073658154725412 0.488004349277959 1.066777148491821 1.141936520672547 0.9875990894230684 0.3083815605114891 0.8572393080101597 0.330141572998601 0.5239087863393046 0.2404722573129668 0.6944216005654653 0.6505993622464519 1:2 2:2.5 3:1.5 4:2 5:1.5 6:3.25 7:4 8:4 9:1.75 10:4.75 11:3.75 12:1.75 13:2.5 14:1.75 15:3 16:3 17:2.25 18:0.5 19:5 20:3.5 21:1.25 22:4.75 23:1 24:1.75 25:1 26:1 27:0.25 28:2.75 29:0.75 30:0.5 31:5 32:1.5 33:2 34:2.75 35:4 36:4 38:-0.5 39:-0.5 41:-0.5 42:-0.75 45:1.25 46:0.25 47:-1.25 48:0.75 50:-0.75 53:0.25 56:-1.5 57:1.25 58:-0.25 59:-0.5 60:0.25 63:0.25 64:0.25 65:-0.75 66:0.5 68:-0.5 70:-0.25 73:2 74:-0.5 75:-0.5 76:2 77:-0.5 78:-0.25 81:0.75 82:-0.25 83:-1.25 84:0.75 85:2.5 86:-0.75 89:0.25 90:0.5 92:-1 93:1.25 94:0.25 96:0.25 99:0.25 100:-0.75 101:-0.75 102:0.5 104:-0.5 106:-0.75 110:-1.5 111:1.5 113:-0.5 114:-0.25 117:0.25 118:0.25 119:-1.25 120:1.75 122:-0.25 125:-0.75 128:-1 129:1.25 130:0.25 131:0.5 132:-0.25 135:0.25 136:-0.25 137:0.75 138:0.5 140:-0.5 142:0.25 
0.4646947923887216 0.3491231465323844 0.09263069037474711 0 0 0.2055797476383356 0.2694418167510953 0.2718485729160899 0.388590782888834 0.4845534351356957 0 0 0.2860595956693446 0.3310971561929866 0.7758707231737497 0.5951034280099089 0 0.02691641388474742 0.4931755981011094 0.1273920777748373 0 0 0.06941770472832776 0.177387307488609 0.4699808254269516 0.4272163236708311 0.4302869180392048 0.3579776117568 0.3662027872301655 0.4431828997561907 1:1.25 2:1.25 3:0.5 4:1.5 5:1 6:1 7:0.75 8:0.75 9:1.25 10:1 11:1.25 12:2.5 13:2.25 14:1 15:1 16:1 19:1 20:0.5 21:2.5 22:2.5 24:2 25:2 26:2 27:1 28:1.5 30:1.5 31:2.75 32:1 33:1.75 34:2 35:2 36:2.25 37:-1.25 38:1.25 43:0.25 44:-0.25 45:-0.25 46:-1 47:1.25 49:-0.25 56:0.5 64:0.5 67:-0.25 69:0.25 72:0.25 73:-1.25 74:1.25 75:0.5 76:-1.5 79:-0.25 80:-0.25 81:0.75 82:-1 83:1.25 84:2.5 85:-2.25 91:-1 92:0.5 93:2.5 94:-2.5 99:1 102:1.5 103:-2.25 104:-1 105:-0.25 108:-0.25 109:1.25 110:1.25 115:0.25 116:-0.25 117:-0.75 118:1 119:1.25 121:0.25 128:0.5 136:-1 139:-0.25 141:0.25 144:-0.25 
0 0 0 0.4355415691362159 0 0 0.1736216185538837 0 0 0.07308985288667148 0 0 0.004160265099482982 0.08104485372613116 0 0.1658277950949879 0 0.02491728345258553 0 0.04267590351449085 0 0 0 0 0.3058632656259616 0 0 0 0 0 1:1.75 2:1 3:1.5 4:3 5:1.25 6:1.75 7:2 8:1 9:1.5 10:2.25 11:1 12:2.5 13:3.75 14:0.75 15:0.75 16:1 19:1.75 20:0.5 21:2.5 22:3.75 23:1 24:2 25:2 26:2 27:0.75 28:1.75 30:1.25 31:2 32:2.25 33:3 34:3 35:3 36:1.25 37:-0.25 38:1 40:-0.5 41:-0.25 42:-0.25 46:-0.25 47:1 49:-1.25 50:-0.25 51:-0.25 55:0.75 56:0.5 58:-1.25 63:0.25 64:0.75 66:0.25 67:-1.5 68:-0.25 72:0.25 73:-1.75 74:1 75:1.5 76:-2 77:-0.75 78:0.25 81:-0.5 82:-2.25 83:1 84:2.5 85:-1.25 86:-0.25 87:0.25 91:-1.75 92:0.5 93:2.5 94:-1.25 95:-1 99:0.75 100:0.25 102:1.25 103:0.5 104:-0.25 108:0.25 109:0.25 110:1 112:-0.5 113:-0.25 114:0.25 118:0.25 119:1 121:-1.25 122:-0.25 123:0.25 127:-0.75 128:0.5 130:-1.25 135:0.25 136:-0.75 138:0.25 139:-1 140:0.25 144:0.25 
0.5757062378301749 0.5675194177777398 0 0.2502340242417767 0 0.7094443215472549 0.7499601936143729 0.314826925015805 0.6346618967285482 0.8601605988993861 0.1782089356707999 0.5187157834456996 0.4186401009919202 0.4399032945614851 1.243556881364372 0.6925982020803022 0.4320986734872347 0.905081257174746 1.428004513375904 0.2487115650780636 0.1810974099836443 0.589515859366706 0.09605465072719339 0.2789473062172067 1.239577649184018 0.6053382226305021 0.9042881641768197 0.1642322960915293 0.3841881687195867 0.3118090111379535 1:2 2:1 3:1.5 4:1.25 5:1.5 6:2 7:1.75 8:2 9:1.25 10:2.25 11:1.25 12:2.25 13:1.25 14:0.75 15:1 16:1 17:1 18:0.5 19:2.25 20:1.25 21:2.5 22:1.25 23:1 24:1.75 25:2 26:2 27:0.75 28:2 29:0.75 30:1.25 31:1.25 32:1 33:1 34:1 35:1 36:1 38:-1 40:-1.25 41:-0.5 43:0.25 44:-0.5 45:0.75 46:0.25 47:-1.25 48:0.25 49:-1.25 50:-0.25 55:0.25 56:-1.25 58:-1.25 60:0.25 63:0.25 64:1 65:-0.75 66:0.25 67:-1.25 74:-1 75:1.5 76:-1.25 77:-0.5 79:-0.25 81:0.75 82:-0.25 83:-1.25 84:2.25 85:-1.25 86:-0.25 90:0.5 91:-0.25 92:-1.25 93:2.5 94:-1.25 95:-0.5 96:-0.25 99:0.75 100:1 101:-0.75 102:1.25 103:-1.25 109:-2 110:1 112:1.25 113:-0.5 115:0.25 116:0.5 117:0.25 118:-2.25 119:1.25 120:0.25 121:1.25 122:-0.25 127:-2.25 128:1.25 130:1.25 131:-0.5 132:0.25 135:0.25 137:0.75 138:0.25 139:1.25 
0 0 0 0.1691257380785597 0.3635623271856652 0 0 0.1859254652087669 0 0 0 0 0.06829702819267744 0 0.4063236421163486 0 0.009080859092575997 0 0 0 0 0.1547760530852251 0 0 0.02256696195063754 0 0.3343136518840419 0 0.09266721407768915 0 1:1.25 2:0.5 3:1 4:3.75 5:1 6:1.25 7:3 8:3 9:1 10:2.5 11:0.75 12:1.25 13:3.75 14:0.5 15:0.25 16:1 17:1 18:0.25 19:3.75 20:1.25 21:1.25 22:3.5 23:0.75 24:1 25:1 26:1 27:0.25 28:1.75 29:0.5 30:0.5 31:3.75 32:3 33:3 34:2.75 35:3 36:3 37:-1.25 38:0.5 39:1 40:-1.25 42:-0.25 45:0.5 46:-1 47:-0.75 48:1.25 49:-1.25 51:-0.25 54:0.25 55:-1.25 56:-1.25 57:1.25 58:-0.5 59:-0.25 63:0.25 64:0.25 65:-0.5 66:0.5 67:1.25 70:-0.25 71:0.5 73:-1.25 74:0.5 75:1 76:-1.25 78:-0.25 81:1 82:-1 83:-0.75 84:1.25 85:-1.25 87:-0.25 90:0.25 91:-1.25 92:-1.25 93:1.25 94:0.5 95:-0.25 99:0.25 100:0.25 101:-0.5 102:0.5 103:1.25 106:0.25 109:1.25 110:0.5 111:1 112:-1.25 114:0.25 117:0.5 118:-0.5 119:0.75 120:1.25 121:-1.25 122:-0.5 123:0.25 126:0.25 127:-1.25 128:1.25 129:1.25 130:-0.5 131:-0.25 135:0.25 136:-0.25 137:0.5 138:0.5 139:-1.25 142:0.25 143:0.5 
0.4486137375884455 0 0.1939015133136645 0.03173908782658985 0 0.2446681132346852 0 0.1222203481659714 0.0224851032819787 0 0 0 0.08760843148825957 0.03093136393553562 0 0.1480820966937475 0 0.3842707409960073 0.0233406783197237 0 0 0.2002562047213094 0 0 0.03844653161197491 0 0.1004910606732867 0 0 0 1:4.25 2:1.5 3:1 4:4.75 5:3.5 6:3.75 7:2.75 8:2 9:0.75 10:4.75 11:1.25 12:1.75 13:4 14:1.25 15:1 16:1 17:0.75 18:0.5 19:2.5 20:1 21:3.5 22:2.5 23:0.75 24:1 25:2.25 26:3 27:1.25 28:1.25 29:0.75 30:2 31:2.5 32:3.75 33:4 34:2 35:2 36:2 37:0.25 38:-1 39:1 40:-0.25 41:-0.5 42:-0.25 43:0.25 45:0.25 46:0.25 47:-1.25 48:1.25 50:-0.75 53:-0.25 56:-1 57:1.5 59:-0.25 61:-0.25 63:0.25 64:0.25 65:-0.75 66:0.5 68:0.25 73:0.75 74:-1 75:1 76:-0.25 77:-0.5 78:-0.25 79:0.75 81:0.75 82:-0.25 83:-1.25 84:1.25 85:-1 86:0.25 89:-0.25 90:0.5 91:-2.5 92:-1 93:1 94:-2.5 95:-0.25 97:-0.25 99:1.25 100:-1.25 101:-0.75 102:1 103:-2.5 104:0.25 109:-0.25 110:0.5 111:1 112:-0.25 113:-0.5 114:-0.25 115:0.25 117:0.25 118:0.25 119:1.25 120:0.75 122:-0.75 125:-0.25 128:1 129:-1 131:-0.25 133:-0.75 135:0.25 136:-0.25 137:0.75 138:-0.5 140:-0.25 
0 0 0 0 0 0 0 0 0.04253583075697066 0.01259907145035347 0.4707189535456576 0 0.03684583064788491 0 0 0 0.3070671626760623 0 0 0 0 0 0 0 0 0 0 0.09885247336371235 0 0 2:1.75 3:2.5 4:2.5 6:0.25 7:1 8:2.5 9:2 10:0.75 11:1.25 12:2.5 13:2.5 14:1.75 15:0.75 16:1 19:2.25 20:0.5 21:1.25 22:3.75 23:2 24:2 25:1.5 26:1 27:0.75 28:2.75 30:1 31:3.5 32:2 33:2 34:2.5 35:3 36:2.75 38:0.25 42:-0.25 45:0.5 46:-0.75 47:1.25 50:0.25 51:-0.25 55:-0.75 56:0.5 57:0.75 58:-1.25 63:0.25 64:0.25 66:1 67:-1 72:0.25 74:1.75 75:2.5 76:-2.5 78:-0.25 80:-0.5 81:1 82:-0.75 83:1.25 84:2.5 85:-2.5 86:0.25 87:-0.25 91:-1.75 92:0.5 93:1.25 94:-1.25 97:0.5 99:0.25 100:0.25 102:1 103:-1 106:-0.5 108:0.25 110:0.25 114:0.25 117:-0.5 118:0.75 119:1.25 122:-0.25 123:-0.25 127:0.25 128:0.5 129:0.75 130:-1.25 135:-0.25 136:-1.25 138:1 139:-1.5 144:-0.25 
0 0 0 0 0 0 0.4927301436474286 0 0.02255315941920618 0.04337767472269111 0 0 0 0 0.02673508245824469 0 0 0 0 0 0 0 0.2195549476111048 0 0 0.1785594365274178 0 0 0 0.4302507876895438 1:1 3:1 4:2 5:0.75 6:1 7:1 8:2.5 9:1.75 10:1.25 11:1.25 12:2.5 13:3.75 15:0.75 16:1 17:1 18:0.5 19:2.25 20:1.25 21:2.5 22:3.75 23:0.75 24:1.75 25:2 26:2 27:1 28:2.5 29:0.75 30:1.5 31:3.25 32:1.5 33:2.75 34:3 35:3 36:2.5 37:-1 39:-1 40:-1 41:-0.25 44:-0.5 45:0.25 46:-1.25 47:-1.25 49:-1.25 51:-0.25 55:-1.25 56:-1.25 58:-1.25 59:-0.25 60:-0.25 65:-0.75 67:-0.75 68:-0.5 69:-0.25 73:-1 75:1 76:-1.5 77:-0.25 80:-0.5 81:1.25 82:-1.25 83:-1.25 84:2.5 85:-1.25 87:-0.25 90:0.5 91:-1.25 92:-1.25 93:2.5 94:-1.25 95:-0.25 96:-0.25 99:1 101:-0.75 102:1.5 103:-0.75 104:-0.5 105:-0.25 108:0.5 109:1 111:-1 112:0.5 113:-0.25 116:-0.5 117:-0.25 118:1.25 119:1.25 121:-1.25 123:-0.25 127:0.25 128:1.25 130:-1.25 131:-0.25 132:-0.25 136:-0.5 137:0.75 139:-1.75 140:0.5 141:-0.25 
0 0 0 0 0 0 0 0 0 0.295445136303116 0 0 0 0 0 0 0 0 0 0 0 0 0 0 0 0 0 0 0.1054085762855534 0 1:1.25 2:0.25 3:0.75 4:2 5:1 6:1.75 7:2 8:1.75 9:1.75 10:2.5 11:1.25 12:1.25 13:2.5 14:0.25 15:0.75 16:1 17:0.75 19:2.25 20:1.25 21:2 22:2.5 23:0.5 24:1 25:1.5 26:1.5 27:0.75 28:2.25 30:1.25 31:2.5 32:1.5 33:2 34:2 35:2 36:2 37:0.75 38:0.25 39:0.75 40:0.5 41:-0.5 42:-0.25 44:-0.25 45:0.25 47:1.25 48:1.25 50:-0.25 51:-0.25 53:0.25 55:0.25 56:1.25 57:0.5 62:-0.5 63:0.25 64:0.25 66:0.25 73:-1.25 74:0.25 75:0.75 76:-2 77:-0.5 78:-0.25 80:-0.25 81:0.25 82:-2.5 83:1.25 84:1.25 85:-2.5 86:-0.25 87:-0.25 89:0.25 91:-2.25 92:1.25 93:2 94:-2.5 95:-0.5 97:-0.5 99:0.75 100:0.25 102:1.25 103:-2.5 104:-0.5 109:-0.75 110:0.25 111:0.75 112:-0.5 114:-0.25 116:-0.25 117:-0.25 119:1.25 120:1.25 122:0.25 123:-0.25 125:-0.25 127:-0.25 128:1.25 129:0.5 135:0.25 136:-1.75 138:0.25 
0.2125169815365411 0 0.3432014747937826 0.4628344257959705 0.01641460844046715 0.5508766027372799 0 0.2611657025212334 0.2760005095982885 0.7528613493746299 0.1138949616852826 0 0.2705032464180698 0.1430321208606081 0.2744441790371686 0 0.459077656691569 0 0.01939510713043011 0.09657687916795996 0.26154908762387 0.169398703685991 0.1918329802832607 0 0.340199503659991 0 0.08601870610306976 0 0 0.5237322918244222 1:2.25 2:2.5 3:1.25 4:3.75 5:1.75 6:2 7:2 8:2 9:1.75 10:2.5 11:2.75 12:1.25 13:3.75 14:1.75 15:3 16:2 17:1 18:0.25 19:2.5 20:2.25 21:1.25 22:3.25 23:1 24:1 25:1 26:1 27:0.5 28:2.25 29:0.5 30:0.75 31:2.75 32:3 33:3 34:2.75 35:2.75 36:2 37:0.25 38:-1 39:1.25 40:1.25 41:0.25 45:0.25 47:-1.25 48:1.25 49:1.25 50:0.25 54:0.25 56:-1.25 57:1.25 58:0.75 64:0.25 65:-0.5 66:0.75 67:-0.75 70:-0.25 71:0.25 72:0.5 73:-0.25 74:-1.5 75:1.25 76:1.25 77:-0.25 81:0.75 83:-1.25 84:1.25 85:1.25 86:-0.75 88:-1 90:0.25 92:-1.25 93:1.25 94:0.25 99:0.5 100:0.25 101:-0.5 102:0.75 103:-0.25 106:0.25 107:-0.25 109:-2.25 111:1.25 112:-1.25 113:0.25 117:-0.75 118:-2.5 119:-0.25 120:1.25 121:-1.25 122:-0.25 126:0.25 127:-2.5 128:0.25 129:1.25 130:-1.25 136:-1.75 137:0.5 138:0.75 139:-1.75 142:0.25 143:0.25 144:-0.5 
0.3183050978252286 0.492610367012105 0 0 0.2237280451364626 0 0.4184013977385534 0 0 0.3102110326430042 0 0.131661523703028 0 0 0.6732898949378628 0.1883523315118291 0 0.2921284336134399 0.04927910327578187 0.1689316469839363 0 0 0 0.02712410587514999 0.5332849153797424 0.1508485101476224 0.1009036080003536 0 0.1973316211602705 0.5623624786428534 1:1.75 2:1 4:2.5 5:1 6:2.25 7:2 8:2 9:1.5 10:2.5 11:1.25 12:0.25 13:2.5 14:0.75 15:1 16:1 19:2.5 20:0.5 21:1.25 22:3.25 25:0.75 26:1 27:0.25 28:2 30:0.5 31:1.25 32:2 33:2 34:2 35:2.5 36:1 37:1.25 38:-1 42:0.25 47:-1.25 48:0.25 50:-0.25 56:-0.5 57:1.25 58:-0.75 61:-0.25 63:0.25 64:0.5 66:0.5 67:-1.25 68:0.5 71:0.5 73:1.25 74:-1 76:0.5 78:0.25 81:1 83:-1.25 84:0.25 86:-0.25 92:-0.5 93:1.25 94:-1.25 97:-0.25 99:0.25 100:0.5 102:0.5 103:-1.25 104:0.5 107:0.5 109:0.75 110:1 112:-2 114:0.25 117:-0.5 118:-2.5 119:1.25 120:0.25 121:-2.5 122:-0.25 127:-2.5 128:0.5 129:1.25 130:-1.25 133:-0.25 135:0.25 136:-1 138:0.5 139:1.25 143:-0.5 
0 0 0 0 0 0.09204647882675096 0 0 0.01044346527652977 0 0 0.008530065731762827 0 0 0.574802849916952 0.005417753911522703 0 0 0 0 0 0 0 0 0 0 0 0 0 0 1:2.5 2:1.5 4:3.75 5:2 6:2 7:2.25 8:3 9:1.25 10:2.5 11:2.25 12:1 13:3.5 14:1 15:1.75 16:1.75 17:1.5 19:3.5 20:2.25 21:2.5 22:3.25 25:2 26:2 27:1.25 28:2 30:1.75 31:2.5 32:3 33:3 34:2.5 35:2.5 36:2 40:-1.25 43:-0.25 45:0.25 47:-0.25 49:-1 51:0.25 52:0.25 53:0.5 55:1 56:-0.25 58:-0.75 63:0.25 64:0.5 66:0.25 70:0.5 73:2.5 74:-1.5 76:-1.25 79:-0.25 81:0.75 82:2.5 83:-2.25 84:1 85:-1.5 86:-0.5 87:-0.25 88:0.25 89:0.5 91:1.5 92:-2.25 93:2.5 94:-1.75 99:0.75 100:1.5 102:1.75 103:-2.5 107:0.5 112:-1.25 115:0.25 117:-0.25 119:0.25 121:-1 122:-0.5 123:0.25 124:-0.25 125:-0.5 127:-1 128:0.25 130:-0.75 135:-0.25 138:0.25 
0 0 0 0 0 0 0.1019421361868358 0 0 0 0 0 0 0 0 0 0 0 0 0 0 0 0 0 0 0 0.2035113702317535 0 0 0 1:3 2:1.25 4:2.5 5:2.75 6:1.75 7:1.75 8:2 9:1.5 10:2.25 11:1 12:1.25 13:3.5 14:1 15:1 16:0.25 19:2.5 21:1.25 22:3.25 24:0.75 25:1 26:1 27:0.75 28:2 30:1 31:1.25 32:2 33:2.5 34:3 35:2 36:1 37:1.5 38:-1.25 41:-0.25 42:-0.25 43:-0.25 46:0.25 47:-1 48:1.25 49:-1 52:0.25 57:1.25 58:-1.25 60:-0.25 63:0.25 64:0.5 66:1 67:-1.25 73:0.5 74:-1.25 77:0.25 78:-0.25 79:-0.25 82:-0.25 83:-1 84:1.25 85:-1 88:0.25 93:1.25 94:-1.25 96:-0.25 99:0.25 100:0.5 102:1 103:-1.25 105:-0.5 107:1 109:-1 110:1.25 112:-2.5 113:0.25 114:-0.25 115:-0.25 117:-0.5 118:-2.25 119:1 120:1.25 121:-1.5 124:0.25 127:-2.5 129:1.25 130:-0.75 132:-0.25 135:-0.25 136:-1 138:1 139:1.25 
0 0 0 0 0 0 0.2127620637293215 0 0 0 0 0 0 0 0 0 0 0 0 0 0 0 0 0 0 0 0 0 0 0 1:2.5 2:1.25 3:1.25 4:2.5 5:2 6:2 7:2.25 8:2.5 9:1.5 10:2.5 11:1.25 12:1.25 13:3.25 14:1 15:1 16:1 17:1 18:0.25 19:3.25 20:1.25 21:1.75 22:2.75 23:1 24:1 25:1 26:1.75 27:0.5 28:2 29:0.5 30:1 31:1.25 32:2 33:2.25 34:3 35:1.5 36:1 38:-1.25 39:1.25 43:-0.25 47:-1.25 48:1.25 49:-0.75 54:0.25 55:-0.75 56:-1.25 57:0.25 58:-1.25 62:0.25 63:0.5 64:0.5 65:-0.5 67:-1.25 69:-0.25 71:0.5 74:-1.25 75:1.25 79:-0.25 80:0.5 81:1.5 83:-1.25 84:1.25 85:-0.75 90:0.25 91:-0.75 92:-1.25 93:1.75 94:-1.25 98:-0.25 99:0.5 100:0.5 101:-0.5 102:1 103:-1.25 105:-0.25 107:0.5 109:-2.5 110:1.25 111:1.25 112:-2.5 115:0.25 118:-2.5 119:1.25 120:1.25 121:-1.75 126:0.25 127:-1.75 128:1.25 129:0.25 130:-0.25 134:0.25 135:0.5 136:-1 137:0.5 139:1.25 141:0.25 143:0.5 
-0.3966533869170366 1.584322800380679 0 0.4926851620337641 0 0.2954220904339902 0.4397289734086843 0 0.5874873522021146 0 0.1370628308729076 0 0 0.9231028246243244 0 0.762570448563533 0.06949101916579051 0.4717874176000302 0.2982680351495393 0.5525613471553758 0.3655121588550342 0.9764654244117524 0.3905560878495397 0 0.5149572217813995 0.6581567507156232 0.3160072960629684 0 0.3074009445228808 0.5019505489967395 1:3.25 2:1.75 3:3.25 4:3 5:2.75 6:0.5 7:2.5 8:1.25 9:0.25 10:1 11:1 12:2.25 13:2 14:1.75 16:2 17:0.75 18:1 19:2.75 20:1.5 21:1.5 22:2.5 23:2.75 24:1.75 25:1.75 26:1 27:1.5 28:0.25 29:1.25 30:1.75 31:1.25 32:2.5 33:1.5 34:2 35:2 36:0.75 37:0.75 38:-0.25 39:0.25 40:0.5 41:-0.25 42:0.5 43:-0.5 44:0.25 45:-0.25 48:0.75 50:-0.75 53:-0.75 55:0.75 57:1 59:-0.75 60:0.25 61:0.25 64:-0.25 65:-0.75 66:0.75 67:0.25 68:0.5 69:0.5 72:0.25 73:1.25 74:-0.75 75:-0.25 76:-0.5 77:-0.25 78:0.5 79:-0.5 80:1.25 81:-0.25 84:-1.25 86:-0.75 89:0.25 91:-0.25 92:0.5 93:-0.5 94:-2.5 95:-0.25 96:0.25 97:0.25 99:0.5 100:-0.25 101:1.25 102:-1.75 103:0.25 104:0.5 105:0.5 108:0.75 109:-0.25 110:-0.75 111:-0.25 113:-0.25 114:0.5 115:-1.5 116:0.25 117:0.25 120:-0.75 122:-0.25 124:-2 125:-0.25 127:-0.25 129:-1 131:-0.75 132:-0.25 133:-1.25 136:0.25 137:-0.75 138:-0.75 139:0.25 140:0.5 141:-0.5 144:0.25 
-0.02385667876234479 0 0.8462402864000455 0.3086138093905862 0.2978758811097436 0.03251629436472703 0 0.5578661345839668 0.5055626064758063 0.5326919073376335 0.155788601788084 0.1343566459338069 0.3240270153168518 0 0 0 0.3994350456644741 0 0.1976078057930126 0 0.6791881568181095 0.4774864359574569 0.7481981423948115 0 0 0.05030558509882492 0 0 0 0.5181471971124901 1:2 2:2.25 3:2.25 4:4 5:1.5 6:1.75 7:2.5 8:1 9:0.5 10:1.75 11:1.75 12:2 13:3.5 14:1.5 15:1.5 16:2.5 17:2.5 18:2.25 19:3 20:3.25 21:2 22:2 23:2 24:1 25:2.5 26:1.25 27:1.25 28:0.5 29:3 30:1.75 31:4 32:3 33:3.5 34:2 35:2 36:3 38:-0.75 39:-0.75 41:-0.5 42:-0.75 43:-0.5 45:-0.5 46:0.75 47:0.25 48:-1 49:-0.5 52:-0.5 54:0.25 56:0.25 57:-1 59:-0.5 62:-0.25 63:0.25 65:-0.5 66:-0.75 69:0.5 71:-1 73:2 74:-0.75 75:-0.75 76:1 77:0.5 78:0.25 79:-1.5 80:1 81:-0.5 82:0.75 83:0.25 84:-1 85:1.5 86:1.5 88:-0.5 90:-0.25 91:-1 92:0.75 93:-1 94:2 95:1 98:-0.25 99:0.25 100:-0.5 102:-0.75 103:1 104:1 107:-0.5 108:1 110:-0.75 111:1.25 113:0.5 114:0.75 115:-0.5 117:0.5 118:-0.25 119:-0.25 120:1 121:0.5 123:1.5 124:-1.5 125:0.5 126:0.75 128:-1.25 129:1 131:-0.5 133:-1.5 134:0.25 135:0.25 137:-1.5 138:1.75 143:0.5 
-0 0.5659351669591807 0 0 0.09932006837663976 0.0701238364874236 0 0.107969151969535 0 0 0.1563189448896257 0 0.08550193596738066 0 0 0.1396518283822115 0.1579607079607323 0.0630272396661785 0.006744677301971637 0.4246506375019024 0 0 0.3741541661981025 0.4149523098368532 0.394438440871691 0.03363558594075657 0 0 0 0 1:4.5 2:2.5 3:3 4:2.75 5:3.5 6:1.5 7:1.5 8:0.5 9:0.5 10:1 11:1 12:2 13:2.5 14:1.75 15:1.75 16:0.25 17:2 18:1.5 19:1.5 20:1.75 21:1.75 22:2.5 23:2.5 24:1.5 25:2 26:1 27:0.75 28:0.5 29:2 30:1 31:1.5 32:2.5 33:1.75 34:2 35:2 36:1 38:-1 40:0.25 41:-0.5 42:0.5 43:-0.5 44:0.5 45:-0.5 48:-1 50:-0.25 51:-0.25 52:0.25 56:0.25 57:-1.25 59:-0.5 63:0.25 65:0.5 66:-1 68:-0.5 69:-0.25 72:1 73:-0.5 74:-1 76:-0.75 77:-0.5 78:0.5 79:-0.5 80:0.5 81:-0.5 84:-1 85:0.5 86:0.75 87:-0.25 88:-0.25 90:0.5 91:-1.5 92:0.75 93:-1.25 94:-2.5 95:-0.5 99:0.25 100:-0.5 101:0.5 102:-1 103:-0.5 104:0.5 105:-0.25 108:1 110:-0.5 111:1 112:-0.25 113:-0.5 114:1.5 115:-0.5 116:0.5 117:0.5 120:1 122:-0.25 123:1.75 124:-0.25 128:-0.75 129:0.75 131:-1.5 132:0.5 133:-1 135:-0.25 137:-1 138:1 140:-0.5 141:-0.25 144:1 
-0 0.3548892868789462 0.05693253749310394 0.2406582664358805 0.01263189062664513 0 0 0.252535859489878 0.5127088252043108 0.450572020996899 0.2146289255413044 0.2302727491969068 0.3016742594702976 0 0 0 0.08436291486183574 0.153267085387157 0.9607061255588829 0 0.4469525803275882 0.1040202529755573 0.1762086343661324 0 0.430063473732951 0.2229602606182056 0.3013454898180167 0 0 0.6895524385776688 1:2.5 2:1.75 3:4 4:2 5:2.5 6:0.25 7:1.5 8:0.25 10:1.25 11:1.25 12:2.75 13:3.25 14:1.75 15:0.25 16:1.5 17:2.25 18:1.75 19:0.75 20:2.25 21:1.75 22:3.75 23:3.5 24:2 25:2 26:1.25 27:1 29:2.25 30:1.25 31:3 32:1.5 33:2 34:3.25 35:3 36:2.25 37:0.5 38:-1.25 39:0.5 40:-0.5 42:0.25 43:-1 44:0.25 46:-0.25 47:0.25 48:0.25 49:0.25 50:0.25 51:0.25 52:-1 53:0.25 54:0.25 55:-0.75 56:0.75 57:-0.75 58:0.75 62:0.25 65:-0.75 66:-1.25 67:1 70:0.25 71:0.5 72:0.25 73:1.5 74:0.25 76:2 78:-0.25 79:0.5 80:0.25 82:-0.25 83:0.25 84:-2.25 85:1.25 86:0.25 87:-0.25 88:0.5 89:0.75 90:0.25 91:-0.75 92:-0.25 93:-1.75 94:-0.75 97:0.5 98:0.25 101:-1.25 102:-1.25 106:0.25 108:1.25 109:-0.5 110:-0.75 111:-0.5 112:-0.5 113:0.5 114:-0.25 115:-1 116:0.25 118:0.25 119:0.25 120:0.25 121:0.25 122:0.75 123:-0.25 124:-1 125:0.75 126:-0.25 127:0.75 128:0.25 129:0.75 130:1.25 131:0.5 133:-0.5 134:0.25 137:-0.25 138:1.25 139:1 140:0.5 142:0.25 143:0.5 144:0.25 
-0 0.2855619866038084 0.1906359932751495 0.1427360242778252 0.4036673603637613 0 0 0.3800910104710614 0.5394445550454273 0 0.3817379612331522 0.6281172067089732 0.3552142663017184 0 0 0 0 0.5942282334040118 1.218862897671619 0 0.5434629715701158 0 0.2871461548662168 0.39266871340912 0.9168255165712923 0.01733466102795804 0.313674645398359 0.05495777669423994 0 0.9926953562240701 1:2.25 2:1.25 3:2.25 4:1.25 5:1.5 6:1.5 7:1.75 8:1 10:0.75 12:2.25 13:1.75 14:1 15:0.25 16:0.5 17:0.75 18:1 19:2.75 20:1.25 21:2.5 22:1.25 23:1.75 24:1.75 25:2 26:2 27:2 29:1 30:2.5 31:2 32:1 33:1.5 34:1 35:1 36:1.75 37:1.25 38:1.25 39:0.25 40:-0.25 41:0.5 43:0.25 44:-0.5 46:0.25 48:-0.25 49:0.25 51:0.25 52:0.5 53:-0.75 54:-0.5 55:-0.75 56:0.25 58:-1.25 59:-0.25 60:0.25 65:0.5 67:0.5 68:0.5 72:0.75 73:1.25 74:-1.25 75:-2.25 76:-0.25 77:0.5 78:0.5 79:-1.75 80:1 82:0.25 84:-2.25 85:-0.25 87:0.25 88:-0.5 89:0.75 90:-1 91:-0.75 92:0.75 93:-2.5 94:-1.25 95:0.25 96:0.25 102:-2.5 103:0.5 104:0.5 105:-1 108:0.75 109:0.25 110:-1.25 111:-0.25 112:0.25 113:0.5 114:1 115:-0.25 116:-0.5 118:-0.25 120:0.25 121:0.25 123:0.25 124:-0.5 125:-0.75 126:0.5 127:-0.25 128:-0.25 130:1.25 131:0.25 132:-0.25 137:-0.5 139:1 140:1 141:0.5 144:0.75 
-0.3340393772276499 0.006581857482251334 0 0 0.1752597832449361 0 0 0 0 0.02976825385768904 0 0.08275952334954793 0 0 0.7385670081895319 0.07976342144501716 0 0.8817923388721075 0 0 0 0.660453732177813 0.1997601011864599 0 0.3917019367900117 0 0.7356122218310238 0 0.2453796550003315 0 1:2 2:1.25 3:1 4:2.25 5:1.25 6:1.25 7:1.75 8:1.25 9:0.25 10:0.5 11:0.25 12:1.25 13:2.25 14:1 15:0.5 16:0.75 17:0.5 18:0.5 19:3 20:1.25 21:2.25 22:1.25 23:1 24:1 25:1.5 26:1.5 27:1.5 28:0.25 29:0.5 30:2 31:1.5 32:2 33:2 34:1 35:1 36:1.25 37:1 38:1.25 40:-0.25 41:-0.25 42:0.25 43:0.25 44:-0.25 45:-0.25 47:0.25 48:-0.25 49:-0.25 52:0.75 53:-0.5 54:-0.5 55:-0.5 56:0.25 57:-0.25 58:-1.25 61:0.5 62:-0.5 64:-0.25 72:0.75 73:0.5 74:-1.25 75:-1 76:-0.75 77:0.25 78:1.25 79:-1.75 80:1.25 81:-0.25 83:-0.25 84:-0.75 85:-0.25 87:0.5 88:-0.75 89:0.5 90:-0.5 91:-0.5 92:0.25 93:-1.25 94:-1.25 95:1 96:-1 97:-1 98:-0.5 99:-0.5 100:-0.25 101:0.5 102:-2 104:1 105:-1 108:1.25 109:-0.5 110:-1.25 112:0.75 113:-0.25 114:0.25 115:-0.25 116:-0.25 117:0.25 118:-0.5 119:-0.25 120:-0.25 121:0.25 124:-0.75 125:-0.5 126:0.5 127:-1 128:0.25 129:0.25 130:1.25 133:-1 134:-0.5 136:0.25 139:0.5 144:0.75 
-0.8317864102560527 0.5586497370139376 0.7387836664525522 0.4606834309707141 0.6917562125543549 0.466006276603575 0.4576119528135938 0.2365848209024328 0.3186231010706555 0.6385399065570305 0.1151037560327998 0.4608295836309759 0 0.09730652394731273 0.279570395885368 0.5076137075772719 0.1120970505339814 0.7194260117493478 0.2897689010321972 0.5027588746322085 0.4888595390024259 0.4902503598450809 0.315965907476796 0.1702633093340994 0.3509543570981686 0 0.8679588406818916 0 0.1704535473011655 0.3579180681144943 1:3.5 2:2.75 3:1.25 4:4.25 5:2.75 6:2.75 7:3 8:1.5 9:0.25 10:3.25 11:2.5 12:2.5 13:3.25 14:2.5 15:2.25 16:1.5 17:1.75 18:1.75 19:3.25 20:2.25 21:1.25 22:2.5 23:1 24:1 25:3 27:1 28:0.25 29:2.25 30:1 31:0.75 32:3.75 33:2.75 34:2 35:1.75 36:0.5 37:1.5 38:-0.75 39:-1.25 40:-0.25 41:0.25 42:0.25 45:-0.25 46:-0.75 48:-1 49:0.75 51:-0.25 52:0.5 53:-0.75 54:-0.25 55:-0.75 56:0.25 57:0.25 64:-0.25 65:0.75 67:0.25 68:-0.25 69:-0.25 71:0.25 72:0.5 73:1 74:-1.25 75:-1.25 76:0.75 77:-0.25 78:-0.25 79:-0.5 80:1.5 81:-0.25 82:-0.25 84:-1 85:0.75 86:-0.5 87:-1.25 88:-0.5 89:-0.25 90:0.75 91:-0.75 92:0.25 93:0.25 97:0.5 99:-1 100:-0.25 101:0.75 102:-0.5 103:-0.25 104:0.25 105:-0.25 107:0.25 108:0.5 109:-1 110:0.25 111:1.25 112:0.25 113:0.25 114:0.25 115:-0.5 117:0.25 118:-1.25 119:-0.5 120:0.5 121:-1.75 122:-1 123:0.25 124:-1.5 125:-0.75 126:-0.25 127:-0.75 128:-0.75 129:-0.75 130:-2.5 133:-0.5 136:0.25 137:-0.75 138:-0.5 139:-0.75 140:0.25 141:-0.25 143:-0.25 144:0.5 
-0.4237466755070365 0.1384364179184749 0.5262295940462418 0 0.8264558710375537 0 0.2588934561443642 0.4028456360862383 0 1.413596692620958 0.5108568461611232 1.257958886709361 0.371080827263065 0.4264948695287359 0.2622782632063257 0.5791979171584986 0.5486039210106358 0.3356252811784047 0.7292956540559616 0 0.5984745280913154 0.8452221038526041 0.540228729660891 0 0 0.4778703776082908 0.4142230078872043 0.9275342390843594 1.201756185387649 0.6503183626539792 1:1 3:1.25 4:0.75 5:1 6:0.75 7:2.5 8:1 10:2 11:1.5 12:1.25 13:1.5 15:0.25 16:2 17:1.5 18:2.25 19:2.25 20:1.75 21:0.75 23:1 24:0.75 25:1.5 26:0.25 27:1 29:2.75 30:1.25 31:2.75 32:0.75 33:1.5 36:2.75 37:1 39:0.75 40:-0.25 42:-0.25 47:0.5 48:-0.25 49:0.5 51:-0.25 52:-0.5 53:-0.5 54:-0.25 55:-0.25 56:0.25 57:-0.25 60:0.25 61:-0.5 62:-0.25 65:-0.25 66:1.25 67:0.25 68:0.75 69:0.5 72:-0.25 73:1 75:-1.25 76:0.25 78:-0.75 80:1 82:-1.5 83:-0.5 84:-0.75 87:-0.25 88:0.5 89:0.5 90:-0.25 91:-1.75 92:1.25 93:-0.75 96:0.25 98:-0.25 101:-2.25 102:1.25 103:1.25 104:0.75 105:-0.5 108:-0.25 109:1 111:-0.75 112:0.25 114:0.25 115:-0.5 118:-0.5 119:-0.5 120:0.75 123:0.25 124:-1 125:0.5 126:0.25 127:-0.25 128:-0.25 129:0.25 132:-0.25 133:-1 134:0.25 137:-0.25 138:1.25 139:-0.25 140:0.75 141:-1.5 144:-0.25 
-0.2345314604754812 1.087739271149082 1.036771778726265 0.5046271343133235 0.957994226626257 0.5899182847753239 0.4012346087539179 0.8609004223374182 1.351552138996517 1.197001945748103 0.3675214236304863 0.5223622947213955 1.086666193588427 0.5913385498704766 1.419054111729877 0.352557922710096 0.6319244622956834 0.5909298356104992 1.390949064729752 0 0.506615726223924 0.2550161354134121 0.6333476307106248 0.9114226887031106 1.085499970933946 0.7922564429338098 0.932235621129935 0.5609923569663368 0.2153487331165531 0.9923049011763306 1:1.5 2:0.5 3:2.75 4:2 5:1 6:2.25 7:3.5 8:0.5 9:0.25 10:3.75 11:2.25 12:3 13:2.5 14:0.5 15:0.75 16:3 17:2.5 18:2 19:2 20:3.5 21:1 22:1.5 23:2 24:2.75 25:1.75 26:0.5 27:1.5 28:0.25 29:2.5 30:1.75 31:2.5 32:1.25 33:2.75 34:1 35:1.5 36:2 37:1 39:-0.75 40:0.5 42:0.75 44:0.5 45:0.25 46:0.25 47:0.25 49:1 50:0.5 51:0.25 54:1 55:-0.5 56:0.5 57:0.5 58:1 59:0.5 60:0.25 61:0.25 62:-0.5 64:-0.25 66:0.25 67:0.5 68:0.25 69:0.25 72:0.5 73:1.5 75:0.75 76:0.5 78:-0.25 79:0.5 80:0.5 81:-0.25 82:0.25 83:1.25 84:-1 86:-0.5 87:-0.75 89:0.5 90:0.5 91:-1 93:-0.5 94:-1.5 95:0.5 96:0.25 97:0.25 99:0.5 100:-0.25 101:-0.5 102:-1.75 104:1.25 105:-0.25 107:-0.5 108:1 109:1 110:-0.5 111:-0.75 112:-1 114:-0.75 116:0.5 117:-0.25 118:-0.25 119:-0.75 120:-1 121:-1.5 122:-0.5 123:-0.25 126:-0.5 127:-0.5 128:-1 129:-1 130:-1 132:-0.25 133:-0.25 136:0.25 137:-1 138:-0.25 140:0.25 141:0.25 144:0.5 
-0.5342262834069738 0.9333511877741961 1.285070182057502 1.645006206698998 0.8116043439638521 2.127102760331698 0.5799659116900059 2.021585479283282 1.893258450509149 1.015634432925136 0.9890588109385439 0.401618534613789 1.833047798429121 1.792995962564504 0.7112837033420237 0.5873709508669706 1.392329500442041 0.8670135174067936 1.302825447705563 0.8971430286666363 1.519523328215008 0.9861112509161115 1.258048297977484 0.8998283909146655 0.9273637205387966 0.6218853387143103 2.503658521926794 0.29157400779336 0.3797049860398204 1.056823564232121 1:4.25 2:3.5 3:3 4:3.5 5:3.25 6:3.25 7:3 8:0.75 9:0.5 10:3.5 11:3.75 12:4 13:3.25 14:2.75 15:3 16:3.25 17:3.25 18:2.25 19:2.5 20:4.25 21:3 22:2.5 23:2.5 24:2.75 25:3 26:2.5 27:2 28:0.5 29:3 30:2.75 31:1.75 32:3 33:2.75 34:2 35:2 36:1.25 37:0.25 38:-0.5 39:-1 41:-0.25 42:-0.25 43:0.5 44:-0.25 46:-0.5 47:-0.25 48:0.5 49:0.75 50:-0.25 51:-0.5 52:0.75 53:-0.25 54:0.25 55:-0.5 56:0.25 60:-0.25 64:-0.5 66:0.25 67:0.25 69:-0.25 72:0.25 73:-0.25 74:-0.5 75:1 76:-0.5 77:-0.25 78:0.75 79:-0.5 80:0.75 81:-0.5 82:-1.5 83:-1.25 84:-0.5 85:0.75 86:0.25 88:-0.25 89:0.25 90:0.25 91:-1 92:0.25 93:-1 96:-0.25 97:0.5 98:-0.5 100:-0.5 101:0.5 102:-2.25 103:0.75 105:-0.25 108:1.25 109:-0.25 110:-0.5 111:1 113:-0.75 114:0.25 116:-0.25 118:-0.5 119:-0.25 120:1 121:-1.75 122:-0.75 123:0.5 124:0.25 125:-0.25 126:-0.75 128:-0.75 129:1 130:-2.5 131:-0.5 132:-0.25 133:-0.5 136:0.5 137:-1.5 138:0.25 139:-0.75 140:-1 141:-0.25 144:0.25 
-0.4067877835438654 0.2223942214378566 0.3187838122528812 0.7210060289127706 0.6504101876950282 0.5681879868082419 0.1203493972920585 0.6079879263816082 0.1597308937491653 0.2300711167349866 0.2146898390438443 0 0.4456098535005273 0.2930025641832738 0.05679796310205757 0.02066042582277344 0.6472909536682685 0.2051151737340096 0.3205053139539988 0.3008485383480353 0.614559102262808 0.7690931476629177 0.7571192077789281 0.181814376098145 0.002355892869296221 0 0.3392563050014239 0 0.1477948212598872 0.224911937565105 1:3.25 2:3 3:4.5 4:3.25 5:2.75 6:2.25 7:2.75 8:0.75 10:3 11:3.5 12:3.25 13:4.25 14:2.75 15:1.75 16:3.75 17:2.5 18:1.5 19:2.25 20:3.75 21:2 22:5 23:4 24:1.75 25:3.5 26:0.75 27:0.5 29:2 30:0.75 31:3.75 32:2.5 33:3 34:4 35:4 36:2.75 37:0.75 38:0.5 40:0.75 41:0.25 42:0.25 43:0.25 44:0.75 46:-0.5 47:0.5 48:0.25 49:0.75 50:0.75 51:0.25 52:0.25 54:-0.5 55:-0.75 56:0.75 60:0.25 61:0.5 62:0.25 66:0.75 67:0.25 72:0.25 73:0.75 74:-1 75:-0.5 76:0.75 77:-0.25 78:-0.75 79:-0.25 80:0.75 82:-1.5 83:0.5 84:-1.25 85:0.75 86:0.25 87:-1.25 88:0.25 89:0.5 90:-0.5 91:-0.75 92:0.25 93:-1 96:-0.25 97:0.5 98:0.25 99:0.5 101:-1 102:0.75 103:0.75 108:1.25 109:-1.75 110:-0.5 112:-1.75 113:0.25 114:0.25 115:0.25 116:0.75 118:-1 119:-0.5 120:-0.25 121:-0.75 122:0.25 123:0.25 124:-0.25 126:0.5 127:-0.75 128:-0.75 132:0.25 133:-0.5 134:0.75 138:0.75 139:0.25 140:0.5 144:-0.25 
-0 0.06617905467902392 0.3490055985668553 0 0.4724123663933427 0 0 0.362954529315534 0 0 0 0.1472057324753273 0 0 0 0.1369816613538972 0 0 0 0.02586647558522489 0.5363540280707774 0.07261664044207571 0.02122190116119753 0 0 0 0 0.01037607244506711 0 0.2417051145447222 1:1.75 2:2 3:1.5 4:2.25 5:1.25 6:0.75 7:2.25 8:0.5 9:0.25 10:1.25 11:2 12:2 13:2.75 14:1.5 15:1.5 16:2 17:1.75 18:1.5 19:1.75 20:2.75 21:2 22:1.25 23:1.25 24:1 25:2.5 26:1 27:1 28:0.25 29:1.5 30:1.25 31:2 32:2 33:2.5 34:1 35:1 36:1.75 37:-0.75 38:1 39:-1 40:0.75 41:0.25 42:0.25 43:-0.25 45:-0.25 46:-0.25 48:-1 49:0.75 50:0.5 51:-0.5 52:-0.5 53:-0.25 55:-0.75 56:0.25 57:-1 58:1.25 59:0.75 64:-0.25 66:-1.25 67:1 68:0.5 72:-0.75 73:-1.75 74:0.5 75:-0.5 76:0.25 77:0.25 78:0.25 79:-0.25 80:0.5 81:-0.25 82:-0.25 84:-1 85:0.75 86:0.5 87:-0.5 89:0.75 90:-0.5 91:-0.75 92:-0.25 93:-1 94:1.25 95:0.25 100:-0.25 101:-0.5 102:-1.25 103:1 104:1.5 108:0.75 109:0.75 110:1.5 111:1 112:0.75 113:0.25 114:0.75 115:-1.75 117:0.25 118:0.25 120:1 121:0.75 122:0.5 123:1.5 124:-1.5 125:-1.25 126:-1 127:0.75 128:0.25 129:1 130:1.25 131:0.75 133:-1.5 136:0.25 138:1.25 139:1 141:-1.5 144:-0.75 
-0.2843090029720513 0 0.1881222910384301 0 0.9202053659313544 0.61243799743495 0.01814287505422248 0.6445243720920183 0.02456583331903591 0.2053008632767287 0.09599837606866221 0.2785210341095313 0.4310491137637602 0 0.2528946476365504 0 0.446197790830482 0.3273358199655639 0.6343975443394171 0.2347004557403534 0.5789033150316442 0.3303312829436684 0.5050502929017815 0.08184778365650441 1.086342568812547 0 0.7934315151575796 0.7522648430353093 0 0 1:3.25 2:0.75 3:0.25 4:3 5:2.5 6:2.25 7:2 9:0.5 10:2.5 11:2.75 12:1.5 13:3 14:0.5 15:2.25 16:0.75 17:1.5 18:0.75 19:1 20:1.25 22:2.25 23:0.25 24:0.5 25:1 28:0.5 29:1 31:1.75 32:2.5 33:2.5 34:2 35:1.75 36:1.25 37:-0.25 38:0.25 39:0.25 42:0.75 43:-0.5 46:-0.5 47:0.25 48:0.5 49:0.5 50:0.5 51:0.25 52:-0.75 53:0.5 54:0.75 55:-0.5 56:0.75 58:-0.25 59:0.25 61:-1 64:-0.5 65:0.5 67:0.75 68:0.5 71:-0.25 72:0.75 73:-0.25 74:-0.75 75:0.25 77:0.5 78:-0.75 81:-0.5 82:-0.5 83:0.25 84:0.5 85:0.5 86:0.5 87:-1.75 88:0.75 89:0.5 90:-0.25 91:-0.5 92:-0.25 94:-0.25 95:0.25 96:-0.5 97:1 100:-0.5 103:0.75 104:0.5 105:-1 107:-0.25 108:0.75 109:-0.75 110:-0.25 111:0.25 112:2 113:1 114:0.75 115:-1.5 118:-0.5 119:-0.25 120:0.5 121:1 122:0.5 123:0.25 124:-0.75 125:0.5 126:-0.25 128:-0.75 130:2.25 131:0.25 133:-1 136:0.5 137:-0.5 139:0.75 140:0.5 141:0.5 143:-0.25 144:0.25 
-0.4784863375697308 0.5366817678384045 0.563269251106435 0.7004757878971527 0.8638422087776425 1.042481048142622 0 1.023152202005365 0.7046951020455995 1.254763863055658 0.6941716813454962 0.6707462020836779 0.4931374387567052 0.5071594829892251 1.128236967808848 0.6479246940787219 0.6605309776121877 0.005336814342744578 1.760782533259577 1.028805151883863 1.473024440827337 0.9217238178158079 0.9894482820309508 0.7553377611920272 1.820477026562851 1.065221684651205 1.362666547825961 0.8406994380671643 0.6580145410249663 1.277578148950017 1:1 2:0.75 3:0.5 4:1.5 5:0.5 6:1 7:0.25 10:0.5 11:1 12:1.5 13:1.25 14:0.75 15:1 16:1.25 17:2.25 18:0.75 19:0.25 20:3.5 21:2.75 22:2.75 23:0.25 24:1.25 25:1.75 26:1.75 27:1 29:0.75 30:1.25 31:3 32:1.25 33:1.5 34:0.75 35:2.5 36:2.5 38:-0.25 39:-0.5 40:1 41:0.5 43:0.25 48:-1 49:0.25 50:0.25 51:-1 52:0.75 53:0.25 54:-0.25 55:-0.25 57:-0.25 58:-1.25 59:0.25 60:-0.25 61:0.75 62:0.25 65:-0.25 66:-0.25 68:0.25 70:-0.25 74:0.25 75:-0.5 76:-0.5 77:0.5 79:-0.25 82:-0.5 84:-1 85:0.75 86:0.75 87:-1 88:-1.25 89:1.75 90:-0.75 91:-0.25 93:0.25 94:0.75 95:0.25 96:-0.25 97:-0.75 98:0.25 101:-0.75 102:1.25 103:1.5 104:0.25 105:-1 106:-0.75 107:0.5 108:0.5 110:-0.75 111:0.5 112:-1 113:0.5 114:1 115:-0.25 120:1.5 121:-0.25 122:0.25 123:1 124:-0.75 125:-0.25 126:0.25 127:0.25 128:0.5 129:1.25 130:0.75 131:0.25 132:0.25 133:-0.75 134:-0.25 137:0.25 138:-0.25 139:-0.5 140:0.25 141:0.5 142:0.25 144:-1 
-0 1.547463013079827 0.2381156126632698 1.342570343756982 0.7921713722579813 1.017928886928958 0.4307297551342681 1.697483670371714 1.127328271188469 1.400287980351088 0.8007566893574029 1.89344145179696 0.7049321110099415 0.9201471862626288 1.793579343577972 0.7559862967539179 1.289441836498006 0.8866131949122986 1.495816015000878 1.570588617683901 1.815338251582244 1.252088663924207 0.5468784035619655 1.175605321173858 1.737816759076627 0.8653056365359988 1.348022319043468 0.9613026798834768 0.5814467826129417 1.077379552404736 1:0.25 2:1.25 3:2 4:2.25 5:0.25 6:0.5 7:2.75 8:0.75 9:0.5 10:1.5 11:1.75 12:2 13:1 14:1 15:1.25 16:2 17:1.5 18:1.25 19:2.5 20:2.5 21:2.75 22:1.25 23:1.75 24:1.25 25:2.25 26:2 27:1.25 28:0.5 29:1.5 30:1.75 31:1 32:2 33:1.25 34:0.25 35:1.25 36:0.75 37:0.25 38:-0.25 39:-0.5 40:0.75 41:-0.25 43:-0.75 44:-0.25 47:-0.25 48:0.5 49:0.5 51:-0.75 54:0.25 57:-0.25 58:0.75 59:0.75 60:0.25 61:-0.25 62:0.5 63:0.25 64:-0.5 65:-0.5 66:0.25 67:0.5 68:-0.5 69:0.25 70:-0.25 71:0.25 72:-0.25 73:-0.25 74:-1.25 75:-1 76:1.25 77:0.25 78:-0.5 79:-0.75 80:0.75 81:-0.5 82:-0.5 83:0.25 84:-1 85:1 86:1 87:-0.75 88:-0.5 89:-0.5 90:-0.25 91:-0.5 92:0.5 93:-0.75 94:1.25 95:1.25 96:-0.75 97:-0.25 98:-1 99:0.75 100:-0.5 101:1.5 102:-1.75 103:1 104:1 105:-0.25 106:-0.25 107:0.25 108:0.75 109:-0.25 110:0.25 111:0.5 112:0.75 113:-0.25 115:-1.25 116:-0.25 119:0.25 120:-0.5 121:0.5 123:1.25 124:-1.5 125:-1 126:-0.25 129:0.25 130:0.75 131:0.25 132:0.25 133:-0.75 134:-0.5 135:-0.25 136:0.5 137:-0.5 138:-0.25 139:0.5 140:-0.5 141:-0.25 142:0.25 143:0.25 144:-0.25 
-1.581187634554288 2.814962408602149 0.9729939642441901 1.330383861611638 0.9962483092076453 2.148002771811319 0.8824958432046108 2.03668130797116 2.118810043458604 2.560359777118702 1.459549905613195 1.810658803803428 1.781694503773538 2.061356684001315 2.255455667138808 2.343330588574349 1.806742136697648 1.529345090722179 3.106919103383039 1.853372449917502 1.69252068183459 2.143726218999375 1.80137125715695 1.894244623443302 3.336660523022436 2.382873194316171 2.183726241969828 1.98174852087752 1.670914095387062 3.272275498058817 1:0.5 2:2.25 3:1.5 4:0.25 5:0.5 6:0.5 8:0.25 10:0.5 11:1.75 12:2 13:0.25 14:2 15:1 16:1.5 17:0.75 18:0.75 19:0.25 20:1 21:1.25 22:1.25 23:1.25 24:1.5 25:1.25 26:1.25 27:0.5 29:1 30:1 31:2.25 32:0.25 34:0.75 35:1 36:2 37:0.5 38:0.75 39:0.5 40:0.25 44:-0.25 46:-0.5 47:0.25 48:1 49:-0.25 50:-0.5 51:0.5 52:0.5 53:0.25 54:0.25 55:0.25 57:-1.25 58:-1.25 59:-0.75 60:-0.5 61:-0.25 62:-0.25 67:-0.25 68:-0.25 70:0.25 73:-0.5 74:0.25 75:-0.5 76:0.25 77:0.5 78:-0.5 80:0.25 82:0.5 83:0.75 84:-1.5 85:-0.25 86:-0.5 88:0.5 89:-0.25 90:0.25 91:0.25 92:0.5 93:0.25 94:-1.25 95:0.25 97:0.25 98:-0.25 101:-0.5 102:0.5 103:-2.25 104:0.25 106:-0.25 109:-0.5 110:0.75 111:-0.5 112:0.25 116:-0.25 118:-0.5 119:0.25 120:-0.5 121:0.25 122:-1 123:-0.5 124:1.5 125:0.25 126:-0.25 127:0.25 128:0.5 129:-0.25 130:1.25 131:-0.75 133:-0.25 134:0.25 135:-0.5 137:0.5 138:0.5 139:0.25 140:-0.25 142:0.25 
-0.5377009095735545 1.332289839396249 0.1836267904960348 0.2707384617397282 0.07108097159923826 1.293080004678216 1.645712312362265 0.5806102704940006 0.9393897113661017 1.829160062923478 0.1307722314299276 0.9086861061304145 0.416883703548762 0.5637101283411548 1.571278518089555 1.859416629803699 0.5255746618755293 1.48407190709984 1.10468377566987 0.5692488862994101 0.3398490673997771 0.2063344887847701 0.2489496076789214 0.768955772480203 1.716117729099602 1.432490034926282 1.546199111582808 1.071481927661594 0.6025603640110291 2.147644050405297 1:1 4:1 5:0.5 6:1.5 7:0.5 8:1 10:1 11:1 12:0.5 13:2 15:1 17:2 18:1.5 19:1.5 20:1.5 21:1 25:1.5 29:2 32:1 33:2 41:0.5 42:-0.5 43:-0.5 51:-1 53:-1 54:-0.5 61:-0.5 68:1 73:1 77:0.5 78:-0.5 79:-0.5 80:1 84:-0.5 87:-1 90:0.5 91:-1.5 92:-0.5 93:-1 97:-0.5 101:-1 104:1 113:0.5 114:1.5 115:0.5 123:1 125:-1 126:0.5 133:-0.5 140:1 141:-2 
-0 0 0 0 0.08163073679019943 0 0 0 0 0 0 0 0 0 0 0 0 0 0 0 0 0 0 0 0 0 0 0.371741503979265 0.02165147531028715 0 1:2 2:1.25 3:2.75 4:2 5:1.25 6:1 7:0.5 10:0.25 11:1 12:0.25 13:2.75 14:1 15:1.25 16:0.75 17:2.25 18:1 19:0.5 20:3 21:0.5 22:2.5 23:2.5 24:0.25 25:0.5 26:0.5 29:1 30:0.25 31:3.5 32:1.75 33:2 34:2 35:2 36:3 38:-0.75 39:-0.75 41:0.25 42:0.5 46:-0.25 47:0.5 48:-0.25 49:0.75 50:0.5 51:-0.25 52:0.75 53:0.25 54:-0.5 55:-0.5 60:0.25 65:-0.5 66:0.25 67:0.5 68:-0.25 72:0.5 73:-0.5 74:-0.75 75:-0.75 77:1.25 78:0.5 79:-0.5 82:-0.25 84:-0.25 85:0.25 86:1 87:-0.75 88:-0.75 89:1.75 90:-0.5 91:-0.5 95:1.5 96:0.25 98:-0.5 101:-0.5 102:0.25 103:0.5 104:1.25 105:-0.5 108:1 109:-0.5 110:0.25 111:0.75 113:0.25 114:1 118:0.25 119:0.5 120:0.25 121:1.25 122:0.5 123:0.75 124:-0.75 125:-0.25 127:0.5 129:0.5 130:2.5 132:0.25 133:-0.5 138:0.25 139:0.5 140:0.25 141:-0.5 144:-0.5 
-0 0.2625076883791281 0 0 0 0.4290297518090661 0.02420111515253701 0.07590519815577493 0.1648076894423135 0.4907530860324653 0 0.01406151628336243 0 0.063686729994964 0 0.1380494257533107 0 0 0.5748573077863264 0 0.5583804762736334 0 0 0.3188479662365513 0.04958606846414616 0 0 0 0 0 1:1.75 2:1.5 3:3.5 4:1.75 5:1 6:1.5 7:1 8:0.25 9:0.25 10:0.75 11:0.75 12:2.5 13:2 14:1.25 15:1 16:0.5 17:1.5 18:1.75 19:1.25 20:1.75 21:3 22:1 23:3 24:1.75 25:2.5 26:2 27:0.75 28:0.25 29:2 30:1 31:2.25 32:1.5 33:1.75 34:1 35:0.75 36:2 37:0.75 38:0.5 39:-0.5 40:-0.25 41:0.5 43:0.5 44:0.25 45:-0.25 46:-0.25 47:0.25 50:0.75 51:-0.5 52:0.5 53:0.5 54:0.25 55:-0.75 56:0.25 58:-1 60:-0.25 62:0.5 63:0.75 64:-0.25 66:0.5 67:0.25 69:0.25 71:-0.25 72:0.5 73:0.75 74:-0.5 75:-1.5 76:0.25 77:1 79:-1 80:0.25 81:-0.25 82:-0.25 83:0.25 84:-2 86:1.25 87:-0.5 88:-0.5 89:0.5 90:-0.75 91:-0.75 92:0.25 93:-2 94:-1 95:0.5 96:0.25 99:-0.25 100:-0.25 103:0.25 104:1 105:-1.25 107:0.25 108:1.5 109:-0.25 110:-0.5 111:-0.5 112:0.25 113:0.5 114:1.5 115:-0.5 116:0.25 117:0.25 118:-0.25 119:-0.25 120:-0.5 122:0.75 123:1 124:-0.5 125:0.5 126:-0.25 127:0.25 128:-0.25 130:1 131:0.5 132:0.25 133:-0.5 134:-0.5 135:-0.25 136:0.25 138:0.5 139:0.25 140:0.5 141:0.25 143:0.25 
-0.8450409243393371 0.3517790772026861 0.7903122879490557 0 0.3005779308543503 0 0.7185125203248202 0 0.3848393946865042 0.4147134464753551 0.002308733450305976 0.0383831054463869 0.3724106671035617 0.3117083802867556 1.010470580303457 0.511954506458798 0 0.03465493067877822 0.3141775210495085 0 0 0.2339684359757095 0.07417356210999558 0 0.5105603500222933 0.6251876042970901 0.3290135473688232 0 0.4476554482410945 0.2673991815107942 1:3 2:0.25 3:0.5 4:2.75 5:2.25 6:1.25 7:2 8:0.25 9:0.5 10:1.5 11:1.75 12:1.25 13:3.5 15:1 16:2 17:1.5 18:1.5 19:1.25 20:2.25 21:1 22:2.25 23:0.25 24:0.5 25:1.25 26:1 27:0.25 28:0.5 29:1.75 30:0.5 31:2 32:2 33:3.25 34:1.75 35:1.75 36:1.75 37:-0.5 38:-0.25 39:0.5 40:-0.25 41:-0.25 42:1.25 43:-0.5 44:0.25 46:-0.5 47:0.25 48:0.25 51:1 52:-1 53:0.5 54:0.5 55:-0.75 56:-0.25 57:0.5 58:-0.25 59:0.25 60:0.5 61:-0.75 63:-0.25 65:-0.25 67:0.5 68:0.5 69:0.25 70:-0.25 71:0.25 72:0.75 73:-0.5 74:-0.25 75:0.5 76:-0.75 77:-0.25 78:0.25 80:0.25 83:-0.25 84:0.25 87:-0.5 89:0.5 90:-0.5 91:-0.75 92:-0.25 93:0.5 94:-0.25 95:0.25 97:0.75 99:0.25 101:-0.25 103:0.5 104:0.5 105:0.25 106:0.25 107:0.25 108:0.75 109:-2 110:0.25 111:0.5 112:1.25 113:0.25 114:0.25 115:-1.5 116:0.25 117:0.5 119:0.25 120:0.25 121:1.5 123:-0.5 124:-1 125:0.5 126:-0.5 127:0.25 128:0.25 129:1 130:2.25 131:0.25 133:-1.25 135:-0.25 136:0.5 137:0.75 138:0.5 139:1 141:-0.75 142:0.25 143:-0.25 144:0.75 
-0.8014514258100212 1.233229889484626 0.3837142408869028 1.940108494635688 0.2703932108420191 2.588674365301743 0.885944716885239 1.622915323397826 1.732998033980777 2.830305592450582 1.071748563090232 0.3134707881457406 1.602204192474269 2.000221840821666 1.055825974822098 1.428498494458027 2.068821720337741 1.001547325769805 1.816905374246515 0.8533103005029008 1.100490114357807 0.9693729330298702 0.6134515132787406 0.3611880333924782 1.827482758519688 0.9165008215618986 1.310850700258974 0.6450789794071477 0.5437617193620558 2.416755485265065 1:2.25 2:2.75 3:3.25 4:1.25 5:2 6:0.25 7:0.25 9:0.75 10:0.25 11:2 12:2.25 13:2.75 14:2 15:2 16:2 17:1 18:0.75 20:2 21:2 22:2.25 23:2.75 24:1.75 25:1.5 26:1.75 27:0.5 28:0.75 29:1 30:0.75 31:2 32:1.25 33:1.75 34:1.5 35:2.75 36:1 37:-0.25 38:0.25 39:0.75 40:0.25 42:0.25 43:-0.25 45:-0.25 46:-0.25 48:-0.75 49:0.75 50:-0.5 51:-0.5 52:-0.5 54:0.25 56:-0.5 58:0.75 59:-0.25 60:0.25 62:0.25 64:0.75 65:-0.5 66:0.75 67:0.5 68:-0.25 69:-0.75 70:0.5 71:-0.25 72:0.5 73:-2.25 74:-1.75 75:0.25 76:0.75 78:0.25 79:0.25 81:-0.25 82:-0.25 83:-0.5 84:-0.25 85:1.75 88:-0.5 90:0.25 92:-0.5 93:1 94:0.75 95:0.25 96:-0.25 97:0.5 98:0.25 99:0.5 100:0.75 101:-1 102:0.75 103:0.5 104:0.75 105:-0.75 106:0.5 107:-0.25 108:1 109:0.25 110:0.75 111:0.75 112:-0.25 114:0.25 115:-0.25 117:-0.25 118:0.25 119:0.5 120:1.75 121:-0.25 122:-0.5 123:1.5 124:-1 126:-0.25 130:1.25 131:-0.75 132:0.25 133:-1 134:-0.25 136:0.75 137:0.5 138:0.75 140:0.25 141:-0.25 142:0.5 143:0.75 144:0.5 
-0.6480553142096429 0.5098405426252695 1.355820257971278 1.70132818093476 0.4762488609006174 0.5038980020213153 0.3534889055352999 1.424600358303746 1.288984053998904 0.6988499004433733 0.6111273928246059 0.3626572558390268 1.050772537747389 0.676449506827398 0.9328857638897935 0.2269885082983771 0.7604695486149425 0.4451111040023587 0.9166391121011489 0.5567575715346218 0.9283763214353146 0.9975588180682782 1.711868711930081 0.5128439245057772 0.800566187981243 0.599849708669103 1.536222431158085 0.160003561742271 0.4229380892996756 1.28466881670287 1:2.75 2:2.25 3:4 4:4 5:2.75 6:0.75 7:2.25 8:0.75 9:0.5 10:2.25 11:4 12:3.5 13:5 14:2.25 15:2 16:3.5 17:2.75 18:2.25 19:1.5 20:3.75 21:2.75 22:5 23:3.75 24:1.75 25:3.25 26:2.25 27:2 28:0.5 29:2.75 30:2.75 31:3.75 32:3 33:4 34:4 35:4 36:2.75 37:-0.75 38:1.25 40:-0.5 41:0.25 42:0.25 43:0.75 44:0.25 46:-0.25 48:-0.5 50:0.25 52:0.5 53:-0.25 54:-0.25 56:-0.25 57:-0.25 59:0.25 60:0.75 61:0.75 62:-0.25 64:-0.5 65:0.25 66:0.25 67:0.25 72:0.25 73:-0.75 74:-0.75 75:-0.5 76:0.5 77:-0.25 78:-0.25 79:0.75 80:0.75 81:-0.5 82:-1.25 84:-0.5 86:-0.25 88:0.5 89:0.75 90:-0.25 91:-1.5 92:-0.25 93:-0.25 95:0.25 96:-0.75 97:0.75 98:-0.25 100:-0.5 101:-1.75 102:-1.75 103:0.75 104:0.5 108:1.25 109:-1.25 110:0.25 111:0.5 112:1 113:0.25 114:-0.75 115:0.25 116:0.25 118:0.25 120:0.5 122:0.75 123:-2 124:-0.5 125:-0.25 126:0.25 128:-0.25 129:1.75 131:-0.25 132:-0.75 133:-0.75 134:0.25 136:0.5 137:-0.25 138:0.75 139:0.25 140:0.5 144:-0.25 
-0.7876043745698086 0 0.1900171519119303 0 0 0 0 0 0.2348648574268401 0.28690027361323 0 0 0 0 0 0.2133163261166294 0 0.02206676507417372 0 0 0 0 0 0 0 0 0.1650028283674675 0 0 0 1:2 2:0.5 3:0.75 4:3.25 5:1.25 6:1.75 7:1 10:1 11:1 12:0.75 13:3.5 14:0.5 15:1 16:1.25 17:2 18:1.25 19:1 20:3 21:1.5 22:1.75 23:0.75 24:0.25 25:1.5 26:0.75 27:0.5 29:1.5 30:0.75 31:3 32:2.75 33:2.75 34:2.25 35:1.75 36:2 37:1 39:0.25 40:0.75 41:-0.75 42:-0.25 43:0.5 48:0.25 49:0.5 50:-0.5 51:-1 52:0.25 53:-0.5 54:-0.25 55:-0.5 56:-0.5 57:0.5 58:-1.25 59:-0.75 60:-0.25 61:0.5 62:-0.25 65:-0.5 66:0.75 68:0.25 69:-0.25 70:0.25 71:-0.75 72:0.5 73:1 74:-0.5 75:-0.25 76:0.75 77:0.25 78:1.25 79:-1 84:-0.25 85:0.5 86:0.5 88:-1.25 89:1 90:-0.25 91:-0.5 92:0.5 93:0.5 94:-0.75 95:0.75 96:0.25 97:-0.5 98:-0.25 99:0.5 101:-0.5 102:0.75 103:0.5 104:0.25 105:-0.25 106:0.25 107:-0.75 108:1.5 111:0.25 112:-1.75 113:-0.75 114:0.25 115:-0.5 120:0.25 121:-0.5 122:-0.5 124:-0.25 125:-0.5 126:0.25 129:0.5 130:0.25 131:-0.75 132:-0.25 133:-1.5 134:-0.25 137:0.5 138:0.75 139:0.5 140:-0.25 141:-0.25 142:0.25 143:0.75 
-0 0.719248593510943 0.5420834662304916 0.4795921163520719 0 0 0.6635493741680559 0.3813554995932765 0.476700693848829 1.089230618260882 0 0 0 0 0.8222079306610233 0 0 0.06383275479274463 0.2929827040527444 0 0 0.1981451597270171 0.7423987934045357 0.4585673677428647 0 0.3815053552567512 0.4525743904491961 0 0 1.759467698196014 1:1.25 2:1 3:0.5 4:1.25 5:0.75 6:1 7:1.25 8:0.25 10:0.75 11:1.75 12:1.75 13:4.25 14:0.75 15:1 16:3 17:2.25 18:1.5 19:1.25 20:4 21:2.75 22:2.75 23:0.5 24:0.75 25:3 26:1 29:1.75 30:0.25 31:2.25 32:1.25 33:2.25 34:4 35:1 36:2 37:0.25 38:-0.5 39:-0.5 40:0.25 41:-0.25 43:-0.75 44:0.25 46:-0.25 47:-0.25 48:-1.25 49:0.75 50:-0.75 51:-0.5 52:-1 53:-0.25 54:-0.5 55:-0.75 57:-0.75 58:-0.75 60:-0.25 61:-0.5 65:-1.25 66:-0.25 67:0.25 68:-0.25 69:-0.75 73:0.75 74:-0.5 75:-0.5 76:0.75 77:0.25 78:1 79:-0.75 80:0.25 82:-0.25 83:-0.25 84:-0.75 85:0.75 86:0.75 87:1 88:-1 89:1.25 90:-0.5 91:-0.75 93:-0.75 94:-0.75 96:-0.25 97:-1 101:-1.25 102:-0.25 103:-0.25 104:0.75 105:-0.75 108:1.5 109:-0.25 111:0.5 112:-0.25 113:-0.75 115:0.25 116:0.25 118:-0.25 119:-0.25 120:1.25 121:-0.75 122:-0.75 123:-0.5 124:-1 125:-0.25 126:0.5 127:0.25 129:0.75 130:0.75 131:-0.5 132:-0.25 133:-0.5 137:0.75 138:0.25 139:0.75 140:-0.75 141:-0.75 144:0.5 
-0 0.3655039941701666 0 0.460625920941442 0.2878265875710209 0.05034938605784914 0.2796099277695771 0.1027685031348266 0 0 0.1571083140912608 0 0.2547692793686264 0 0.03551610053150782 0 0.1158998254454819 0 0.3547885434842324 0.2425229417455789 0.05678404631725128 0.5173937791105044 0.0004648296634079453 0 0.5071624385994069 0 0 0.123435709735654 0 0 1:1.5 2:0.75 3:3.75 4:2.25 5:1.5 6:0.5 7:2.25 8:0.25 10:1.75 11:3 12:2 13:2.75 14:0.75 15:1 16:3 17:1.5 18:1.25 19:1.25 20:2.25 21:1.5 22:3.75 23:3.25 24:2 25:1.25 26:1 27:1 29:1.5 30:1.25 31:2.75 32:2 33:1.75 34:3.25 35:2.25 36:2.25 37:0.5 38:-0.25 39:0.75 40:1.25 41:0.5 42:-0.5 43:-0.25 44:0.25 46:-0.25 48:0.5 49:0.75 50:0.25 51:-1 53:0.5 54:-0.25 55:-0.25 56:-0.25 57:-1 58:0.25 59:0.25 61:-0.25 65:-0.5 66:-1.25 67:0.75 69:0.25 70:-0.25 71:0.25 72:0.25 74:-0.75 75:0.75 76:-0.25 78:-0.5 79:0.25 80:0.25 82:-1.25 84:-1 85:-0.25 86:0.25 87:-1 88:1 89:0.5 90:-0.25 91:-1.25 92:0.75 93:-1.5 94:-0.25 95:0.25 97:-0.25 101:-1 102:-1.25 103:0.75 104:1 105:-0.75 106:-0.75 107:0.25 108:0.75 109:-1 110:0.25 111:-1.25 112:-1.25 113:1 114:0.5 115:-0.25 116:0.25 118:-0.25 120:-0.5 121:-1.25 122:0.75 123:1 125:0.5 126:0.25 127:0.25 128:0.25 129:1 130:1.25 131:0.25 133:-0.75 138:1.25 139:0.75 141:-0.25 142:-0.25 143:0.25 144:-0.25 
-0.1101475357309815 -0.009914976672934119 0.07847998334650917 0.5304706611781879 0.08306327909337802 0 0.7889438657618529 0.2445120099049408 0.1551804505993168 0 0.0667806303622026 0 0 0 0 0 0 0 0 0.4890201755201506 0.287875434651256 0.5265788362215343 0.166712493809336 0 0.2627829652277901 0 0 0 0 0 1:1.75 2:0.25 3:3 4:3.5 5:0.75 6:2 7:1.5 8:2.5 9:2 10:1.75 11:1.5 12:1.75 13:2.5 15:0.25 16:2.75 17:1.25 18:0.5 19:2.75 20:2.5 21:1 22:2.5 23:2.25 24:1 25:2.25 26:0.25 27:1.5 28:2.5 29:0.5 30:1.5 31:1 32:2.5 33:2 34:2.75 35:1.75 36:0.5 37:-0.25 38:0.25 39:-1 41:0.25 43:0.5 44:-0.5 46:-0.25 47:0.5 48:-0.75 51:0.25 52:0.25 53:-0.75 55:-0.25 58:-0.5 59:-0.75 60:0.5 61:0.75 62:-0.25 68:-1.5 70:-0.25 71:-0.25 72:-0.5 73:-0.75 74:0.25 75:-0.5 76:-0.5 77:0.75 78:1 80:0.5 82:-0.25 83:0.5 84:-0.75 85:0.5 87:0.25 88:0.25 89:1.25 91:0.75 92:0.5 94:-1.5 95:0.25 96:0.5 97:0.75 98:0.25 100:-2.5 104:-0.5 105:1 106:0.25 107:0.25 108:-0.5 109:0.25 110:0.25 111:-1.5 113:0.25 114:1 116:-0.5 118:-0.25 119:-0.5 120:-0.25 123:0.25 124:-0.25 125:-0.75 126:0.5 127:-0.25 128:-1 130:0.5 131:0.25 132:1 133:-0.75 134:-0.25 135:-0.5 137:0.5 138:-0.5 140:-0.5 141:1 142:-0.75 143:0.25 144:0.5 
-0 -0 0 0 0.1803892793555203 0 0.07497612921729653 0 0 0 0 0 0 0 0 0 0 0 0 0 0 0.7701981655756186 0 0 0 0.02640933339978733 0 0 0.07376140946141949 0 1:1.75 2:1 3:3.25 4:2.25 5:1.25 6:2.5 7:4 8:2.5 9:1.25 10:4 11:1.5 12:1.25 13:2 14:0.75 15:0.75 16:2 17:2.5 18:1 19:4 20:3 21:2 22:3.25 23:2.75 24:1 25:1.25 26:1.75 27:1 28:1.75 29:1.5 30:1.25 31:0.5 32:2 33:0.75 34:3.5 35:1.25 36:0.5 37:-0.25 38:1 39:0.25 40:0.25 41:0.25 42:-0.5 44:0.5 45:0.25 47:0.5 48:-0.25 50:0.25 51:-0.25 53:0.5 58:-0.25 59:-0.25 61:0.25 62:0.25 63:0.5 64:0.25 65:0.5 66:0.75 69:-0.25 70:-0.5 71:0.25 72:0.5 73:-1.75 74:1 75:-1.25 76:1.25 77:0.75 78:0.5 80:0.5 81:1.25 82:-1 83:1.5 84:-1.25 85:1 86:0.25 87:0.25 89:0.5 90:0.5 91:-1 92:2 94:-0.75 95:-1.25 96:1 97:0.25 98:0.25 100:-0.75 101:1.5 102:-0.25 103:-0.5 104:-1 105:0.75 106:-0.5 107:0.75 108:-0.5 109:0.25 110:1 111:-0.25 112:0.25 113:-0.25 114:-0.5 116:0.5 117:0.25 119:0.5 120:0.25 122:-0.25 123:0.25 125:0.5 126:0.5 130:-0.25 131:-0.25 133:-0.75 134:-0.25 135:-0.5 136:-0.25 137:0.5 138:-0.75 140:-1 141:-0.25 142:-0.5 143:-0.25 144:-0.5 
-0.06453899003698635 -0.06769795047974572 0.3334107278114747 0.3998473958620573 0.5604766147375145 0.1606415374068933 0.3262500502509581 0.08636957482142023 0.1901953556601476 0.3352229379502875 0 0 0.0390065865104445 0.6365141297096867 0.2837044685711603 0.01168388392778571 0 0.4593354806554639 0.2385689437232454 0.1700594650693883 0 0.3813850353767637 0 0 0.5252449318295538 0 0.5188344594280986 0 0.04313167674409651 0 1:3.75 2:1 3:4.25 4:3.25 5:2.75 6:3 7:4 8:2 9:1.5 10:4 11:2.75 12:2.75 13:2.5 14:0.5 15:1.75 16:3.25 17:2.25 18:1 19:3.25 20:3.25 21:2.25 22:3 23:3.75 24:2.5 25:1.75 26:2.25 27:1 28:2.25 29:1.75 30:2 31:0.5 32:2.5 33:2.5 34:2 35:2 36:0.25 37:-0.75 38:-0.5 39:-0.25 40:1.25 41:0.25 42:-1 44:-0.5 45:0.5 47:0.25 48:-0.25 49:1 51:-0.75 52:-0.25 53:-0.25 54:0.5 55:0.25 56:-0.25 57:0.75 58:0.5 59:-0.25 61:-0.25 62:-0.25 63:0.5 64:-1.25 65:-0.75 66:0.5 68:-0.5 69:0.5 70:-0.5 71:0.5 72:-0.25 73:-0.25 75:-0.75 76:1.25 77:0.25 78:1 81:0.5 83:1.25 84:-0.75 85:1 86:-0.5 87:0.75 88:-0.25 89:0.25 91:-0.25 92:-0.25 93:0.25 94:0.5 95:-0.25 97:-0.25 98:-0.25 100:-1.25 101:0.25 104:-0.5 105:0.5 106:-0.5 107:0.5 108:-0.25 109:-0.75 110:0.5 111:-0.25 112:-0.75 113:-0.25 114:1 116:0.5 117:0.5 119:-0.25 120:-0.75 121:-0.5 123:0.25 124:0.25 125:0.75 126:0.5 127:-0.25 128:0.25 129:0.75 130:-2 131:-0.25 132:-0.5 133:1.75 134:1.25 135:0.5 136:0.25 137:0.75 138:0.5 139:0.5 140:-0.5 141:-0.5 144:0.25 
-0.106056574351423 -0.7304391677892251 0 0.1622939033674157 0.2694935518075984 0.2733095592827029 0 0.07767324772013357 0 0 0 0.3291667178095766 0.1009408359335953 0.4019087966707511 0 0.2053274284624164 0 0 0 0.7619233504762868 0 0 0 0.2948655357461499 0 0 0.2975410403184733 0.2244021871968658 0 0 1:3.5 2:1 3:4 4:3.75 5:2.75 6:1.5 7:2.5 8:1.5 9:0.5 10:2 11:1.5 12:2 13:1.5 14:0.75 15:0.5 16:2.75 17:1.75 18:0.75 19:2.5 20:3 21:0.75 22:1.75 23:3.25 24:2 25:0.75 26:1.25 27:1.25 28:0.75 29:1 30:1.75 31:0.75 32:3 33:2 34:0.75 35:1.5 36:0.5 37:-0.5 38:1 39:-0.5 40:0.75 41:0.25 43:0.5 46:-0.5 47:1 48:-1 49:1 50:0.25 52:0.25 53:0.75 54:0.75 55:-1 56:1 57:0.75 58:-0.75 59:0.25 61:0.75 62:-0.25 63:-0.25 64:-0.75 65:0.5 66:0.25 67:-0.25 68:0.5 70:-0.25 71:0.5 73:-1 74:1 76:0.75 77:0.25 80:0.5 81:0.5 82:-0.5 83:0.5 84:-1 85:1 86:0.25 88:-0.25 89:0.75 90:0.75 91:-1 92:1 93:0.75 94:-0.75 95:0.25 96:1 97:0.75 98:-0.25 99:0.25 100:-0.75 101:0.5 102:0.25 103:-0.25 104:1 105:1 106:-0.25 107:-0.5 109:-1 110:1 111:0.5 112:-0.25 113:-0.25 114:1.5 118:-1 121:0.5 122:-0.25 123:0.5 124:0.25 125:0.75 126:0.75 127:-0.5 129:0.75 130:-0.25 131:0.25 133:0.75 134:0.25 135:-0.25 136:0.75 138:-0.25 139:0.75 140:-0.5 142:0.75 143:-0.5 144:-0.5 
-0.1567577637069348 -0.02166422089345286 0.1447789844108142 0.0106019628568469 0.2262816623703485 0.2799769370208377 0.03187641469973414 0.1304483109334227 0.1876025635707035 0 0.4234375833634148 0.2285132770260845 0 0.5659747831815593 0.0698054730558408 0 0.1347322879876297 0 0 0 0.4713394754566235 0 0.3145099239635539 0.2750650643238782 0 0.454348951379201 0 0 0.5155668988620605 0.03605951088963637 1:3 2:1 3:4.25 4:3.75 5:2.25 6:0.75 7:2.5 8:2 9:1 10:1 11:1.75 12:2 13:1.75 14:0.75 15:0.25 16:3.75 17:1.75 18:1 19:3.25 20:3.5 21:1.25 22:2 23:3.5 24:2.5 25:0.25 26:2 27:1.5 28:1.25 29:1.25 30:2.25 31:1 32:3 33:2.25 34:0.25 35:2.25 36:0.75 37:-0.5 38:1 39:-0.25 40:0.75 41:0.25 42:0.75 46:-0.5 47:0.25 48:-1 49:0.75 50:0.25 51:0.25 52:-0.25 53:0.75 54:0.5 55:-1.25 56:0.5 57:0.75 58:-0.5 60:0.5 61:0.25 64:-1.25 65:0.75 66:0.75 67:-0.5 68:0.5 69:-0.25 70:0.25 71:1.25 72:-0.25 73:-0.5 74:1 75:-0.25 76:0.75 77:1.25 78:0.75 79:-0.5 80:1 82:-0.5 83:0.25 84:-1 85:0.75 86:0.25 87:0.25 88:-0.25 89:0.75 90:1 91:-1.25 92:0.5 93:0.25 94:-0.5 95:-0.5 96:0.5 97:0.25 99:-0.5 100:-1.25 101:0.75 102:0.75 103:-0.5 104:1 105:1.25 106:0.25 107:0.25 108:-0.25 109:-1 110:1 111:-0.75 112:-0.25 113:-0.75 114:0.75 119:-0.25 121:0.75 122:-0.25 123:0.25 124:-0.25 125:0.75 126:0.5 127:-0.75 128:0.5 129:0.75 132:-0.5 133:0.25 134:1 135:-1 136:1.25 137:0.25 138:-0.75 139:1 140:-0.5 141:-0.25 142:0.25 143:0.25 144:-0.25 
-0.01479465681491887 -0 0.2393972112496495 0 0.2505211680400252 0 0 0.8665176307823513 0.2853372514044426 0.5097200511749184 0.1604648265488765 0.7948291774844362 0.1758027395289228 0.4306605836035574 0.08363194162838537 0 0.292129301058764 0 0.6858947847477115 0 0.5481724418795224 0.5402927178873531 0 0.1199888119150436 0 0 0 0.2173433436154208 0 0 1:3 2:1.25 3:4 4:2.25 5:2 6:2.75 7:4 8:2.5 9:2.75 10:3.75 11:2.5 12:3 13:1.5 14:1 15:1.25 16:2.5 17:2.25 18:1 19:3.5 20:2.75 21:1.5 22:1.5 23:3.25 24:3.25 25:0.5 26:2.5 27:1.5 28:3.75 29:1.5 30:2.5 31:1 32:2 33:1.25 34:1.5 35:0.5 36:1 38:-0.25 40:0.25 42:-0.75 44:-1.5 45:0.25 46:0.25 47:0.5 48:-0.5 51:-0.75 52:0.5 53:0.25 56:0.25 57:0.5 59:0.25 60:-0.25 61:0.5 64:-0.25 66:0.5 68:-1 69:0.25 70:-0.5 71:0.5 74:-0.25 76:1.25 77:2 78:0.75 80:-0.5 81:0.75 82:0.25 83:1 84:-1 85:1.5 86:0.5 87:0.75 88:0.5 89:0.75 91:-0.5 92:0.25 93:0.5 94:1.5 95:-0.25 96:0.25 97:0.5 99:0.5 100:-0.75 102:0.5 105:0.25 106:-0.5 107:0.5 108:-1 110:1.25 111:-1 112:0.25 114:1.25 116:-0.5 117:0.25 118:-0.25 120:-0.5 122:-0.5 123:-0.25 124:-0.5 125:0.75 128:0.75 129:0.5 131:-0.25 132:-0.25 133:0.5 134:1.5 136:0.25 137:1.5 138:-0.5 140:-1 141:-0.75 142:-0.5 143:0.5 
-0.5496281120319257 -0.07295488664210008 0.5813713164389248 0.2958658178868715 0.37480889829975 0 0 0.1753436729583501 0.8702504461441764 0 0 0 0.1709598716040368 0 0.3133453163455013 0 0 0 0.1241505937083338 0.1317487936138781 0 0 0.9514517646981652 0.5448340424668594 0 0 0.01418119913812554 0 0.1258481972024415 0.03772913467599132 1:2.5 2:0.75 3:3.25 4:3.5 5:2 6:1.5 7:2.25 8:2.5 9:1 10:1.75 11:2.5 12:2.75 13:3 14:0.5 15:1.25 16:3 17:2.25 18:0.75 19:3.5 20:3.5 21:2 22:2.75 23:2.75 24:2.25 25:1.25 26:2.25 27:2 28:1.5 29:1 30:2.5 31:2 32:3 33:2.5 34:2 35:2.25 36:1.5 38:0.75 39:-0.75 42:-0.5 43:-0.25 44:-0.5 46:0.25 48:-0.25 51:-0.75 52:0.5 53:0.25 54:-0.25 56:0.5 58:-0.25 59:-0.25 60:-0.25 61:0.75 62:0.75 63:0.5 65:0.5 66:-0.5 69:-0.5 71:0.75 72:0.5 73:-1.5 74:0.75 75:-0.75 76:0.5 77:1 78:1.5 79:-0.75 80:0.5 81:1 82:-0.75 83:0.5 84:-0.75 85:1 87:1.25 89:1.25 90:0.25 91:-1.5 92:0.5 94:-1.75 95:0.25 96:0.75 97:0.75 98:0.25 100:-1.5 101:0.5 105:0.5 107:0.25 108:-0.5 110:0.75 111:-1.75 113:-1 114:-0.5 115:0.75 116:-0.5 118:-0.25 120:0.25 122:-0.5 123:-0.75 124:0.5 125:0.25 126:0.25 128:-0.5 130:0.25 131:0.25 132:-0.75 133:0.25 134:0.75 135:0.5 137:1 138:-1 140:-1 141:-0.5 143:0.75 144:0.5 
-0.8316164989188513 -2.301228435492372 1.596994544256134 2.455437133782267 0.8829975790461755 1.594318241837438 1.382693639786278 2.268435080515941 2.831162972363788 2.604579285168844 1.492812775614239 1.095981370868506 1.788137770697904 1.349658935610453 1.523603655437042 0.8848968704261007 1.634728011377673 0.9036731409061564 2.186589860484927 1.067109600288667 1.886991198957113 1.734173714631045 2.241757348385034 1.375860303358005 1.615320716961917 1.473670072693668 2.108668212034309 0.7462871861231767 0.9500841846057325 2.815084338968572 1:1 2:1.25 3:3.5 4:2.25 5:0.75 6:0.75 7:1.25 8:1.25 9:1 10:1 11:3.5 12:2.75 13:3 14:1 15:2.25 16:3 17:2.25 18:2.75 19:1.75 20:3.5 21:2.75 22:2.75 23:3 24:2.25 25:2.5 26:1.5 27:1.25 28:1.25 29:3 30:1.5 31:2.5 32:2 33:2 34:2.25 35:2.5 36:1.75 37:-0.5 38:0.25 40:0.75 41:0.25 42:0.25 43:-0.25 44:0.25 46:-1 48:-0.75 49:0.5 51:0.25 53:0.75 54:-0.25 55:0.25 57:0.25 58:-0.75 59:-0.5 60:-0.25 61:-0.5 63:-0.25 64:0.25 66:0.5 68:-0.5 69:-0.5 70:0.25 71:0.5 72:0.75 73:-1 74:0.75 76:1.25 77:-0.25 78:0.25 79:-0.25 80:0.25 82:-1 84:-1.25 85:1 87:0.25 89:-0.25 90:0.75 91:0.25 93:-1.25 94:-0.25 95:-0.5 96:0.25 97:-0.5 98:0.5 99:-0.25 100:1.25 101:-1.5 102:-0.5 103:0.5 104:-0.5 106:0.25 108:-0.25 109:0.5 110:-0.25 111:-0.5 112:-0.25 113:-0.75 114:-0.25 115:0.25 116:0.25 118:1 119:0.5 120:-0.75 121:-0.5 122:-1 123:-1.75 124:1 125:-0.75 126:-0.25 127:1.75 128:1.5 129:-0.75 130:0.25 131:-1 132:-0.25 133:-0.5 135:0.25 136:0.25 137:-0.5 138:0.5 139:1 140:-1 141:-0.5 142:-1.75 143:1 144:-0.25 
-0 -0 0 0.5580064661972807 0 0.219727931147798 0.1875410606365295 0 0.3724644666990104 0.008641219882898996 0 0 0 0.07276347558277675 0.6520701094915027 0.7098006555955315 0 0 0 0 0 0.04900230996831066 0 0 0.2777823625998958 0 0.1156837450966649 0 0 0 1:1 2:1 3:2.75 4:2 5:0.75 6:1.25 7:0.75 8:1.5 10:1 11:0.75 12:2.75 13:1.25 14:1 16:2.25 17:1.5 19:2.25 20:2.75 21:2.5 22:1.75 23:2 24:2 25:2.5 26:1.75 27:0.75 29:0.25 30:1 31:0.25 32:2 33:0.25 34:2 35:0.75 36:0.25 38:-0.5 39:-0.25 40:0.5 41:-0.25 42:-0.75 43:-0.75 44:-0.5 47:0.25 48:-0.75 49:0.25 50:0.5 52:-0.25 53:0.5 55:0.25 56:-0.75 57:0.5 58:0.25 59:-0.5 61:0.5 62:0.75 63:0.75 65:-0.25 67:-0.25 68:-0.5 69:-0.25 71:0.75 72:-0.25 74:-1 75:0.75 76:0.5 77:0.75 78:1.25 79:-0.75 80:0.5 83:0.25 84:-0.25 85:0.25 88:-0.75 89:0.5 91:-0.25 92:0.25 93:0.5 94:0.25 95:0.5 97:0.5 98:0.75 99:0.25 101:-0.25 103:-0.25 105:-0.25 107:0.75 108:-0.25 110:0.5 111:-0.25 113:-0.25 114:-0.75 115:0.75 116:-1.5 119:-0.25 120:-0.75 121:0.25 122:-0.5 124:-1.25 125:0.5 127:-0.25 128:0.75 129:0.5 130:-0.25 131:-1 132:1 133:-1.5 134:0.75 135:0.25 137:0.25 139:0.25 140:-1.5 141:0.25 142:-2 143:0.75 144:0.25 
-1.240167638167883 -0.939713421155563 0.6307965586311893 1.295413484023867 1.007614169533224 1.319670898482428 0.3965911132304929 1.719046428175577 1.372731906532798 1.935687953828269 1.551236930493384 1.672385712233942 1.615061940144974 1.281084726603009 0.6001524137060561 1.065481797558423 1.862490730689192 0.7190015989229183 1.526346335226202 1.180647794574366 1.797473468130822 1.893847937262464 0.9943056246739302 0.686324634577025 1.532431455836614 1.604641416913436 1.831605072469534 1.18735197135595 1.158667017686746 1.747273190504422 1:2 2:2.5 3:2 4:0.25 5:1.5 6:1.25 7:1 8:2 9:2.5 10:0.75 11:0.25 12:2.75 14:2.5 15:0.25 17:0.25 18:0.5 19:2.5 20:0.25 21:0.75 22:0.5 23:1.5 24:1.75 25:2 26:0.25 27:0.75 28:3 29:0.5 30:0.75 31:1 32:0.25 35:0.5 36:1 38:-0.5 40:0.25 41:-1.5 42:-0.25 43:1 44:-1 45:0.5 46:-0.25 47:-0.25 48:-0.75 50:-0.5 51:-0.25 53:0.25 54:0.5 56:-0.25 57:0.25 59:-1 60:-0.75 61:-0.5 62:0.25 63:0.75 66:0.25 68:-0.25 71:0.5 73:-1 74:-0.5 76:0.25 77:0.5 78:1.25 79:-1 81:0.5 82:0.25 83:-0.25 84:-0.75 87:0.25 89:0.25 91:-0.5 92:-0.25 93:0.25 94:0.5 95:0.5 96:0.25 97:1 98:0.25 99:0.25 100:-2 102:0.25 104:0.25 107:0.5 108:-1 110:-1.5 112:0.25 113:-0.5 114:-0.25 115:-1 116:-1 117:0.5 118:0.25 119:0.25 120:-0.25 123:-0.25 125:0.25 128:0.25 129:-0.25 131:-1 132:0.75 133:0.5 134:0.25 135:0.25 137:0.5 138:-0.25 140:-0.25 143:0.5 
-0.08147885613615892 -0.7818668725018971 0 0 0 0 0 0 0 0.02487018283555002 0 0 0 0.4240348949360271 0.1509251066321132 0.1935435194753789 0 0 0 0.247176432516012 0 0 0 0 0.6453965708041917 0.3733619901820258 0.1989567002938555 0 0.06767735522165062 0 1:1.25 2:0.75 3:2 4:1.75 5:1 6:0.75 7:0.75 8:1.25 9:0.75 10:0.75 11:0.5 12:1.75 13:1 14:0.75 16:1 17:1.25 19:1.75 20:1.5 21:1.75 22:2.5 23:1.5 24:1.25 25:1.5 26:1.5 27:0.25 28:0.75 29:0.25 30:0.5 31:0.25 32:1.5 33:1 34:1.25 35:1.75 37:0.25 38:-0.75 39:0.5 40:0.25 42:-0.25 43:-0.25 44:0.75 45:-0.75 46:0.25 48:-0.25 49:0.5 50:-0.25 53:-0.75 55:0.75 56:-0.5 57:0.25 58:-0.5 59:-0.5 60:-0.25 61:0.5 63:-0.25 64:-0.25 65:-0.25 67:-0.25 68:-0.5 69:-0.5 70:0.75 71:0.75 73:0.25 74:-0.75 75:0.5 76:0.25 77:1 78:0.75 79:-0.25 80:-0.25 81:0.75 82:0.25 83:0.5 84:-1.25 85:0.5 86:-0.25 89:0.25 91:0.75 92:0.5 93:0.25 94:-0.5 95:0.5 96:1.25 97:0.5 98:0.5 99:-0.25 100:-0.25 101:-0.25 102:0.5 103:-0.25 104:0.5 105:1 106:-0.75 107:0.75 109:-0.75 110:0.75 112:-0.25 114:-0.25 115:-0.25 116:-0.75 117:-0.75 118:0.75 120:-0.25 122:-0.25 124:-1 125:-0.75 127:0.75 128:0.5 129:-0.25 130:0.5 131:-0.5 132:-0.25 133:-0.5 135:0.25 136:-0.25 137:0.25 139:0.25 140:-1.5 141:-0.5 142:-1.25 143:0.75 
-0.03661011603683192 -0 0 0 0 0 0.2019258673536726 0 0 0.00770061319225638 0 0 0 0.01389683155511684 0 0 0 0 0 0 0 0 0 0 0 0 0 0 0 0 1:2.75 2:1.75 3:3.5 4:1.5 5:2.25 6:2.75 7:2.5 8:2.5 9:2.5 10:3.5 11:1.75 12:3.5 13:2.25 14:1.25 15:1.5 16:1.5 17:2 18:2.25 19:3.25 20:2.25 21:2.5 22:2.75 23:2.75 24:2.75 25:2.25 26:2.25 27:1 28:3 29:2.75 30:1.5 31:1.25 32:1.25 33:1.25 34:2.25 35:2 36:1 37:0.25 38:-0.25 40:0.5 41:0.25 42:-0.25 44:-0.5 45:-0.5 46:0.5 47:-0.25 49:0.75 50:-0.25 51:-0.5 53:-0.5 54:-0.25 55:0.25 56:-0.75 57:0.5 58:0.25 59:-1.25 60:-1.25 61:0.25 62:0.75 63:0.5 64:-0.5 65:0.25 66:0.5 67:0.25 68:-0.25 69:-0.75 70:0.25 71:0.5 73:-0.25 74:0.25 76:1 77:0.25 78:0.25 81:1 83:1.25 84:-0.5 85:0.75 86:-0.25 87:1 90:-0.25 91:0.25 92:0.75 94:0.25 95:-0.25 96:0.75 97:0.75 98:0.25 99:0.5 100:-1.5 101:0.75 102:0.5 103:-0.25 104:-0.25 105:0.75 106:0.25 107:0.5 108:-0.5 109:0.25 110:1.25 111:0.5 113:-1.75 114:-0.75 115:1.5 116:-1 119:0.25 121:0.25 122:-0.75 124:0.5 125:-0.5 126:0.25 127:0.25 128:0.75 130:-1.25 131:-0.25 132:0.75 133:-1.25 134:0.75 137:1.25 138:-0.5 139:-1.25 140:-0.75 141:-0.25 142:-1.75 144:-0.5 
-0 -0 0 0 0 0 0.4895510839816789 0.2582547216420928 0 0.003723143588966001 0 0 0.7013160519941076 0 0 0.5598976742884767 0.2952126041648329 0.5968508645459113 0 0 0 0.1771618667542764 0 0 0.3030047793641424 0 0.2489784228844271 0 0 0 1:2.5 2:2 3:3.25 4:0.75 5:1.5 6:2 7:2 8:1.5 9:1.75 10:2 11:0.25 12:2 13:1.5 14:1.75 15:0.5 17:0.75 18:1.25 19:2.25 20:0.5 21:1.5 22:1.75 23:2.25 24:1.75 25:2 26:0.75 27:0.25 28:2 29:1.5 30:0.25 31:0.25 32:0.5 33:0.75 34:2 35:0.75 36:0.25 38:0.5 39:-0.25 40:0.75 45:0.75 47:0.25 48:0.5 50:0.25 53:-0.25 54:0.25 55:-0.25 56:0.5 58:-0.25 59:0.25 60:1.25 62:0.75 63:0.25 64:-1 65:1 66:0.25 67:-0.25 69:0.25 71:0.25 72:0.25 73:0.5 74:-1 75:0.75 76:0.75 77:-1 80:0.5 81:0.75 82:1 83:0.25 84:-1 85:0.5 86:0.25 89:-0.25 90:0.25 91:0.75 92:0.5 94:0.75 95:-0.75 96:0.25 97:0.5 98:0.75 99:0.25 100:-1 101:1.5 102:-0.25 103:0.25 105:0.25 107:0.75 108:-0.25 110:0.5 111:0.25 112:0.75 113:0.5 114:2 117:0.75 119:0.25 120:-0.5 122:-0.25 123:0.5 125:-0.25 126:0.25 127:0.25 128:0.5 129:0.5 130:-0.25 131:0.25 132:0.75 133:-1.5 134:0.75 135:0.25 136:1 137:1 138:-0.25 139:-0.25 140:-0.5 141:-0.25 142:-2 143:0.25 144:-0.25 
-0 -0 0.4649387550535686 0.2300318590513114 0.3210406132736427 0 0 0.3724442842552167 1.261043673202282 0.6006392372402348 0.298663952720593 1.301432776775171 0.3717195380771245 0 0 0 0 0.7464309107581199 1.365714099376985 0.1197056576841839 0.6915601332791375 0.9504742263252546 0 0.03904550913915059 1.62948071832563 0 0.187153973760245 0 0 0.1599278203641065 1:2 2:0.75 3:3 4:2.25 5:1.5 6:2.5 7:1.25 8:2.5 9:3 10:2.5 11:0.25 12:2.5 13:1.75 14:0.75 15:0.25 18:0.75 19:2.5 21:2.25 22:1 23:2.25 24:2.25 25:2 26:1.75 27:1 28:3.75 29:0.75 30:1.5 31:0.5 32:2 33:1.75 34:0.25 35:1.25 36:0.25 37:-0.5 38:-0.75 39:-0.5 40:0.75 41:-0.5 42:-1.5 43:-0.25 44:-0.5 46:0.5 47:-0.25 49:0.75 50:-0.25 51:-0.25 54:0.75 57:-0.25 58:0.5 59:-0.75 60:0.25 62:0.75 63:0.5 64:-0.75 65:-0.25 66:-0.5 68:-0.5 69:-0.75 70:0.25 71:0.75 72:0.25 74:-0.75 75:1 76:0.75 77:0.5 78:0.5 79:-0.25 80:-0.5 81:0.5 82:0.5 83:-0.25 84:-1.5 85:0.75 86:-0.25 87:0.25 90:0.25 91:0.5 93:-1.75 94:0.5 95:0.25 96:0.25 98:-0.25 100:-0.75 101:0.25 105:0.75 106:0.25 107:0.25 108:-0.25 109:0.5 110:0.75 111:-0.5 112:0.25 113:-0.5 114:0.5 115:0.25 116:-0.5 117:0.5 118:0.5 119:0.25 121:0.75 122:-0.25 123:-0.25 126:0.25 127:1 129:-0.25 131:-0.75 132:0.25 134:0.75 135:-0.5 136:-1.25 137:0.25 139:0.5 140:-1.5 141:-0.75 142:0.25 143:0.75 144:-0.25 
-0 -0 0 0 0 0 0 0 0 0 0 0 0 0 0 0 0 0 0 0 0 0.4577887674878781 0 0 0 0 0 0 0 0 1:1.75 2:1 3:3 4:2.75 5:1.75 6:0.75 7:3.75 8:1.5 9:1.25 10:2.5 11:1 12:1.5 13:1.75 14:1 15:0.5 16:1.25 17:0.75 18:1.5 19:3.5 20:1.5 21:1.25 22:2.5 23:2.25 24:1.25 25:1.75 26:0.75 27:1.25 28:1.25 29:1.5 30:1.5 31:0.5 32:2.25 33:1.25 34:2.75 35:0.75 36:0.5 37:-0.25 39:-1 40:0.25 41:0.25 42:-0.75 43:-0.25 44:0.5 45:-0.25 46:-0.5 47:-0.5 49:0.25 51:-0.5 52:-0.25 53:0.25 54:-0.5 56:-0.5 57:-0.75 58:0.5 59:-0.25 60:0.25 61:0.25 62:-0.25 63:0.25 64:0.25 65:0.5 68:-0.75 69:-0.25 70:-0.75 71:0.75 73:-0.25 76:1.25 77:0.75 78:0.75 79:-0.25 81:1.25 82:-0.5 83:1 84:-1.5 85:0.25 86:-0.5 87:0.5 88:-0.25 89:0.25 91:0.5 92:1.5 93:-0.75 94:0.5 95:-0.25 96:0.25 97:0.25 98:0.25 99:-0.25 100:-0.75 101:1 102:-0.5 103:-0.5 104:-0.25 105:1.25 106:-0.75 107:0.75 108:-0.5 109:-0.25 110:1 111:-1 112:-0.25 113:-0.75 114:-0.75 115:-0.25 116:-1 117:-0.25 118:-0.5 119:-0.5 121:-0.25 122:-0.5 123:-0.5 124:0.25 125:-0.25 128:-0.5 129:0.25 130:-0.5 131:-0.75 132:1.25 133:-0.25 134:0.25 135:-0.25 136:0.25 137:1 140:-1.25 141:-0.25 142:-1.25 143:0.75 
-0 -1.381425359067921 0.330030980323314 0.4154007100323798 0 0.823499370462441 0.4751668077662578 0.9511225977638742 1.445206383695981 1.277482993816263 0.6488063462667982 1.295525769367086 0.9155408914052405 0.4002883902721573 0.8179751815044358 0.6348090152250792 0.7377597349843335 0.4546089892892566 1.471892557679608 0.344313426948778 0.6294871370083107 0.2985861007743391 0.5075445085965559 0.9475075713396465 2.197521783239644 1.116046123016181 0.5959270066976575 0.4297158417822064 0.3459087460601475 1.873873071786466 1:0.5 2:1.25 3:3 4:0.75 5:0.5 6:0.75 7:1 8:0.5 9:0.5 10:1 11:0.25 12:2.25 13:1 14:1 15:0.5 16:0.75 17:1.25 18:1 19:1.25 20:1.75 21:2.5 22:1.5 23:2.25 24:2 25:2 26:2 27:1 28:0.5 29:1.25 30:1.5 31:0.5 32:0.5 33:1.25 34:0.75 35:0.75 36:0.5 37:-0.5 38:-0.75 40:0.25 41:-0.5 42:0.75 43:-0.5 44:-0.5 45:-0.5 46:-0.5 47:0.25 48:-0.75 51:0.5 52:-0.25 53:-0.25 54:-0.5 55:-0.25 56:-0.25 57:-1.5 58:0.5 59:-0.75 60:0.5 61:-0.5 62:0.5 65:0.75 66:-1 68:-0.5 69:0.25 70:-0.75 71:0.75 72:0.5 74:-0.75 75:0.5 76:0.75 77:0.5 78:-0.75 79:-0.5 80:0.5 81:0.5 82:0.5 83:0.25 84:-1.25 85:1 88:-0.75 89:0.25 91:-0.75 92:1.75 94:0.5 95:0.25 96:1 100:-0.5 101:1.25 102:-0.5 103:-0.5 104:0.5 105:0.25 106:-0.75 107:0.75 108:-0.5 110:1.25 111:0.5 112:0.25 113:-0.5 114:-0.75 116:-0.5 117:-0.5 119:0.25 120:-0.25 124:0.25 125:-0.25 126:-0.5 127:-0.25 128:-0.25 129:-1 130:-0.5 131:-0.75 132:-0.5 133:0.5 134:0.5 137:0.75 140:-0.5 141:-0.75 142:0.75 143:0.75 144:-0.5 
-0.4566209999939176 -0.8661529867383361 0.7283000878734718 1.658772924231513 0.7122841470477945 1.001539246385518 0.1956209751876486 1.613388128742587 1.251821478276656 0.8032733171383599 0.8016846420058975 0.3566111760392137 1.385234070172742 1.307163380407735 0.8265407900874401 0.5466679187526444 1.790399464616203 0.6621165744443167 0.7272865675652656 1.015685858069617 1.123887901191164 1.141121097405677 1.22482169431134 0.818011745955628 1.264217973144655 0.7973551543100603 2.147745475895832 0.3652503456544178 0.555843930263948 1.39615226030294 1:3.5 2:3.25 3:3.75 4:1.75 5:2.5 6:3 7:3.75 8:2 9:1.25 10:4 11:3 12:5 13:2.25 14:2.5 15:1.75 16:4 17:3 18:1.75 19:3.5 20:4.5 21:4.5 22:4.5 23:2.75 24:4 25:3.75 26:3.75 27:2.75 28:1.5 29:2.25 30:3.75 31:1.75 32:1.5 33:1.25 34:3.25 35:3.25 36:1 38:-0.75 39:0.25 40:0.75 41:0.5 42:-0.5 43:0.25 44:0.5 45:0.25 46:-0.5 49:0.75 51:-0.25 54:0.75 55:-0.5 59:-0.75 61:0.25 62:-0.25 63:-0.25 64:-1 65:0.75 66:-0.25 67:0.25 69:0.75 70:-0.75 71:-0.25 74:-0.25 75:0.75 76:0.75 77:1 78:1 79:0.25 80:1 81:0.25 82:-0.5 85:0.75 86:-1 87:1.75 89:1 90:0.75 91:-1 93:-0.5 94:0.5 95:-0.75 97:0.25 98:-0.25 99:0.25 100:-1.5 101:0.75 102:-0.25 103:0.25 104:-0.5 105:-0.75 106:-0.75 107:-0.25 108:-0.5 109:-0.5 110:0.75 111:0.25 112:-0.25 113:-1 114:0.5 115:-0.25 116:0.5 117:0.25 121:0.25 122:-0.5 123:-0.25 126:0.75 128:0.5 131:-0.25 133:-0.25 134:-0.25 135:0.25 136:1 137:1.25 138:-1.25 139:-0.25 140:-1 141:-0.25 142:-0.75 143:-0.75 144:-0.5 
-0.5868085394807274 -1.880170543999266 0 0.169064214969037 0.2089116716285994 0.5110037312366125 0.8339667032643078 0.2291179386989355 0.03132552456050114 1.262328113928786 0 0 0.2049243305530631 0.4898934998105092 0.798981383851913 1.385385333708699 0.7182808864123054 1.261219664774126 0.6956230807689157 0.06820902129531764 0.1786828367839965 0.2951263001879089 0.3806388891591259 0.2082636787346499 1.347228917452574 0.9827886468710742 0.3747807209657362 0.2869880263090271 0.6393530721980774 1.194724467422745 1:1.75 2:1.5 3:2.75 4:1.25 5:1.5 6:0.75 7:1.25 8:0.75 10:1 11:0.5 12:1.5 13:1 14:1.25 15:0.25 16:1.5 17:1 18:0.25 19:1.5 20:1.75 21:1 22:1.75 23:2.25 24:1.5 25:1.5 29:0.5 31:0.75 32:1.25 33:0.75 34:1.25 35:1 36:0.5 37:-0.25 39:-0.25 40:0.25 41:-0.5 42:-0.25 43:-0.75 44:0.25 48:-0.5 50:-0.75 51:0.25 52:-0.5 54:0.25 55:-0.5 56:0.25 58:-0.75 59:-1.25 61:1 65:0.5 67:-0.25 68:-0.75 69:0.75 70:1.25 73:0.25 75:0.25 76:0.75 77:1.5 78:0.75 79:-0.25 80:0.75 84:-0.5 86:-0.25 87:0.25 88:-0.5 89:0.5 90:0.25 92:0.25 94:-0.75 95:-0.25 96:1 97:-0.5 101:0.5 103:-0.25 104:0.25 105:-0.75 106:-0.75 109:-0.75 110:1.5 111:0.25 112:0.75 113:-0.5 114:-0.25 115:-0.25 116:0.25 118:-1 119:-0.5 120:0.5 122:-0.25 123:0.25 124:-0.5 125:0.5 126:0.25 127:-1 128:-1.25 130:0.75 131:0.25 132:-0.5 133:-1 137:0.5 139:0.75 140:-0.75 141:-0.75 142:-0.75 144:0.5 
-0 -0.4610380010726117 0 0 0 0 0.1492717470465389 0 0 0 0 0 0 0.09325915448233083 0 0 0 0 0 0.9289568262938369 0 0 0 0.3198417277073534 0 0 0 0.1929108601177266 0 0 1:2 2:0.75 3:3 4:1.25 5:1.5 6:1.25 7:0.75 8:0.75 9:0.5 10:0.75 11:1.75 12:2.25 13:0.75 14:0.75 15:0.5 16:2.5 17:0.5 18:1.25 19:1.5 20:1.75 21:1.75 22:2 23:2.25 24:1.5 25:2.5 26:0.75 27:0.75 28:0.5 29:1.25 30:0.75 31:0.25 32:1 33:0.5 34:1.5 35:1 36:0.25 38:-0.75 40:0.75 41:-0.5 42:-0.25 43:-0.75 44:-0.25 46:-0.25 47:-0.25 48:-0.25 49:-0.75 50:0.25 51:-0.5 53:-0.5 54:-0.25 55:-0.5 56:-0.25 57:-0.25 59:-1.25 61:0.5 62:0.75 63:0.25 64:-0.5 65:-0.25 66:0.25 67:-0.25 68:-0.5 70:0.5 71:1 72:-0.25 74:-0.75 76:0.75 77:1.5 78:-0.25 79:-0.75 80:0.25 81:0.5 82:-0.25 83:1.25 84:-0.75 85:0.25 86:0.25 87:-0.5 89:0.5 90:0.75 91:-0.5 92:1.25 93:-0.25 95:0.25 97:0.5 98:0.75 99:0.25 100:-0.5 101:0.75 102:-0.25 103:-0.25 104:0.5 105:0.5 106:-0.5 107:0.5 108:-0.25 109:-1 110:0.75 112:0.25 113:-0.5 114:1.25 115:0.75 116:-0.75 118:-0.25 119:0.25 120:-0.25 121:-0.25 122:-0.25 123:0.5 124:-0.5 125:-0.5 126:0.25 127:-0.5 128:0.25 129:-0.25 131:-0.25 132:1.5 133:-1.5 134:0.75 135:0.75 136:0.5 137:0.25 138:0.25 139:0.25 140:-1 142:-1.5 143:0.5 144:0.25 
